{"learner":{"attributes":{"best_iteration":"111","best_score":"0.9751513639060302"},"feature_names":["age","ind_nuevo","antiguedad","indrel","ind_actividad_cliente","renta","log_renta","is_new_customer","join_month","join_year","months_since_join","ind_ahor_fin_ult1_lag1","ind_aval_fin_ult1_lag1","ind_cco_fin_ult1_lag1","ind_cder_fin_ult1_lag1","ind_cno_fin_ult1_lag1","ind_ctju_fin_ult1_lag1","ind_ctma_fin_ult1_lag1","ind_ctop_fin_ult1_lag1","ind_ctpp_fin_ult1_lag1","ind_deco_fin_ult1_lag1","ind_deme_fin_ult1_lag1","ind_dela_fin_ult1_lag1","ind_ecue_fin_ult1_lag1","ind_fond_fin_ult1_lag1","ind_hip_fin_ult1_lag1","ind_plan_fin_ult1_lag1","ind_pres_fin_ult1_lag1","ind_reca_fin_ult1_lag1","ind_tjcr_fin_ult1_lag1","ind_valo_fin_ult1_lag1","ind_viv_fin_ult1_lag1","ind_nomina_ult1_lag1","ind_nom_pens_ult1_lag1","ind_recibo_ult1_lag1","total_products","product_diversity","has_any_product","payroll_bundle","has_current_account","has_credit_card","n_accounts","n_investments","n_lending","total_products_lag1","products_gained","products_lost","net_product_change","total_products_rolling3","product_momentum","activity_lag1","activity_change","month","year","month_sin","month_cos","is_q1","is_post_summer","is_male","seg_01___TOP","seg_02___PARTICULARES","seg_03___UNIVERSITARIO","canal_KAS","canal_KAT","canal_KFA","canal_KFC","canal_KHD","canal_KHE","canal_KHK","canal_KHM","canal_KHN","canal_KHQ","canal_OTHER","is_spain","prov_ALICANTE","prov_BARCELONA","prov_CADIZ","prov_CORU_A__A","prov_MADRID","prov_MALAGA","prov_MURCIA","prov_OTHER","prov_SEVILLA","prov_VALENCIA","prov_ZARAGOZA","indrel1m_1","indrel1m_2","indrel1m_3","indrel1m_4","indrel1m_5","tiprel_A","tiprel_I","tiprel_N","tiprel_P","tiprel_R"],"feature_types":["float","float","float","float","float","float","float","int","float","float","float","int","int","int","int","int","int","int","int","int","int","int","int","int","int","int","int","int","int","int","int","int","int","int","int","int","float","int","int","int","int","int","int","int","int","int","int","int","float","float","float","float","int","int","float","float","int","int","int","int","int","int","int","int","int","int","int","int","int","int","int","int","int","int","int","int","int","int","int","int","int","int","int","int","int","int","int","int","int","int","int","int","int","int","int"],"gradient_booster":{"model":{"cats":{"enc":[],"feature_segments":[],"sorted_idx":[]},"gbtree_model_param":{"num_parallel_tree":"1","num_trees":"162"},"iteration_indptr":[0,1,2,3,4,5,6,7,8,9,10,11,12,13,14,15,16,17,18,19,20,21,22,23,24,25,26,27,28,29,30,31,32,33,34,35,36,37,38,39,40,41,42,43,44,45,46,47,48,49,50,51,52,53,54,55,56,57,58,59,60,61,62,63,64,65,66,67,68,69,70,71,72,73,74,75,76,77,78,79,80,81,82,83,84,85,86,87,88,89,90,91,92,93,94,95,96,97,98,99,100,101,102,103,104,105,106,107,108,109,110,111,112,113,114,115,116,117,118,119,120,121,122,123,124,125,126,127,128,129,130,131,132,133,134,135,136,137,138,139,140,141,142,143,144,145,146,147,148,149,150,151,152,153,154,155,156,157,158,159,160,161,162],"tree_info":[0,0,0,0,0,0,0,0,0,0,0,0,0,0,0,0,0,0,0,0,0,0,0,0,0,0,0,0,0,0,0,0,0,0,0,0,0,0,0,0,0,0,0,0,0,0,0,0,0,0,0,0,0,0,0,0,0,0,0,0,0,0,0,0,0,0,0,0,0,0,0,0,0,0,0,0,0,0,0,0,0,0,0,0,0,0,0,0,0,0,0,0,0,0,0,0,0,0,0,0,0,0,0,0,0,0,0,0,0,0,0,0,0,0,0,0,0,0,0,0,0,0,0,0,0,0,0,0,0,0,0,0,0,0,0,0,0,0,0,0,0,0,0,0,0,0,0,0,0,0,0,0,0,0,0,0,0,0,0,0,0,0],"trees":[{"base_weights":[-3.0611861E-2,-1.8381895E0,9.219904E-1,1.6133122E-1,-1.921345E0,-1.0320312E0,1.3399007E0,-9.997997E-2,1.3265592E0,-1.9876826E0,-1.2282203E0,1.8708068E0,-1.5782795E0,1.5861015E0,-9.9997394E-2,1.451917E0,-9.9703394E-2,-9.999967E-2,-1.2616676E0,-1.829774E0,6.352058E-1,-9.942623E-2,1.9066453E0,-1.6480304E0,1.8977509E0,-9.995525E-2,1.6015878E0,-9.95178E-2,1.5336823E0,-9.997436E-2,9.228886E-1,1.4125353E0,-9.999535E-2,1.0977929E0,-9.9908404E-2,1.9178563E0,-9.8165944E-2,-1.6840354E0,9.915778E-2,9.979742E-2,9.0121515E-2,1.866018E0,1.4541203E0,1.6168847E0,-9.950355E-2,-9.9692985E-2,9.395159E-2,9.654409E-2,-9.933227E-2,-9.973535E-2,1.2978384E0,1.9512773E0,1.39891E0,-1.7538476E0,1.1928648E-1,1.8674998E0,-9.860927E-2,1.3026016E0,1.8231789E0,8.3460666E-2,-9.918288E-2,7.2462015E-2,-9.961111E-2,9.792E-2,9.160801E-2,-9.940594E-2,9.9403314E-2,-8.959704E-2,4.567059E-2,6.3597105E-2,-9.9921934E-2,9.3426734E-2,-9.801887E-2,7.898881E-3,6.8822615E-2,9.144662E-2,-9.931596E-2],"categories":[],"categories_nodes":[],"categories_segments":[],"categories_sizes":[],"default_left":[0,0,0,0,0,0,0,0,0,0,0,0,0,0,0,0,0,0,0,0,0,0,0,0,0,0,0,0,0,0,0,0,0,0,0,0,0,0,0,0,0,0,0,0,0,0,0,0,0,0,0,0,0,0,0,0,0,0,0,0,0,0,0,0,0,0,0,0,0,0,0,0,0,0,0,0,0],"id":0,"left_children":[1,3,5,7,9,11,13,-1,15,17,19,21,23,25,-1,27,-1,-1,29,31,33,-1,35,37,39,-1,41,-1,43,-1,45,47,-1,49,-1,51,-1,53,-1,-1,-1,55,57,59,-1,-1,-1,-1,-1,-1,61,63,65,67,69,71,-1,73,75,-1,-1,-1,-1,-1,-1,-1,-1,-1,-1,-1,-1,-1,-1,-1,-1,-1,-1],"loss_changes":[1.8693759E6,6.2299125E4,5.805788E5,3.7673727E4,1.6537375E4,1.9863219E5,4.8160875E5,0E0,4.0491152E3,2.931625E3,3.5225797E4,2.7478047E3,2.5564562E4,3.028925E4,0E0,2.6395312E3,0E0,0E0,8.829702E3,1.31069375E4,9.344647E3,0E0,8.56625E2,1.35158125E4,1.5439453E1,0E0,2.1176875E4,0E0,2.6860059E3,0E0,3.8618633E3,2.0916084E3,0E0,4.038601E3,0E0,3.368828E2,0E0,1.2884281E4,0E0,0E0,0E0,1.109625E3,1.9495875E4,1.6877031E3,0E0,0E0,0E0,0E0,0E0,0E0,3.055502E3,1.16484375E1,2.3779302E3,1.001225E4,9.315145E3,7.736875E2,0E0,2.0896281E4,2.2280312E3,0E0,0E0,0E0,0E0,0E0,0E0,0E0,0E0,0E0,0E0,0E0,0E0,0E0,0E0,0E0,0E0,0E0,0E0],"parents":[2147483647,0,0,1,1,2,2,3,3,4,4,5,5,6,6,8,8,9,9,10,10,11,11,12,12,13,13,15,15,18,18,19,19,20,20,22,22,23,23,24,24,26,26,28,28,30,30,31,31,33,33,35,35,37,37,41,41,42,42,43,43,50,50,51,51,52,52,53,53,54,54,55,55,57,57,58,58],"right_children":[2,4,6,8,10,12,14,-1,16,18,20,22,24,26,-1,28,-1,-1,30,32,34,-1,36,38,40,-1,42,-1,44,-1,46,48,-1,50,-1,52,-1,54,-1,-1,-1,56,58,60,-1,-1,-1,-1,-1,-1,62,64,66,68,70,72,-1,74,76,-1,-1,-1,-1,-1,-1,-1,-1,-1,-1,-1,-1,-1,-1,-1,-1,-1,-1],"split_conditions":[1.0568331E2,-3.3333337E-1,1E0,5.719448E1,9.004599E1,-3.3333325E-1,1E0,-9.997997E-2,1E0,6.6666675E-1,2E0,1E0,1E0,2.3E1,-9.9997394E-2,3E0,-9.9703394E-2,-9.999967E-2,1E0,-3.3333325E-1,9.9671486E1,-9.942623E-2,1E0,1E0,3.914628E4,-9.995525E-2,-3.3333302E-1,-9.95178E-2,1.1E1,-9.997436E-2,5.5946125E1,3E0,-9.999535E-2,4E0,-9.9908404E-2,0E0,-9.8165944E-2,1E0,9.915778E-2,9.979742E-2,9.0121515E-2,1E0,1E0,5E0,-9.950355E-2,-9.9692985E-2,9.395159E-2,9.654409E-2,-9.933227E-2,-9.973535E-2,1E0,1.9053876E2,5.5087475E5,1E0,4.4E1,1E0,-9.860927E-2,1.2043364E2,1E0,8.3460666E-2,-9.918288E-2,7.2462015E-2,-9.961111E-2,9.792E-2,9.160801E-2,-9.940594E-2,9.9403314E-2,-8.959704E-2,4.567059E-2,6.3597105E-2,-9.9921934E-2,9.3426734E-2,-9.801887E-2,7.898881E-3,6.8822615E-2,9.144662E-2,-9.931596E-2],"split_indices":[10,49,4,10,10,49,18,0,42,49,41,90,15,0,0,8,0,0,75,49,10,0,18,32,5,0,49,0,8,0,10,8,0,8,0,47,0,77,0,0,0,31,45,35,0,0,0,0,0,0,42,10,5,31,0,80,0,10,7,0,0,0,0,0,0,0,0,0,0,0,0,0,0,0,0,0,0],"split_type":[0,0,0,0,0,0,0,0,0,0,0,0,0,0,0,0,0,0,0,0,0,0,0,0,0,0,0,0,0,0,0,0,0,0,0,0,0,0,0,0,0,0,0,0,0,0,0,0,0,0,0,0,0,0,0,0,0,0,0,0,0,0,0,0,0,0,0,0,0,0,0,0,0,0,0,0,0],"sum_hessian":[1.0856436E6,3.746806E5,7.1096306E5,1.4959879E4,3.5972072E5,1.2526417E5,5.856989E5,5.2405E3,9.719379E3,3.2829794E5,3.1422783E4,1.9838273E4,1.054259E5,5.454881E5,4.021075E4,9.366379E3,3.53E2,3.22822E5,5.4759224E3,2.3754422E4,7.6683613E3,1.82E2,1.9656273E4,1.0335255E5,2.0733447E3,2.3455E3,5.431426E5,2.1675E2,9.149629E3,4.0935E3,1.3824224E3,1.1839224E3,2.25705E4,6.5231113E3,1.14525E3,1.9600023E4,5.625E1,1.02338375E5,1.0141723E3,1.0109223E3,1.0624224E3,1.944513E5,3.4869134E5,8.939129E3,2.105E2,3.41E2,1.0414224E3,1.0276724E3,1.5625E2,3.9575E2,6.1273613E3,1.8411352E4,1.1886724E3,9.852428E4,3.8140947E3,1.943768E5,7.45E1,2.4720506E5,1.0148629E5,8.811629E3,1.275E2,5.8583613E3,2.69E2,1.735718E4,1.0541724E3,1.7575E2,1.0129223E3,9.713736E4,1.3869224E3,2.4700947E3,1.344E3,1.943248E5,5.2E1,1.4983129E4,2.3222192E5,1.0133379E5,1.525E2],"tree_param":{"num_deleted":"0","num_feature":"95","num_nodes":"77","size_leaf_vector":"1"}},{"base_weights":[-8.005985E-3,-1.7648787E0,9.3072957E-1,-1.8842189E0,-7.66976E-1,-8.767516E-1,1.307596E0,-1.9064965E0,-1.5461242E0,-1.744601E0,5.559661E-1,-1.5909307E0,1.8502318E0,9.9133265E-1,1.7894691E0,-1.9919953E0,-9.525617E-2,-5.402692E-2,-1.913889E0,-6.0440886E-1,-9.544166E-2,8.9808416E-1,-9.6056364E-2,-1.6645322E0,1.8166237E0,1.5707464E0,1.8627789E0,1.2613925E0,6.500697E-1,1.8474017E0,1.6994188E0,-9.5838375E-2,-1.0258432E-1,-9.5247924E-2,9.4131954E-2,-1.0325966E-1,-9.5393404E-2,1.2627149E0,-9.5329985E-2,3.169673E-1,1.6756135E0,-1.7017807E0,8.461424E-1,9.495619E-2,8.6795576E-2,-9.43859E-2,9.513118E-2,1.8698381E0,1.7054408E0,-9.5189594E-2,1.2909992E0,-1.9838564E-1,1.0904986E0,1.8589749E0,1.7713574E0,1.5419852E0,1.8554872E0,8.873345E-2,-9.471185E-2,-9.729991E-2,1.1305869E0,-9.929728E-2,1.7578462E0,-1.7374643E0,-4.929732E-1,-1.02000766E-1,9.6242726E-2,1.8493869E0,9.4610564E-2,-1.0005175E-1,9.455342E-2,1.408453E0,7.4147296E-1,5.7603493E-2,-1.2140645E0,1.1303587E0,-1.00346826E-1,1.8037375E0,1.8662987E0,1.8181366E0,-1.0404258E-1,1.6162429E0,-5.9182234E-2,1.8597894E0,-9.773837E-2,-9.803136E-2,7.894345E-2,9.0984434E-2,-1.00475825E-1,-9.570455E-2,-7.816696E-2,6.3708976E-2,-9.7127415E-2,9.056874E-2,9.3836315E-2,7.611581E-2,4.5125682E-2,6.748572E-2,1.2758727E-2,-2.5738165E-2,2.6249712E-2,-9.668168E-2,1.40316505E-2,5.8274664E-2,-9.6630625E-2,7.337705E-2,9.1606215E-2,9.0484224E-2,9.3643464E-2,-1.02976136E-1,9.1624476E-2,-9.885691E-2,8.185075E-2,5.934272E-2,-1.0073457E-1,9.35415E-2,8.555271E-2],"categories":[],"categories_nodes":[],"categories_segments":[],"categories_sizes":[],"default_left":[0,0,0,0,0,0,0,0,0,0,0,0,0,0,0,0,0,0,0,0,0,0,0,0,0,0,0,0,0,0,0,0,0,0,0,0,0,0,0,0,0,0,0,0,0,0,0,0,0,0,0,0,0,0,0,0,0,0,0,0,0,0,0,0,0,0,0,0,0,0,0,0,0,0,0,0,0,0,0,0,0,0,0,0,0,0,0,0,0,0,0,0,0,0,0,0,0,0,0,0,0,0,0,0,0,0,0,0,0,0,0,0,0,0,0,0,0],"id":1,"left_children":[1,3,5,7,9,11,13,15,17,19,21,23,25,27,29,31,-1,33,35,37,-1,39,-1,41,43,45,47,49,51,53,55,-1,-1,-1,-1,-1,-1,57,-1,59,61,63,65,-1,-1,-1,-1,67,69,-1,71,73,75,77,79,81,83,-1,-1,-1,85,-1,87,89,91,-1,-1,93,-1,-1,-1,95,97,99,101,103,-1,105,107,109,-1,111,113,115,-1,-1,-1,-1,-1,-1,-1,-1,-1,-1,-1,-1,-1,-1,-1,-1,-1,-1,-1,-1,-1,-1,-1,-1,-1,-1,-1,-1,-1,-1,-1,-1,-1],"loss_changes":[1.8071788E6,4.5442625E4,4.8647788E5,2.564E3,5.2721082E4,2.399736E5,9.0058625E4,3.325E1,1.1564598E4,4.388047E3,1.4681957E4,2.4492406E4,8.639844E1,3.2881188E4,1.218125E3,1.8261719E1,0E0,1.4946035E4,1.10625E1,7.18186E3,0E0,6.8768086E3,0E0,8.940094E3,1.0089355E1,1.272425E3,2.3632812E1,1.8666969E4,5.8899875E4,1.2171875E2,2.2495E3,0E0,0E0,0E0,0E0,0E0,0E0,1.9651366E3,0E0,1.604298E4,1.9636641E3,4.0615E3,4.3561523E3,0E0,0E0,0E0,0E0,6.8359375E0,7.348933E2,0E0,1.2735E4,1.400423E4,1.2812617E4,4.63125E1,3.39925E3,5.4278516E3,7.582656E2,0E0,0E0,0E0,8.884075E3,0E0,1.4872012E3,2.81025E3,6.924139E3,0E0,0E0,8.988281E0,0E0,0E0,0E0,9.364031E3,1.0278402E4,1.1508848E4,1.1662194E4,1.1026484E4,0E0,1.3541406E2,3.68125E1,1.0399062E3,0E0,3.2595E3,4.9345625E3,7.1953125E1,0E0,0E0,0E0,0E0,0E0,0E0,0E0,0E0,0E0,0E0,0E0,0E0,0E0,0E0,0E0,0E0,0E0,0E0,0E0,0E0,0E0,0E0,0E0,0E0,0E0,0E0,0E0,0E0,0E0,0E0,0E0,0E0,0E0],"parents":[2147483647,0,0,1,1,2,2,3,3,4,4,5,5,6,6,7,7,8,8,9,9,10,10,11,11,12,12,13,13,14,14,15,15,17,17,18,18,19,19,21,21,23,23,24,24,25,25,26,26,27,27,28,28,29,29,30,30,37,37,39,39,40,40,41,41,42,42,47,47,48,48,50,50,51,51,52,52,53,53,54,54,55,55,56,56,60,60,62,62,63,63,64,64,67,67,71,71,72,72,73,73,74,74,75,75,77,77,78,78,79,79,81,81,82,82,83,83],"right_children":[2,4,6,8,10,12,14,16,18,20,22,24,26,28,30,32,-1,34,36,38,-1,40,-1,42,44,46,48,50,52,54,56,-1,-1,-1,-1,-1,-1,58,-1,60,62,64,66,-1,-1,-1,-1,68,70,-1,72,74,76,78,80,82,84,-1,-1,-1,86,-1,88,90,92,-1,-1,94,-1,-1,-1,96,98,100,102,104,-1,106,108,110,-1,112,114,116,-1,-1,-1,-1,-1,-1,-1,-1,-1,-1,-1,-1,-1,-1,-1,-1,-1,-1,-1,-1,-1,-1,-1,-1,-1,-1,-1,-1,-1,-1,-1,-1,-1],"split_conditions":[1.07E2,9E1,1E0,1E0,1.3333334E0,1E0,1E0,2.007E3,2.5E1,3.6E1,1E0,1E0,1E0,2E0,2E0,1E0,-9.525617E-2,5.7E1,2.007E3,3E0,-9.544166E-2,1E0,-9.6056364E-2,1E0,3.914628E4,2E0,1.94E2,2.3E1,1E0,1E0,1E0,-9.5838375E-2,-1.0258432E-1,-9.5247924E-2,9.4131954E-2,-1.0325966E-1,-9.5393404E-2,9.7E1,-9.5329985E-2,3E0,6E0,1E0,2.44E2,9.495619E-2,8.6795576E-2,-9.43859E-2,9.513118E-2,2E0,8.5E1,-9.5189594E-2,2.005E3,1.5900423E5,6.9E1,1.32E2,5.3E1,5.8E1,3E0,8.873345E-2,-9.471185E-2,-9.729991E-2,1E0,-9.929728E-2,1.03E2,1E0,6.886776E4,-1.02000766E-1,9.6242726E-2,4E0,9.4610564E-2,-1.0005175E-1,9.455342E-2,1.91E2,4.1E1,2.3333333E0,1.1E1,4E0,-1.00346826E-1,5E0,1.999E3,2.5E0,-1.0404258E-1,3.7E1,1.55E2,3E0,-9.773837E-2,-9.803136E-2,7.894345E-2,9.0984434E-2,-1.00475825E-1,-9.570455E-2,-7.816696E-2,6.3708976E-2,-9.7127415E-2,9.056874E-2,9.3836315E-2,7.611581E-2,4.5125682E-2,6.748572E-2,1.2758727E-2,-2.5738165E-2,2.6249712E-2,-9.668168E-2,1.40316505E-2,5.8274664E-2,-9.6630625E-2,7.337705E-2,9.1606215E-2,9.0484224E-2,9.3643464E-2,-1.02976136E-1,9.1624476E-2,-9.885691E-2,8.185075E-2,5.934272E-2,-1.0073457E-1,9.35415E-2,8.555271E-2],"split_indices":[2,2,4,15,48,46,46,9,0,0,42,15,90,41,41,4,0,2,9,8,0,46,0,31,5,45,2,0,38,15,45,0,0,0,0,0,0,2,0,48,8,77,2,0,0,0,0,46,0,0,9,5,0,2,0,0,45,0,0,0,65,0,2,41,5,0,0,52,0,0,0,2,0,48,8,41,0,8,9,48,0,0,2,41,0,0,0,0,0,0,0,0,0,0,0,0,0,0,0,0,0,0,0,0,0,0,0,0,0,0,0,0,0,0,0,0,0],"split_type":[0,0,0,0,0,0,0,0,0,0,0,0,0,0,0,0,0,0,0,0,0,0,0,0,0,0,0,0,0,0,0,0,0,0,0,0,0,0,0,0,0,0,0,0,0,0,0,0,0,0,0,0,0,0,0,0,0,0,0,0,0,0,0,0,0,0,0,0,0,0,0,0,0,0,0,0,0,0,0,0,0,0,0,0,0,0,0,0,0,0,0,0,0,0,0,0,0,0,0,0,0,0,0,0,0,0,0,0,0,0,0,0,0,0,0,0,0],"sum_hessian":[1.0957632E6,3.815952E5,7.14168E5,3.4083356E5,4.0761633E4,1.2321542E5,5.909526E5,3.1975922E5,2.1074326E4,2.3439854E4,1.732178E4,9.764364E4,2.5571777E4,3.5678838E5,2.3416425E5,5.0299087E3,3.147293E5,4.167469E3,1.6906857E4,2.9518384E3,2.0488016E4,1.5220335E4,2.1014438E3,9.557971E4,2.063934E3,1.1044604E3,2.4467318E4,1.9917078E5,1.5761758E5,1.4248084E5,9.168341E4,2.2407273E3,2.7891812E3,2.130936E3,2.0365334E3,6.333167E2,1.6273541E4,1.2128163E3,1.7390221E3,8.71121E3,6.509125E3,9.418277E4,1.3969347E3,1.00890814E3,1.055026E3,9.626824E1,1.0081922E3,2.340568E4,1.0616377E3,1.8451373E3,1.9732564E5,5.386014E4,1.03757445E5,1.2363923E5,1.8841615E4,4.5647848E4,4.6035562E4,1.0439856E3,1.688307E2,2.303326E3,6.407884E3,1.4243814E2,6.366687E3,9.1481734E4,2.7010386E3,3.7979282E2,1.01714185E3,1.2274135E4,1.1131546E4,5.0140945E1,1.0114967E3,1.6257558E5,3.4750055E4,4.3018668E4,1.0841471E4,1.0243984E5,1.3176038E3,1.4504332E4,1.0913489E5,1.8616105E4,2.2550975E2,4.3624707E4,2.0231385E3,4.598418E4,5.1381367E1,8.1111163E2,5.596772E3,6.2643984E3,1.022886E2,4.540939E4,4.6072344E4,1.2172101E3,1.4838285E3,5.1644814E3,7.109653E3,1.3270722E5,2.9868357E4,1.543839E4,1.9311666E4,1.9337566E4,2.3681102E4,7.3181714E3,3.5232998E3,1.0127875E5,1.1610925E3,1.1336974E3,1.3370635E4,1.1379134E4,9.775576E4,6.810153E1,1.8548004E4,2.5016101E2,4.3374547E4,1.2359451E3,7.8719354E2,4.279522E4,3.1889604E3],"tree_param":{"num_deleted":"0","num_feature":"95","num_nodes":"117","size_leaf_vector":"1"}},{"base_weights":[4.045163E-2,-1.6675255E0,9.195785E-1,-1.7689133E0,-7.580044E-1,1.1661032E0,-1.8873863E0,-1.801046E0,-1.0719215E0,-1.6603621E0,5.0570464E-1,-8.322282E-1,1.4983662E0,-9.233918E-2,-1.9071424E0,-1.8124448E0,-3.3095083E-1,8.538069E-1,-1.514328E0,-9.126016E-2,8.234889E-2,8.341734E-1,-9.162735E-2,1.7640465E0,-1.4392221E0,-9.163629E-2,1.5111058E0,-1.948759E0,-1.8944547E0,-1.8236395E0,-1.4758866E0,9.998048E-2,-1.904242E0,-9.109088E-2,1.7371296E0,2.773213E-1,-1.8303293E0,-9.423361E-2,1.0592266E0,-9.002886E-2,1.7789626E0,-1.5227077E0,4.2904964E-1,-9.6034594E-2,1.5175717E0,-9.7719364E-2,-9.1924444E-2,-1.8693874E0,-1.9165334E0,-9.1140054E-2,-1.8912598E0,-9.139869E-2,7.059605E-1,-9.154697E-2,-9.7978614E-2,1.5221292E0,9.8319486E-2,-9.2151076E-2,1.7480639E0,-9.11761E-2,-9.778341E-2,1.1712914E0,-9.465064E-2,1.786475E0,8.271084E-2,-1.5679353E0,9.005615E-2,1.3603549E0,-9.189347E-2,1.7387393E0,1.4279506E0,-9.40843E-2,-1.8369778E0,-9.6673325E-2,-9.401067E-2,-9.1657095E-2,-9.699781E-2,-9.1184944E-2,8.585036E-2,9.158007E-2,-9.2104994E-2,9.964556E-2,-9.148645E-2,-9.3715064E-2,6.1397087E-2,8.6673066E-2,9.014689E-2,-9.153413E-2,-5.834902E-2,-9.904938E-2,8.8173844E-2,8.703394E-2,-1.0512966E-1,6.555395E-2,8.533993E-2,-9.10591E-2,-9.572701E-2],"categories":[],"categories_nodes":[],"categories_segments":[],"categories_sizes":[],"default_left":[0,0,0,0,0,0,0,0,0,0,0,0,0,0,0,0,0,0,0,0,0,0,0,0,0,0,0,0,0,0,0,0,0,0,0,0,0,0,0,0,0,0,0,0,0,0,0,0,0,0,0,0,0,0,0,0,0,0,0,0,0,0,0,0,0,0,0,0,0,0,0,0,0,0,0,0,0,0,0,0,0,0,0,0,0,0,0,0,0,0,0,0,0,0,0,0,0],"id":2,"left_children":[1,3,5,7,9,11,13,15,17,19,21,23,25,-1,27,29,31,33,35,-1,-1,37,-1,39,41,-1,43,45,47,49,51,-1,53,-1,55,57,59,-1,61,-1,63,65,67,-1,69,-1,-1,71,73,-1,75,-1,77,-1,-1,79,-1,-1,81,-1,-1,83,-1,85,-1,87,-1,89,-1,91,93,-1,95,-1,-1,-1,-1,-1,-1,-1,-1,-1,-1,-1,-1,-1,-1,-1,-1,-1,-1,-1,-1,-1,-1,-1,-1],"loss_changes":[1.6774586E6,3.5005375E4,5.1037075E5,7.64725E3,4.341961E4,4.501715E5,4.384375E1,5.470375E3,1.2827408E4,1.2113895E4,1.218466E4,1.5233062E5,2.467275E4,0E0,1.7046875E1,1.2175E3,9.219521E3,6.6517256E3,6.9320664E3,0E0,0E0,8.512967E3,0E0,9.7709766E2,1.2220391E4,0E0,1.28535E4,1.8085938E0,1.30390625E1,1.39375E1,8.0176797E3,0E0,2.1210938E0,0E0,1.009292E2,5.7299385E3,4.9335938E0,0E0,4.2524316E3,0E0,1.3792969E1,1.1276453E4,7.0788833E3,0E0,1.1454625E4,0E0,0E0,1.921875E0,6.0039062E0,0E0,6.8535156E0,0E0,3.7132622E3,0E0,0E0,1.1447852E3,0E0,0E0,9.5398584E2,0E0,0E0,2.1378145E3,0E0,1.15234375E1,0E0,7.7920625E3,0E0,3.20444E3,0E0,1.2454375E3,1.34033125E4,0E0,1.0546875E0,0E0,0E0,0E0,0E0,0E0,0E0,0E0,0E0,0E0,0E0,0E0,0E0,0E0,0E0,0E0,0E0,0E0,0E0,0E0,0E0,0E0,0E0,0E0,0E0],"parents":[2147483647,0,0,1,1,2,2,3,3,4,4,5,5,6,6,7,7,8,8,9,9,10,10,11,11,12,12,14,14,15,15,16,16,17,17,18,18,21,21,23,23,24,24,26,26,27,27,28,28,29,29,30,30,32,32,34,34,35,35,36,36,38,38,40,40,41,41,42,42,44,44,47,47,48,48,50,50,52,52,55,55,58,58,61,61,63,63,65,65,67,67,69,69,70,70,72,72],"right_children":[2,4,6,8,10,12,14,16,18,20,22,24,26,-1,28,30,32,34,36,-1,-1,38,-1,40,42,-1,44,46,48,50,52,-1,54,-1,56,58,60,-1,62,-1,64,66,68,-1,70,-1,-1,72,74,-1,76,-1,78,-1,-1,80,-1,-1,82,-1,-1,84,-1,86,-1,88,-1,90,-1,92,94,-1,96,-1,-1,-1,-1,-1,-1,-1,-1,-1,-1,-1,-1,-1,-1,-1,-1,-1,-1,-1,-1,-1,-1,-1,-1],"split_conditions":[1.06E2,9E1,1E0,4E0,1.3333334E0,1E0,1E0,1.75E2,2.7E1,1E0,1E0,0E0,2.3E1,-9.233918E-2,1E0,1E0,3.5E1,5.6E1,0E0,-9.126016E-2,8.234889E-2,6E0,-9.162735E-2,1E0,1E0,-9.163629E-2,1.03318E2,4E0,2.3333333E0,1.0568331E2,1E0,9.998048E-2,1E0,-9.109088E-2,1E0,2.1997803E5,1.0568331E2,-9.423361E-2,1E0,-9.002886E-2,1.91E2,1E0,4.4E1,-9.6034594E-2,0E0,-9.7719364E-2,-9.1924444E-2,1.5900423E5,1.5900423E5,-9.1140054E-2,1E0,-9.139869E-2,1.8802562E5,-9.154697E-2,-9.7978614E-2,3.167664E4,9.8319486E-2,-9.2151076E-2,2.2381845E5,-9.11761E-2,-9.778341E-2,1E0,-9.465064E-2,1.2518388E5,8.271084E-2,1E0,9.005615E-2,4.2E1,-9.189347E-2,2.44E2,1E0,-9.40843E-2,1.1E1,-9.6673325E-2,-9.401067E-2,-9.1657095E-2,-9.699781E-2,-9.1184944E-2,8.585036E-2,9.158007E-2,-9.2104994E-2,9.964556E-2,-9.148645E-2,-9.3715064E-2,6.1397087E-2,8.6673066E-2,9.014689E-2,-9.153413E-2,-5.834902E-2,-9.904938E-2,8.8173844E-2,8.703394E-2,-1.0512966E-1,6.555395E-2,8.533993E-2,-9.10591E-2,-9.572701E-2],"split_indices":[2,2,18,35,48,4,4,10,0,51,42,47,0,0,13,15,0,2,47,0,0,8,0,90,77,0,10,41,48,10,82,0,4,0,75,5,10,0,18,0,2,32,0,0,47,0,0,5,5,0,4,0,5,0,0,5,0,0,5,0,0,90,0,5,0,48,0,0,0,2,45,0,8,0,0,0,0,0,0,0,0,0,0,0,0,0,0,0,0,0,0,0,0,0,0,0,0],"split_type":[0,0,0,0,0,0,0,0,0,0,0,0,0,0,0,0,0,0,0,0,0,0,0,0,0,0,0,0,0,0,0,0,0,0,0,0,0,0,0,0,0,0,0,0,0,0,0,0,0,0,0,0,0,0,0,0,0,0,0,0,0,0,0,0,0,0,0,0,0,0,0,0,0,0,0,0,0,0,0,0,0,0,0,0,0,0,0,0,0,0,0,0,0,0,0,0,0],"sum_hessian":[1.1171652E6,3.7962488E5,7.375404E5,3.4154997E5,3.807493E4,6.779953E5,5.954507E4,3.2649612E5,1.5053847E4,2.221323E4,1.58617E4,9.665865E4,5.813367E5,1.95223E4,4.0022773E4,3.2398372E5,2.5123906E3,2.81209E3,1.2241756E4,2.1159117E4,1.0541123E3,1.3908563E4,1.9531364E3,1.831565E4,7.8343E4,2.214236E3,5.7912244E5,9.313493E3,3.070928E4,3.135496E5,1.0434135E4,1.01238367E3,1.500007E3,6.9766266E2,2.1144275E3,1.8353846E3,1.0406371E4,1.0626752E3,1.2845889E4,7.579481E1,1.8239855E4,7.499213E4,3.3508623E3,1.0885059E3,5.7803394E5,8.84444E3,4.6905243E2,1.4423543E4,1.6285736E4,3.0973872E5,3.8108816E3,8.984503E3,1.4496321E3,6.606558E2,8.393511E2,1.0953151E3,1.0191124E3,7.515572E2,1.0838274E3,9.885808E3,5.205639E2,1.2376715E4,4.6917316E2,1.7190498E4,1.0493578E3,7.398596E4,1.00617505E3,2.3754243E3,9.754379E2,1.6668003E5,4.1135388E5,1.041224E4,4.0113022E3,1.1069787E4,5.2159487E3,1.7559231E3,2.0549585E3,4.1368387E2,1.0359481E3,1.0034903E3,9.18248E1,1.014847E3,6.898042E1,2.2539447E2,1.215132E4,4.1000303E3,1.3090468E4,4.4694008E4,2.9291953E4,2.5528557E2,2.120139E3,1.6659648E5,8.3542076E1,2.8986906E5,1.2148481E5,3.354019E3,6.572833E2],"tree_param":{"num_deleted":"0","num_feature":"95","num_nodes":"97","size_leaf_vector":"1"}},{"base_weights":[-5.592422E-3,-1.5976584E0,8.172089E-1,-1.6808951E0,-2.555294E-2,-9.023017E-1,1.1762156E0,-1.7414297E0,-7.636749E-1,-8.779696E-2,1.3323704E0,-1.5048089E0,1.6916065E0,8.707811E-1,1.6435874E0,-6.383298E-1,-8.760201E-2,-8.756947E-2,4.705541E-1,1.4215361E0,-8.7353796E-2,-1.5390681E0,1.6727685E0,1.7052824E0,1.4128997E0,1.1079583E0,5.759052E-1,1.696185E0,1.563728E0,-8.78137E-2,1.501138E0,-8.8188045E-2,7.683414E-1,-8.748874E-2,1.4857601E0,-1.6063341E0,1.6034661E-1,-1.01462655E-1,9.373056E-2,-8.6303465E-2,1.7161262E0,-9.625256E-2,8.73873E-2,1.1312271E-1,1.1866941E0,-1.1697595E-1,1.0629976E0,1.6263392E0,1.7054857E0,1.5716993E0,-1.0305077E-1,-8.661432E-2,8.780664E-2,1.016488E0,-9.000971E-2,1.5223861E0,-9.103676E-2,1.2848326E0,-1.645678E0,-9.0286E-2,1.0477898E0,8.007185E-2,1.721679E0,-6.8743783E-1,1.3062053E0,1.2073438E0,-8.745336E-2,-1.0918092E0,9.91419E-1,1.0991578E0,-9.038413E-2,-1.0853229E-1,1.6527679E0,1.703751E0,9.571174E-2,1.4423207E0,1.7057714E0,5.835991E-2,-8.882407E-2,-9.1107E-2,7.759654E-2,-8.764681E-2,1.0398866E-1,-8.418078E-2,4.3305542E-2,-8.9976795E-2,7.361621E-2,8.5174195E-2,8.6910896E-2,-1.0187266E-1,2.4847941E-2,7.0994616E-2,-1.0459919E-1,5.5992533E-2,8.880779E-2,-9.048151E-2,3.5355393E-2,5.478401E-2,-1.0290092E-1,5.640139E-2,-1.0342385E-1,7.168799E-2,8.5331574E-2,8.575407E-2,8.330617E-2,-9.9524505E-2,7.4726425E-2,8.211275E-2,8.646666E-2],"categories":[],"categories_nodes":[],"categories_segments":[],"categories_sizes":[],"default_left":[0,0,0,0,0,0,0,0,0,0,0,0,0,0,0,0,0,0,0,0,0,0,0,0,0,0,0,0,0,0,0,0,0,0,0,0,0,0,0,0,0,0,0,0,0,0,0,0,0,0,0,0,0,0,0,0,0,0,0,0,0,0,0,0,0,0,0,0,0,0,0,0,0,0,0,0,0,0,0,0,0,0,0,0,0,0,0,0,0,0,0,0,0,0,0,0,0,0,0,0,0,0,0,0,0,0,0,0,0],"id":3,"left_children":[1,3,5,7,9,11,13,15,17,-1,19,21,23,25,27,29,-1,-1,31,33,-1,35,37,39,41,43,45,47,49,-1,51,-1,53,-1,55,57,59,-1,-1,-1,61,-1,-1,63,65,67,69,71,73,75,-1,-1,-1,77,-1,79,-1,81,83,-1,85,-1,87,89,91,93,-1,95,97,99,-1,-1,101,103,-1,105,107,-1,-1,-1,-1,-1,-1,-1,-1,-1,-1,-1,-1,-1,-1,-1,-1,-1,-1,-1,-1,-1,-1,-1,-1,-1,-1,-1,-1,-1,-1,-1,-1],"loss_changes":[1.415317E6,4.8171875E4,4.3971772E5,1.9410438E4,4.350043E4,1.9228203E5,8.4117875E4,3.8373125E3,2.6390484E4,0E0,2.850627E3,1.0871422E4,8.5671875E1,2.4923531E4,9.753125E2,7.480241E3,0E0,0E0,6.4043066E3,2.055912E3,0E0,1.1291875E4,7.9989136E2,8.253203E2,1.2226707E3,1.54706875E4,5.361763E4,8.8125E1,2.6757344E3,0E0,8.88125E2,0E0,5.414666E3,0E0,1.1994824E3,1.08101875E4,6.565231E3,0E0,0E0,0E0,1.0941406E1,0E0,0E0,1.3837746E4,1.1097578E4,7.086173E4,9.6855625E3,1.6614883E3,4.121875E1,1.5981406E3,0E0,0E0,0E0,3.2621172E3,0E0,9.68625E2,0E0,3.085447E3,8.934219E3,0E0,3.1364202E3,0E0,3.0117188E0,1.3864248E4,2.2504307E3,9.0428125E3,0E0,4.5059375E4,9.759305E3,8.427258E3,0E0,0E0,1.9079297E2,4.915625E1,0E0,8.421797E3,6.465625E1,0E0,0E0,0E0,0E0,0E0,0E0,0E0,0E0,0E0,0E0,0E0,0E0,0E0,0E0,0E0,0E0,0E0,0E0,0E0,0E0,0E0,0E0,0E0,0E0,0E0,0E0,0E0,0E0,0E0,0E0,0E0,0E0],"parents":[2147483647,0,0,1,1,2,2,3,3,4,4,5,5,6,6,7,7,8,8,10,10,11,11,12,12,13,13,14,14,15,15,18,18,19,19,21,21,22,22,23,23,24,24,25,25,26,26,27,27,28,28,30,30,32,32,34,34,35,35,36,36,40,40,43,43,44,44,45,45,46,46,47,47,48,48,49,49,53,53,55,55,57,57,58,58,60,60,62,62,63,63,64,64,65,65,67,67,68,68,69,69,72,72,73,73,75,75,76,76],"right_children":[2,4,6,8,10,12,14,16,18,-1,20,22,24,26,28,30,-1,-1,32,34,-1,36,38,40,42,44,46,48,50,-1,52,-1,54,-1,56,58,60,-1,-1,-1,62,-1,-1,64,66,68,70,72,74,76,-1,-1,-1,78,-1,80,-1,82,84,-1,86,-1,88,90,92,94,-1,96,98,100,-1,-1,102,104,-1,106,108,-1,-1,-1,-1,-1,-1,-1,-1,-1,-1,-1,-1,-1,-1,-1,-1,-1,-1,-1,-1,-1,-1,-1,-1,-1,-1,-1,-1,-1,-1,-1,-1],"split_conditions":[1.0568331E2,1E0,1E0,1E0,7.138634E1,1E0,1E0,-3.3333325E-1,5.5946125E1,-8.779696E-2,1E0,1E0,-6.666665E-1,2E0,2E0,1E0,-8.760201E-2,-8.756947E-2,5E0,3E0,-8.7353796E-2,1E0,1.2E1,1E0,1E0,1.2043364E2,1E0,1.3216164E2,1E0,-8.78137E-2,9.664915E1,-8.8188045E-2,6E0,-8.748874E-2,5E0,-3.3333325E-1,4E0,-1.01462655E-1,9.373056E-2,-8.6303465E-2,7.140249E4,-9.625256E-2,8.73873E-2,2.5E0,1E0,1E0,4E0,1.5E0,1E0,1E0,-1.0305077E-1,-8.661432E-2,8.780664E-2,1.1E1,-9.000971E-2,1.3333334E0,-9.103676E-2,5.5087475E5,1E0,-9.0286E-2,8E0,8.007185E-2,2E0,1E0,1.16655716E2,1E0,-8.745336E-2,1E0,2.1248358E2,3.5270294E5,-9.038413E-2,-1.0853229E-1,1E0,1.936268E2,9.571174E-2,3E0,1E0,5.835991E-2,-8.882407E-2,-9.1107E-2,7.759654E-2,-8.764681E-2,1.0398866E-1,-8.418078E-2,4.3305542E-2,-8.9976795E-2,7.361621E-2,8.5174195E-2,8.6910896E-2,-1.0187266E-1,2.4847941E-2,7.0994616E-2,-1.0459919E-1,5.5992533E-2,8.880779E-2,-9.048151E-2,3.5355393E-2,5.478401E-2,-1.0290092E-1,5.640139E-2,-1.0342385E-1,7.168799E-2,8.5331574E-2,8.575407E-2,8.330617E-2,-9.9524505E-2,7.4726425E-2,8.211275E-2,8.646666E-2],"split_indices":[10,46,4,15,10,46,46,49,10,0,42,15,49,41,41,51,0,0,8,8,0,77,8,90,32,10,23,10,82,0,10,0,48,0,35,49,52,0,0,0,5,0,0,48,16,19,41,48,14,45,0,0,0,8,0,48,0,5,31,0,8,0,46,81,10,51,0,15,10,5,0,0,78,10,0,35,39,0,0,0,0,0,0,0,0,0,0,0,0,0,0,0,0,0,0,0,0,0,0,0,0,0,0,0,0,0,0,0,0],"split_type":[0,0,0,0,0,0,0,0,0,0,0,0,0,0,0,0,0,0,0,0,0,0,0,0,0,0,0,0,0,0,0,0,0,0,0,0,0,0,0,0,0,0,0,0,0,0,0,0,0,0,0,0,0,0,0,0,0,0,0,0,0,0,0,0,0,0,0,0,0,0,0,0,0,0,0,0,0,0,0,0,0,0,0,0,0,0,0,0,0,0,0,0,0,0,0,0,0,0,0,0,0,0,0,0,0,0,0,0,0],"sum_hessian":[1.0804305E6,3.6812747E5,7.1230306E5,3.4961653E5,1.851092E4,1.2303046E5,5.892726E5,3.279702E5,2.164634E4,8.139117E3,1.0371803E4,9.984025E4,2.3190209E4,3.5637756E5,2.3289505E5,3.1253333E3,3.2484488E5,1.2023765E4,9.622575E3,1.0080492E4,2.913108E2,9.8775836E4,1.0644115E3,2.2100287E4,1.0899219E3,1.9751083E5,1.5886675E5,1.4040123E5,9.249381E4,2.052867E3,1.0724663E3,1.1310422E3,8.491533E3,1.9954164E2,9.88095E3,9.501508E4,3.7607598E3,5.4539867E1,1.00987164E3,6.909382E1,2.2031193E4,9.8907196E1,9.910147E2,1.4485735E4,1.830251E5,6.558033E4,9.328642E4,1.6520783E4,1.23880445E5,9.2291445E4,2.0236748E2,7.794253E1,9.945238E2,7.7440244E3,7.475082E2,9.773262E3,1.076883E2,1.2751761E3,9.373991E4,1.1692417E3,2.591518E3,1.0316014E3,2.0999592E4,8.669097E3,5.816639E3,1.8174733E5,1.2777563E3,3.4892492E4,3.0687836E4,9.212661E4,1.1598104E3,1.13609665E2,1.6407172E4,1.2286904E5,1.01140656E3,4.6974203E4,4.531724E4,7.3481333E3,3.958914E2,8.501762E1,9.688244E3,2.642077E2,1.0109684E3,9.234551E4,1.3943999E3,3.3580698E2,2.2557112E3,1.0051549E4,1.0948044E4,4.0509973E3,4.618099E3,5.628934E3,1.8770534E2,1.5752102E5,2.4226318E4,2.4940531E4,9.951959E3,2.9673947E4,1.0138877E3,9.129522E4,8.313936E2,3.244519E3,1.3162653E4,9.439707E4,2.8471969E4,7.031188E2,4.6271086E4,1.2282321E4,3.3034918E4],"tree_param":{"num_deleted":"0","num_feature":"95","num_nodes":"109","size_leaf_vector":"1"}},{"base_weights":[-7.846388E-3,-1.5613253E0,8.127822E-1,-1.6324394E0,-1.486968E-1,1.0486447E0,-1.7666309E0,-1.6804123E0,-9.85786E-1,-1.7008237E0,1.2345111E0,-6.3451636E-1,1.3594738E0,-1.745712E0,-1.8430581E0,-7.8232193E-1,-1.6905081E0,-1.5068306E0,5.5521554E-1,-9.456384E-2,-8.457651E-2,1.3341231E0,-8.542687E-2,1.6224449E0,-1.2760532E0,1.1718136E0,1.6209476E0,-1.7109486E0,-1.7702142E0,-1.8555877E0,-1.7316031E0,-8.479031E-2,1.4511857E0,-1.7744557E0,-8.4437035E-2,-1.1624362E-1,-1.7043979E0,-1.7971082E0,1.1703026E0,1.3980244E0,-9.461024E-2,1.6452038E0,-8.421134E-2,-1.3570485E0,1.7406299E0,-1.719713E0,1.19174E0,1.6218789E0,-1.0666764E-1,-8.54905E-2,-9.412249E-2,-9.561777E-2,-1.740768E0,-1.8285893E0,-9.493226E-2,-8.500644E-2,-9.5613025E-2,8.367034E-2,-8.8555776E-2,-8.488413E-2,-1.8943269E0,-8.45817E-2,1.4138886E0,-9.528374E-2,-8.466657E-2,-9.23636E-2,-8.606178E-2,1.3984896E0,-8.49483E-2,-8.50408E-2,1.4554386E0,1.6295383E0,9.828906E-2,-1.4372627E0,3.932789E-1,8.953314E-2,8.451986E-2,-8.453863E-2,-9.119465E-2,1.2507007E0,5.88831E-1,1.6227968E0,-8.9835174E-2,-1.7354534E0,-9.2852175E-2,-1.7942854E0,-9.393612E-2,-9.5673315E-2,-9.023711E-2,-8.7845586E-2,9.0497844E-2,7.860646E-2,-9.7709455E-2,7.446788E-2,-9.880757E-2,8.2765065E-2,-8.468606E-2,-7.4395604E-2,4.3227535E-2,6.27125E-2,-8.579807E-2,6.371508E-2,1.1731864E-2,5.8367908E-2,-7.2132715E-4,8.251872E-2,7.6921724E-2,-8.7357745E-2,-8.526847E-2,-8.856735E-2,-9.6292324E-2],"categories":[],"categories_nodes":[],"categories_segments":[],"categories_sizes":[],"default_left":[0,0,0,0,0,0,0,0,0,0,0,0,0,0,0,0,0,0,0,0,0,0,0,0,0,0,0,0,0,0,0,0,0,0,0,0,0,0,0,0,0,0,0,0,0,0,0,0,0,0,0,0,0,0,0,0,0,0,0,0,0,0,0,0,0,0,0,0,0,0,0,0,0,0,0,0,0,0,0,0,0,0,0,0,0,0,0,0,0,0,0,0,0,0,0,0,0,0,0,0,0,0,0,0,0,0,0,0,0,0,0],"id":4,"left_children":[1,3,5,7,9,11,13,15,17,19,21,23,25,27,29,31,33,35,37,-1,-1,39,-1,41,43,45,47,49,51,53,55,-1,57,59,-1,61,63,65,67,69,-1,71,-1,73,75,77,79,81,-1,-1,-1,-1,83,85,-1,-1,-1,-1,-1,-1,87,-1,89,-1,-1,-1,-1,91,-1,-1,93,95,-1,97,99,-1,-1,-1,-1,101,103,105,-1,107,-1,109,-1,-1,-1,-1,-1,-1,-1,-1,-1,-1,-1,-1,-1,-1,-1,-1,-1,-1,-1,-1,-1,-1,-1,-1,-1],"loss_changes":[1.3591289E6,3.7019812E4,4.2441934E5,1.0882125E4,3.7924496E4,3.3439706E5,8.9859375E1,2.959875E3,1.9458693E4,1.1173828E1,2.7405615E3,1.4426705E5,2.647175E4,3.5734375E1,1.3941406E1,7.4144336E3,4.45625E1,4.97516E3,8.862852E3,0E0,0E0,1.8653926E3,0E0,1.6624141E3,1.8958875E4,1.8100094E4,7.91625E2,1.3671875E-1,1.0888281E2,9.246094E0,3.683838E0,0E0,7.5841064E2,5.7523438E1,0E0,5.4359956E3,3.1734375E1,1.2963867E0,3.1812578E3,1.5788965E3,0E0,1.0642969E2,0E0,1.0608766E4,1.7241211E0,3.0483398E0,1.10884375E4,7.101875E2,0E0,0E0,0E0,0E0,1.01953125E1,8.2109375E0,0E0,0E0,0E0,0E0,0E0,0E0,6.035156E-1,0E0,1.4398506E3,0E0,0E0,0E0,0E0,2.6216934E3,0E0,0E0,1.01553125E3,1.7912188E3,0E0,8.424047E3,6.015905E3,0E0,0E0,0E0,0E0,6.8138125E3,9.699448E3,5.2125E2,0E0,4.1875E0,0E0,8.740234E0,0E0,0E0,0E0,0E0,0E0,0E0,0E0,0E0,0E0,0E0,0E0,0E0,0E0,0E0,0E0,0E0,0E0,0E0,0E0,0E0,0E0,0E0,0E0,0E0,0E0],"parents":[2147483647,0,0,1,1,2,2,3,3,4,4,5,5,6,6,7,7,8,8,9,9,10,10,11,11,12,12,13,13,14,14,15,15,16,16,17,17,18,18,21,21,23,23,24,24,25,25,26,26,27,27,28,28,29,29,30,30,32,32,33,33,35,35,36,36,37,37,38,38,39,39,41,41,43,43,44,44,45,45,46,46,47,47,52,52,53,53,60,60,62,62,67,67,70,70,71,71,73,73,74,74,79,79,80,80,81,81,83,83,85,85],"right_children":[2,4,6,8,10,12,14,16,18,20,22,24,26,28,30,32,34,36,38,-1,-1,40,-1,42,44,46,48,50,52,54,56,-1,58,60,-1,62,64,66,68,70,-1,72,-1,74,76,78,80,82,-1,-1,-1,-1,84,86,-1,-1,-1,-1,-1,-1,88,-1,90,-1,-1,-1,-1,92,-1,-1,94,96,-1,98,100,-1,-1,-1,-1,102,104,106,-1,108,-1,110,-1,-1,-1,-1,-1,-1,-1,-1,-1,-1,-1,-1,-1,-1,-1,-1,-1,-1,-1,-1,-1,-1,-1,-1,-1],"split_conditions":[1.06E2,1E0,1E0,3E0,7.1E1,1E0,3.3333333E0,-3.3333325E-1,9E1,2.009E3,1E0,-3.3333325E-1,1E0,1E0,4E0,9.6E1,2.007E3,2.7E1,1E0,-9.456384E-2,-8.457651E-2,1E0,-8.542687E-2,1E0,1E0,2.3E1,1E0,1E0,1E0,1E0,1E0,-8.479031E-2,9.7E1,1E0,-8.4437035E-2,5.6E1,2.007E3,1E0,1E0,3E0,-9.461024E-2,1.3219265E1,-8.421134E-2,1E0,1.0575087E1,1E0,2.006E3,2.008E3,-1.0666764E-1,-8.54905E-2,-9.412249E-2,-9.561777E-2,3E0,3E0,-9.493226E-2,-8.500644E-2,-9.5613025E-2,8.367034E-2,-8.8555776E-2,-8.488413E-2,2.006E3,-8.45817E-2,1E0,-9.528374E-2,-8.466657E-2,-9.23636E-2,-8.606178E-2,1E0,-8.49483E-2,-8.50408E-2,1.03E2,0E0,9.828906E-2,1E0,4.4E1,8.953314E-2,8.451986E-2,-8.453863E-2,-9.119465E-2,2.3E2,4.1E1,1E0,-8.9835174E-2,1.1976692E1,-9.2852175E-2,1E0,-9.393612E-2,-9.5673315E-2,-9.023711E-2,-8.7845586E-2,9.0497844E-2,7.860646E-2,-9.7709455E-2,7.446788E-2,-9.880757E-2,8.2765065E-2,-8.468606E-2,-7.4395604E-2,4.3227535E-2,6.27125E-2,-8.579807E-2,6.371508E-2,1.1731864E-2,5.8367908E-2,-7.2132715E-4,8.251872E-2,7.6921724E-2,-8.7357745E-2,-8.526847E-2,-8.856735E-2,-9.6292324E-2],"split_indices":[2,46,18,48,2,4,48,49,2,9,42,49,46,4,41,2,9,0,65,0,0,43,0,91,15,0,31,31,13,15,46,0,2,4,0,2,9,42,42,8,0,6,0,77,6,23,9,9,0,0,0,0,41,41,0,0,0,0,0,0,9,0,75,0,0,0,0,28,0,0,2,47,0,23,0,0,0,0,0,2,0,15,0,6,0,46,0,0,0,0,0,0,0,0,0,0,0,0,0,0,0,0,0,0,0,0,0,0,0,0,0],"split_type":[0,0,0,0,0,0,0,0,0,0,0,0,0,0,0,0,0,0,0,0,0,0,0,0,0,0,0,0,0,0,0,0,0,0,0,0,0,0,0,0,0,0,0,0,0,0,0,0,0,0,0,0,0,0,0,0,0,0,0,0,0,0,0,0,0,0,0,0,0,0,0,0,0,0,0,0,0,0,0,0,0,0,0,0,0,0,0,0,0,0,0,0,0,0,0,0,0,0,0,0,0,0,0,0,0,0,0,0,0,0,0],"sum_hessian":[1.0661241E6,3.6851375E5,6.976104E5,3.508511E5,1.766265E4,6.3916544E5,5.84449E4,3.266187E5,2.423243E4,8.323037E3,9.339613E3,9.963479E4,5.395307E5,4.5905312E4,1.2539587E4,3.63182E3,3.2298684E5,1.8109365E4,6.1230645E3,3.7731934E2,7.9457183E3,9.034411E3,3.0520285E2,2.2052215E4,7.758258E4,3.141037E5,2.25427E5,1.9009572E4,2.689574E4,1.1257488E4,1.2820988E3,2.5778062E3,1.0540137E3,6.638081E3,3.1634878E5,2.2530762E3,1.5856289E4,1.2687614E3,4.854303E3,8.859535E3,1.7487585E2,2.1902002E4,1.5021312E2,7.5554586E4,2.027992E3,2.1491619E3,3.119545E5,2.2537169E5,5.5313335E1,1.8895678E4,1.1389322E2,4.60404E3,2.22917E4,6.9471655E3,4.3103228E3,1.1012087E3,1.8089E2,9.864934E2,6.75203E1,4.0562222E3,2.5818586E3,1.1101007E3,1.1429755E3,8.169826E2,1.5039307E4,7.4893207E2,5.198292E2,4.4971978E3,3.5710532E2,1.6060814E2,8.698927E3,2.0887684E4,1.0143191E3,7.2244016E4,3.3105728E3,9.976594E2,1.0303325E3,1.6961669E3,4.5299487E2,2.8416384E5,2.7790666E4,2.2531173E5,5.9944424E1,2.13334E4,9.582991E2,4.1478013E3,2.7993643E3,2.1096638E3,4.721948E2,1.2650747E2,1.016468E3,4.2762847E3,2.209133E2,8.614375E3,8.45522E1,2.072753E4,1.6015433E2,7.068896E4,1.5550488E3,2.3512632E3,9.5930963E2,2.7771288E5,6.4509653E3,1.4185718E4,1.3604947E4,1.6978892E5,5.5522812E4,1.5315776E4,6.017624E3,3.5449421E3,6.028589E2],"tree_param":{"num_deleted":"0","num_feature":"95","num_nodes":"111","size_leaf_vector":"1"}},{"base_weights":[-9.915767E-3,-1.5393943E0,7.5923806E-1,-1.6121316E0,-8.2617897E-1,9.81314E-1,-1.7018197E0,-8.1660785E-2,-1.1170851E0,-1.1581867E0,1.2182286E0,-6.670246E-1,1.2903807E0,-1.6833508E0,-1.7690171E0,-3.7468657E-1,-8.2038224E-2,-1.5028061E0,3.975883E-1,1.4303733E0,-1.8792965E0,-1.2408447E0,1.5819765E0,1.084886E0,1.5665373E0,-8.262794E-2,-1.7049705E0,-1.7797432E0,-1.6718416E0,-8.162098E-2,5.802478E-1,-1.6408261E0,1.4419154E0,-1.7097234E0,1.0894376E0,-8.6950295E-2,1.4748552E0,-9.926037E-2,-8.0967076E-2,-1.3151338E0,1.6484984E0,1.3287936E0,1.595557E0,-1.6602852E0,1.1047364E0,-9.61704E-2,1.5673174E0,-9.14477E-2,-1.6789613E0,-1.7562841E0,-9.085698E-2,-8.212428E-2,-9.15634E-2,-8.2784966E-2,1.1514499E0,-8.16703E-2,-1.6865072E0,8.101519E-2,-8.463184E-2,-8.7632425E-2,-8.206997E-2,1.3577275E0,-1.8449879E0,1.6277938E0,1.075588E0,-1.3580061E0,6.388435E-1,8.604454E-2,7.888621E-2,-1.0464525E-1,8.21236E-2,1.5650504E0,1.6417086E0,-8.711979E-2,-8.165472E-2,1.1640881E0,4.2272347E-1,1.5681208E0,-8.655192E-2,-1.6742432E0,-8.905508E-2,-1.7261058E0,-9.000296E-2,7.391092E-2,-8.218946E-2,-8.543491E-2,-8.163208E-2,7.769363E-2,-8.148526E-2,-9.8124914E-2,-8.1595905E-2,7.066045E-2,8.7023936E-2,-9.971876E-2,8.368234E-2,-7.921084E-2,-5.138268E-2,-8.713823E-2,1.0136491E-1,7.90479E-2,-8.065907E-2,8.1345685E-2,8.704657E-2,8.38655E-2,5.542175E-2,-6.2164417E-3,5.7612684E-2,7.957804E-2,7.534609E-2,-8.422402E-2,-8.239928E-2,-8.529134E-2,-9.2044644E-2],"categories":[],"categories_nodes":[],"categories_segments":[],"categories_sizes":[],"default_left":[0,0,0,0,0,0,0,0,0,0,0,0,0,0,0,0,0,0,0,0,0,0,0,0,0,0,0,0,0,0,0,0,0,0,0,0,0,0,0,0,0,0,0,0,0,0,0,0,0,0,0,0,0,0,0,0,0,0,0,0,0,0,0,0,0,0,0,0,0,0,0,0,0,0,0,0,0,0,0,0,0,0,0,0,0,0,0,0,0,0,0,0,0,0,0,0,0,0,0,0,0,0,0,0,0,0,0,0,0,0,0,0,0],"id":5,"left_children":[1,3,5,7,9,11,13,-1,15,17,19,21,23,25,27,29,-1,31,33,35,37,39,41,43,45,-1,47,49,51,-1,53,55,57,59,61,-1,63,-1,-1,65,67,69,71,73,75,-1,77,-1,79,81,-1,-1,-1,-1,83,-1,85,-1,-1,-1,-1,87,89,91,93,95,97,-1,-1,-1,-1,99,101,-1,-1,103,105,107,-1,109,-1,111,-1,-1,-1,-1,-1,-1,-1,-1,-1,-1,-1,-1,-1,-1,-1,-1,-1,-1,-1,-1,-1,-1,-1,-1,-1,-1,-1,-1,-1,-1,-1],"loss_changes":[1.2346805E6,1.821725E4,3.816779E5,3.3241875E3,2.2063564E4,3.26326E5,6.840625E1,0E0,5.061789E3,1.4993152E4,2.986979E3,1.30526195E5,3.060875E4,2.7046875E1,9.644531E0,6.4717236E3,0E0,9.306605E3,7.395903E3,6.018447E2,4.4505615E0,1.7298672E4,6.827734E1,1.6855156E4,6.295E2,0E0,8.241406E1,6.265625E0,2.513916E0,0E0,3.9139497E3,4.3242188E0,5.7612866E2,4.6118164E-1,3.0088584E3,0E0,2.5400195E2,0E0,0E0,6.582203E3,7.3066406E0,1.133636E3,2.4578125E1,1.7749023E0,1.24285E4,0E0,6.125E2,0E0,7.2695312E0,5.6640625E0,0E0,0E0,0E0,0E0,2.2314868E3,0E0,4.9023438E-1,0E0,0E0,0E0,0E0,2.0530967E3,4.4571533E0,7.047705E1,2.1410728E3,5.7429844E3,5.583246E3,0E0,0E0,0E0,0E0,5.974883E2,8.197266E0,0E0,0E0,8.066E3,9.811392E3,3.2725E2,0E0,2.5546875E0,0E0,6.080078E0,0E0,0E0,0E0,0E0,0E0,0E0,0E0,0E0,0E0,0E0,0E0,0E0,0E0,0E0,0E0,0E0,0E0,0E0,0E0,0E0,0E0,0E0,0E0,0E0,0E0,0E0,0E0,0E0,0E0,0E0,0E0],"parents":[2147483647,0,0,1,1,2,2,3,3,4,4,5,5,6,6,8,8,9,9,10,10,11,11,12,12,13,13,14,14,15,15,17,17,18,18,19,19,20,20,21,21,22,22,23,23,24,24,26,26,27,27,28,28,30,30,31,31,32,32,33,33,34,34,36,36,39,39,40,40,41,41,42,42,43,43,44,44,46,46,48,48,49,49,54,54,56,56,61,61,62,62,63,63,64,64,65,65,66,66,71,71,72,72,75,75,76,76,77,77,79,79,81,81],"right_children":[2,4,6,8,10,12,14,-1,16,18,20,22,24,26,28,30,-1,32,34,36,38,40,42,44,46,-1,48,50,52,-1,54,56,58,60,62,-1,64,-1,-1,66,68,70,72,74,76,-1,78,-1,80,82,-1,-1,-1,-1,84,-1,86,-1,-1,-1,-1,88,90,92,94,96,98,-1,-1,-1,-1,100,102,-1,-1,104,106,108,-1,110,-1,112,-1,-1,-1,-1,-1,-1,-1,-1,-1,-1,-1,-1,-1,-1,-1,-1,-1,-1,-1,-1,-1,-1,-1,-1,-1,-1,-1,-1,-1,-1,-1],"split_conditions":[1.0568331E2,9.004599E1,1E0,4E0,1E0,1E0,3.3333333E0,-8.1660785E-2,3E0,3E0,3E0,1E0,1E0,1E0,4E0,5.5946125E1,-8.2038224E-2,1E0,1E0,1.3333334E0,1E0,1E0,2.001E3,2.3E1,2.4E1,-8.262794E-2,1E0,1E0,1E0,-8.162098E-2,1.1784596E1,1.3333334E0,3.6E1,1E0,1.01018394E2,-8.6950295E-2,4.1E1,-9.926037E-2,-8.0967076E-2,1E0,1.0575087E1,1E0,7.6E1,1E0,2.006E3,-9.61704E-2,1E0,-9.14477E-2,3E0,3E0,-9.085698E-2,-8.212428E-2,-9.15634E-2,-8.2784966E-2,5E0,-8.16703E-2,1E0,8.101519E-2,-8.463184E-2,-8.7632425E-2,-8.206997E-2,1E0,1E0,0E0,9.4E1,1.7263469E2,1E0,8.604454E-2,7.888621E-2,-1.0464525E-1,8.21236E-2,1E0,1E0,-8.711979E-2,-8.165472E-2,1E0,3.3333333E0,1E0,-8.655192E-2,1.1976692E1,-8.905508E-2,1E0,-9.000296E-2,7.391092E-2,-8.218946E-2,-8.543491E-2,-8.163208E-2,7.769363E-2,-8.148526E-2,-9.8124914E-2,-8.1595905E-2,7.066045E-2,8.7023936E-2,-9.971876E-2,8.368234E-2,-7.921084E-2,-5.138268E-2,-8.713823E-2,1.0136491E-1,7.90479E-2,-8.065907E-2,8.1345685E-2,8.704657E-2,8.38655E-2,5.542175E-2,-6.2164417E-3,5.7612684E-2,7.957804E-2,7.534609E-2,-8.422402E-2,-8.239928E-2,-8.529134E-2,-9.2044644E-2],"split_indices":[10,10,18,35,46,4,48,0,52,48,48,46,46,4,41,10,0,51,65,48,42,15,9,0,0,0,13,15,46,0,6,48,0,42,10,0,0,0,0,23,6,80,0,16,9,0,7,0,41,41,0,0,0,0,35,0,42,0,0,0,0,42,42,47,0,10,72,0,0,0,0,91,33,0,0,50,48,15,0,6,0,46,0,0,0,0,0,0,0,0,0,0,0,0,0,0,0,0,0,0,0,0,0,0,0,0,0,0,0,0,0,0,0],"split_type":[0,0,0,0,0,0,0,0,0,0,0,0,0,0,0,0,0,0,0,0,0,0,0,0,0,0,0,0,0,0,0,0,0,0,0,0,0,0,0,0,0,0,0,0,0,0,0,0,0,0,0,0,0,0,0,0,0,0,0,0,0,0,0,0,0,0,0,0,0,0,0,0,0,0,0,0,0,0,0,0,0,0,0,0,0,0,0,0,0,0,0,0,0,0,0,0,0,0,0,0,0,0,0,0,0,0,0,0,0,0,0,0,0],"sum_hessian":[1.0495356E6,3.511887E5,6.9834694E5,3.1868603E5,3.2502658E4,6.405472E5,5.779977E4,3.0566522E5,1.3020814E4,2.7962143E4,4.5405146E3,1.0113967E5,5.394075E5,4.5360344E4,1.2439428E4,5.3865015E3,7.6343135E3,2.2891541E4,5.070602E3,4.250009E3,2.9050592E2,8.05805E4,2.0559172E4,3.0927428E5,2.3013322E5,1.8744795E4,2.6615547E4,1.1186359E4,1.2530679E3,2.3244243E3,3.062077E3,2.1867102E4,1.0244408E3,1.2528662E3,3.8177356E3,5.8264435E1,4.191744E3,2.0142143E2,8.908449E1,7.8561164E4,2.0193391E3,1.0520419E3,1.950713E4,2.2197068E3,3.070546E5,5.084497E1,2.3008238E5,4.6025425E3,2.2013004E4,6.905269E3,4.281091E3,1.0682878E3,1.8478009E2,6.2265314E2,2.4394238E3,1.8844984E4,3.0221165E3,9.69766E2,5.467472E1,7.53413E2,4.9945322E2,3.4984492E3,3.1928638E2,3.0283948E3,1.1633495E3,7.6874805E4,1.6863595E3,9.8603357E2,1.0333055E3,8.784216E1,9.6419965E2,1.1766468E4,7.7406616E3,5.355872E2,1.6841196E3,2.8247188E5,2.4582719E4,2.3002689E5,5.54819E1,2.1058646E4,9.5435913E2,4.112704E3,2.7925647E3,2.1845525E3,2.5487114E2,2.1172812E3,9.048351E2,3.2833862E3,2.1506297E2,2.001961E2,1.1909028E2,1.0476993E3,1.9806953E3,1.8927234E2,9.740772E2,4.562722E4,3.1247584E4,6.2093915E2,1.0654203E3,1.1708399E4,5.806873E1,6.752247E3,9.884147E2,2.763118E4,2.5484069E5,1.4048712E4,1.0534006E4,1.6630389E5,6.3722996E4,1.5103287E4,5.9553584E3,3.509433E3,6.032713E2],"tree_param":{"num_deleted":"0","num_feature":"95","num_nodes":"113","size_leaf_vector":"1"}},{"base_weights":[1.9090523E-3,-1.460671E0,7.6086056E-1,-3.236407E-2,-1.5133126E0,9.78254E-1,-1.6446502E0,-1.5946499E0,1.0197856E0,-1.575639E0,-9.0560585E-1,1.2449397E0,-5.972317E-1,-1.6282605E0,-1.7040917E0,-7.921644E-2,-9.456858E-2,1.2228942E0,-1.7813245E0,-1.5859997E0,-9.788639E-1,-1.4694377E0,6.804161E-1,1.0123544E0,1.524418E0,-1.162063E0,1.6252378E0,-8.0043145E-2,-1.6475004E0,-1.713659E0,-1.6173946E0,1.3263748E0,-8.1021026E-2,-8.427548E-2,-9.521515E-2,-7.915305E-2,-1.7456462E0,-1.5939898E0,8.4916425E-1,-1.5972416E0,7.0936665E-2,9.297341E-1,-8.432137E-2,-8.442668E-1,1.0734355E0,-8.699802E-2,1.5254452E0,-1.2396814E0,1.5952889E0,1.6118926E0,9.274321E-2,-8.784891E-2,-1.6244719E0,-8.7368734E-2,-1.693635E0,-7.964058E-2,-8.782953E-2,1.3913827E0,-8.874508E-2,-7.989351E-2,-1.8464248E0,-7.926967E-2,-9.0736635E-2,-7.9168126E-2,8.075673E-2,-1.5912122E0,-1.7205585E0,1.1105202E0,-8.2638055E-2,-8.098435E-2,1.6600746E0,-1.6079255E0,1.0923687E0,-9.67721E-2,1.526239E0,-1.2804878E0,8.301599E-2,8.303938E-2,7.6478414E-2,7.3414095E-2,1.6206288E0,-1.6202325E0,-8.572335E-2,-1.6605736E0,-8.667708E-2,-8.048108E-2,7.298032E-2,-8.681147E-2,-9.364822E-2,-7.950534E-2,-9.209158E-2,-8.950215E-2,-8.3607286E-2,6.20726E-2,-8.060308E-2,9.237365E-2,-8.080941E-2,-8.445542E-2,-7.91738E-2,-8.56051E-2,5.511382E-2,7.738351E-2,7.326964E-2,-6.634029E-2,3.4763258E-2,8.136936E-2,7.554278E-2,-8.147156E-2,-7.983167E-2,-8.2309455E-2,-8.800454E-2],"categories":[],"categories_nodes":[],"categories_segments":[],"categories_sizes":[],"default_left":[0,0,0,0,0,0,0,0,0,0,0,0,0,0,0,0,0,0,0,0,0,0,0,0,0,0,0,0,0,0,0,0,0,0,0,0,0,0,0,0,0,0,0,0,0,0,0,0,0,0,0,0,0,0,0,0,0,0,0,0,0,0,0,0,0,0,0,0,0,0,0,0,0,0,0,0,0,0,0,0,0,0,0,0,0,0,0,0,0,0,0,0,0,0,0,0,0,0,0,0,0,0,0,0,0,0,0,0,0,0,0],"id":6,"left_children":[1,3,5,7,9,11,13,15,17,19,21,23,25,27,29,-1,-1,31,33,35,37,39,41,43,45,47,49,-1,51,53,55,57,-1,-1,-1,-1,59,61,63,65,-1,67,-1,69,71,-1,73,75,77,79,-1,-1,81,-1,83,-1,-1,85,-1,-1,87,-1,-1,-1,-1,89,91,93,-1,-1,95,97,99,-1,101,103,-1,-1,-1,-1,105,107,-1,109,-1,-1,-1,-1,-1,-1,-1,-1,-1,-1,-1,-1,-1,-1,-1,-1,-1,-1,-1,-1,-1,-1,-1,-1,-1,-1,-1],"loss_changes":[1.1555122E6,2.673925E4,3.583965E5,2.0782715E4,1.29895625E4,2.640882E5,5.2234375E1,1.2238281E1,4.3004844E3,1.9216875E3,2.8534438E4,3.494025E4,1.1422669E5,2.053125E1,7.0546875E0,0E0,0E0,2.074957E3,2.4544678E0,1.403125E2,5.9739126E3,8.691258E3,4.939947E3,3.3272812E4,8.21375E2,1.553007E4,5.3171875E1,0E0,6.2703125E1,4.138672E0,1.0991211E0,1.373001E3,0E0,0E0,0E0,0E0,7.8859375E1,4.3251953E0,2.495372E3,1.36953125E1,0E0,3.5370024E3,0E0,1.8150629E4,1.4421781E4,0E0,6.735E2,8.353008E3,5.692871E0,1.91875E1,0E0,0E0,5.125E0,0E0,5.9472656E0,0E0,0E0,1.3657402E3,0E0,0E0,5.958008E0,0E0,0E0,0E0,0E0,2.6875E0,1.5161133E-1,2.5248125E3,0E0,0E0,1.3598442E3,9.526367E-1,7.8389375E3,0E0,3.15625E2,6.369336E3,0E0,0E0,0E0,0E0,9.4140625E0,1.5625E0,0E0,2.2373047E0,0E0,0E0,0E0,0E0,0E0,0E0,0E0,0E0,0E0,0E0,0E0,0E0,0E0,0E0,0E0,0E0,0E0,0E0,0E0,0E0,0E0,0E0,0E0,0E0,0E0,0E0,0E0],"parents":[2147483647,0,0,1,1,2,2,3,3,4,4,5,5,6,6,7,7,8,8,9,9,10,10,11,11,12,12,13,13,14,14,17,17,18,18,19,19,20,20,21,21,22,22,23,23,24,24,25,25,26,26,28,28,29,29,30,30,31,31,36,36,37,37,38,38,39,39,41,41,43,43,44,44,46,46,47,47,48,48,49,49,52,52,54,54,57,57,60,60,65,65,66,66,67,67,70,70,71,71,72,72,74,74,75,75,80,80,81,81,83,83],"right_children":[2,4,6,8,10,12,14,16,18,20,22,24,26,28,30,-1,-1,32,34,36,38,40,42,44,46,48,50,-1,52,54,56,58,-1,-1,-1,-1,60,62,64,66,-1,68,-1,70,72,-1,74,76,78,80,-1,-1,82,-1,84,-1,-1,86,-1,-1,88,-1,-1,-1,-1,90,92,94,-1,-1,96,98,100,-1,102,104,-1,-1,-1,-1,106,108,-1,110,-1,-1,-1,-1,-1,-1,-1,-1,-1,-1,-1,-1,-1,-1,-1,-1,-1,-1,-1,-1,-1,-1,-1,-1,-1,-1,-1],"split_conditions":[1.06E2,-3.3333337E-1,1E0,5.7E1,9E1,1E0,3.3333333E0,1.0220105E2,1E0,6.6666675E-1,2E0,1E0,1E0,1E0,4E0,-7.921644E-2,-9.456858E-2,1E0,8.919186E1,1.0568331E2,1E0,1E0,1E0,1E0,1.03318E2,1E0,9.9E1,-8.0043145E-2,1E0,1E0,1E0,1.1E1,-8.1021026E-2,-8.427548E-2,-9.521515E-2,-7.915305E-2,1E0,1.0568331E2,5.6E1,1E0,7.0936665E-2,1E0,-8.432137E-2,2.42E2,2.3E1,-8.699802E-2,2.4E1,1E0,4E1,1.31E2,9.274321E-2,-8.784891E-2,3E0,-8.7368734E-2,3E0,-7.964058E-2,-8.782953E-2,3E0,-8.874508E-2,-7.989351E-2,1.2043364E2,-7.926967E-2,-9.0736635E-2,-7.9168126E-2,8.075673E-2,1E0,1E0,1E0,-8.2638055E-2,-8.098435E-2,2.45E2,1E0,1.0568331E2,-9.67721E-2,1E0,1E0,8.301599E-2,8.303938E-2,7.6478414E-2,7.3414095E-2,1.89E2,1.5900423E5,-8.572335E-2,1E0,-8.667708E-2,-8.048108E-2,7.298032E-2,-8.681147E-2,-9.364822E-2,-7.950534E-2,-9.209158E-2,-8.950215E-2,-8.3607286E-2,6.20726E-2,-8.060308E-2,9.237365E-2,-8.080941E-2,-8.445542E-2,-7.91738E-2,-8.56051E-2,5.511382E-2,7.738351E-2,7.326964E-2,-6.634029E-2,3.4763258E-2,8.136936E-2,7.554278E-2,-8.147156E-2,-7.983167E-2,-8.2309455E-2,-8.800454E-2],"split_indices":[2,49,18,2,2,91,48,10,54,49,41,46,51,4,41,0,0,42,10,10,75,51,63,4,10,15,0,0,13,13,46,8,0,0,0,0,4,10,2,38,0,18,0,2,0,0,0,32,0,2,0,0,41,0,41,0,0,8,0,0,10,0,0,0,0,46,13,42,0,0,2,16,10,0,15,23,0,0,0,0,2,5,0,46,0,0,0,0,0,0,0,0,0,0,0,0,0,0,0,0,0,0,0,0,0,0,0,0,0,0,0],"split_type":[0,0,0,0,0,0,0,0,0,0,0,0,0,0,0,0,0,0,0,0,0,0,0,0,0,0,0,0,0,0,0,0,0,0,0,0,0,0,0,0,0,0,0,0,0,0,0,0,0,0,0,0,0,0,0,0,0,0,0,0,0,0,0,0,0,0,0,0,0,0,0,0,0,0,0,0,0,0,0,0,0,0,0,0,0,0,0,0,0,0,0,0,0,0,0,0,0,0,0,0,0,0,0,0,0,0,0,0,0,0,0],"sum_hessian":[1.0409745E6,3.5563228E5,6.853422E5,1.2641386E4,3.429909E5,6.2853975E5,5.6802453E4,5.087212E3,7.554174E3,3.110843E5,3.19066E4,5.375481E5,9.099159E4,4.454902E4,1.2253435E4,4.922661E3,1.6455069E2,7.0440117E3,5.1016245E2,3.057739E5,5.310389E3,2.3538709E4,8.367891E3,2.933902E5,2.4415797E5,7.255306E4,1.8438535E4,1.841519E4,2.6133828E4,1.1017676E4,1.2357593E3,6.7972007E3,2.4681084E2,2.954726E2,2.1468983E2,3.002585E5,5.515421E3,3.973501E3,1.3368883E3,2.2541701E4,9.9700745E2,7.571025E3,7.968653E2,9.344379E3,2.840458E5,7.624165E1,2.4408172E5,7.05672E4,1.9858538E3,1.743379E4,1.00474554E3,4.528004E3,2.1605824E4,4.0713105E3,6.9463647E3,1.0614596E3,1.742997E2,6.658217E3,1.3898386E2,2.2435117E3,3.2719094E3,3.8328728E3,1.4062816E2,3.198688E2,1.01701953E3,2.1504936E4,1.0367654E3,7.0762637E3,4.9476117E2,7.1354272E3,2.2089517E3,1.9909646E3,2.8205484E5,5.5387146E1,2.4402633E5,6.958861E4,9.785987E2,9.816883E2,1.00416547E3,1.01008655E3,1.6423703E4,2.0653016E4,9.528092E2,3.8236836E3,3.1226814E3,1.47466E2,6.510751E3,6.486838E2,2.6232256E3,2.1418215E4,8.6721146E1,4.1011234E2,6.266531E2,6.752128E3,3.2413593E2,2.0898796E3,1.1907199E2,4.4411844E2,1.5468461E3,9.922891E2,2.8106253E5,1.8044462E5,6.3581715E4,6.799497E4,1.5936421E3,1.545732E4,9.663826E2,1.4808432E4,5.8445845E3,3.3569998E3,4.666839E2],"tree_param":{"num_deleted":"0","num_feature":"95","num_nodes":"111","size_leaf_vector":"1"}},{"base_weights":[2.2164967E-2,-1.4112165E0,7.265373E-1,-1.4813408E0,-4.5540623E-2,9.297686E-1,-1.5937604E0,-1.5302467E0,-7.17782E-1,-1.5448167E0,1.1934859E0,-5.614406E-1,1.2099539E0,-1.5790871E0,-1.646613E0,-1.5396142E0,-7.3409486E-1,-7.6940395E-2,3.7931475E-1,-7.6938406E-2,-8.1104115E-2,1.275035E0,-7.678496E-2,-1.1636609E0,1.5151721E0,1.0294857E0,1.4688375E0,-7.7731304E-2,-1.5961553E0,-1.6550008E0,-1.5697743E0,-7.693618E-2,-1.5499518E0,-7.7044494E-2,7.1003474E-2,1.5910535E0,-8.7468797E-1,3.9097074E-1,1.464089E0,-1.2330432E0,1.5421277E0,1.4173561E0,1.5412719E0,-1.5618616E0,1.0469034E0,1.4695969E0,-8.030098E-2,-8.466207E-2,-1.5756531E0,-8.42443E-2,-1.637236E0,-7.735968E-2,-8.4643476E-2,-7.7102706E-2,-1.628387E0,1.6655617E0,-8.18175E-2,-1.6249342E0,1.2533122E0,-8.697559E-2,1.482815E0,1.5059123E0,-9.0481214E-2,-1.3112317E0,4.711372E-1,8.055361E-2,7.373472E-2,-1.0619271E-1,1.4652591E0,1.5154274E0,1.6108825E0,-7.707129E-2,-8.1745334E-2,4.48469E-1,1.0925618E0,1.4933683E0,1.405553E0,-1.5719123E0,-8.280311E-2,-1.6077585E0,-8.363435E-2,-8.269123E-2,-7.6726444E-2,8.544429E-2,-8.076348E-2,-7.857654E-2,-8.663904E-2,7.822176E-2,-8.065956E-2,8.34363E-2,-8.519584E-2,7.6625876E-2,-9.682856E-2,-6.781823E-2,3.1233609E-2,6.525909E-2,-7.85898E-2,7.567208E-2,-1.02651E-1,7.53493E-2,8.101719E-2,8.219477E-2,7.3677406E-2,-4.6589724E-3,6.5442465E-2,7.868939E-2,5.238926E-2,7.361361E-2,7.650758E-2,7.302751E-2,5.175324E-2,-7.900162E-2,-7.754568E-2,-7.9723865E-2,-8.4811285E-2],"categories":[],"categories_nodes":[],"categories_segments":[],"categories_sizes":[],"default_left":[0,0,0,0,0,0,0,0,0,0,0,0,0,0,0,0,0,0,0,0,0,0,0,0,0,0,0,0,0,0,0,0,0,0,0,0,0,0,0,0,0,0,0,0,0,0,0,0,0,0,0,0,0,0,0,0,0,0,0,0,0,0,0,0,0,0,0,0,0,0,0,0,0,0,0,0,0,0,0,0,0,0,0,0,0,0,0,0,0,0,0,0,0,0,0,0,0,0,0,0,0,0,0,0,0,0,0,0,0,0,0,0,0,0,0],"id":7,"left_children":[1,3,5,7,9,11,13,15,17,19,21,23,25,27,29,31,33,-1,35,-1,-1,37,-1,39,41,43,45,-1,47,49,51,-1,53,-1,-1,55,57,59,61,63,65,67,69,71,73,75,-1,-1,77,-1,79,-1,-1,-1,81,83,-1,85,87,-1,89,91,-1,93,95,-1,-1,-1,97,99,101,-1,-1,103,105,107,109,111,-1,113,-1,-1,-1,-1,-1,-1,-1,-1,-1,-1,-1,-1,-1,-1,-1,-1,-1,-1,-1,-1,-1,-1,-1,-1,-1,-1,-1,-1,-1,-1,-1,-1,-1,-1,-1],"loss_changes":[1.04526575E6,3.2667812E4,3.273429E5,1.2114875E4,3.095271E4,2.6667844E5,4.0421875E1,2.27275E3,1.759472E4,7.128906E-1,2.0323613E3,1.2625609E5,2.5101562E4,1.54921875E1,4.890625E0,6.25E-2,6.1685957E3,0E0,1.2706921E4,0E0,0E0,1.479873E3,0E0,1.4694203E4,5.546875E1,1.42918125E4,5.176875E2,0E0,4.8257812E1,2.703125E0,4.3066406E-1,0E0,1.1890625E1,0E0,0E0,1.0253887E3,6.5632783E3,3.6363416E3,1.001876E3,1.0168234E4,6.4140625E0,8.1620996E2,2.9457031E1,3.1835938E-1,8.592531E3,3.3346875E2,0E0,0E0,3.4726562E0,0E0,4.171875E0,0E0,0E0,0E0,2.288086E0,5.9368945E2,0E0,1.4449219E1,9.5835474E2,0E0,6.1507715E2,6.6292676E2,0E0,6.3755156E3,5.706736E3,0E0,0E0,0E0,8.0492773E2,8.824219E0,1.9166016E1,0E0,0E0,1.0390625E4,6.2943438E3,1.2234375E2,1.2156484E3,7.03125E-1,0E0,1.4130859E0,0E0,0E0,0E0,0E0,0E0,0E0,0E0,0E0,0E0,0E0,0E0,0E0,0E0,0E0,0E0,0E0,0E0,0E0,0E0,0E0,0E0,0E0,0E0,0E0,0E0,0E0,0E0,0E0,0E0,0E0,0E0,0E0,0E0,0E0,0E0],"parents":[2147483647,0,0,1,1,2,2,3,3,4,4,5,5,6,6,7,7,8,8,9,9,10,10,11,11,12,12,13,13,14,14,15,15,16,16,18,18,21,21,23,23,24,24,25,25,26,26,28,28,29,29,30,30,32,32,35,35,36,36,37,37,38,38,39,39,40,40,41,41,42,42,43,43,44,44,45,45,48,48,50,50,54,54,55,55,57,57,58,58,60,60,61,61,63,63,64,64,68,68,69,69,70,70,73,73,74,74,75,75,76,76,77,77,79,79],"right_children":[2,4,6,8,10,12,14,16,18,20,22,24,26,28,30,32,34,-1,36,-1,-1,38,-1,40,42,44,46,-1,48,50,52,-1,54,-1,-1,56,58,60,62,64,66,68,70,72,74,76,-1,-1,78,-1,80,-1,-1,-1,82,84,-1,86,88,-1,90,92,-1,94,96,-1,-1,-1,98,100,102,-1,-1,104,106,108,110,112,-1,114,-1,-1,-1,-1,-1,-1,-1,-1,-1,-1,-1,-1,-1,-1,-1,-1,-1,-1,-1,-1,-1,-1,-1,-1,-1,-1,-1,-1,-1,-1,-1,-1,-1,-1,-1],"split_conditions":[1.0568331E2,1E0,1E0,1E0,7.138634E1,1E0,3.3333333E0,1E0,5.5946125E1,5.719448E1,1E0,1E0,1E0,1E0,4E0,8.919186E1,9.664915E1,-7.6940395E-2,3E1,-7.6938406E-2,-8.1104115E-2,9.004599E1,-7.678496E-2,1E0,1.3333334E0,2.3E1,1E0,-7.7731304E-2,1E0,1E0,1E0,-7.693618E-2,2E0,-7.7044494E-2,7.1003474E-2,5E0,3.2021703E5,2.1997803E5,1.03318E2,1E0,3.914628E4,1.4047307E2,1.8843626E2,1E0,1.2043364E2,1E0,-8.030098E-2,-8.466207E-2,3E0,-8.42443E-2,3E0,-7.735968E-2,-8.4643476E-2,-7.7102706E-2,1E0,1E0,-8.18175E-2,9.004599E1,1.2721365E1,-8.697559E-2,2.2381845E5,1.9934119E5,-9.0481214E-2,1E0,4.4E1,8.055361E-2,7.373472E-2,-1.0619271E-1,1.686925E2,1E0,1E0,-7.707129E-2,-8.1745334E-2,1E0,1E0,1E0,5.1E1,1.5900423E5,-8.280311E-2,1E0,-8.363435E-2,-8.269123E-2,-7.6726444E-2,8.544429E-2,-8.076348E-2,-7.857654E-2,-8.663904E-2,7.822176E-2,-8.065956E-2,8.34363E-2,-8.519584E-2,7.6625876E-2,-9.682856E-2,-6.781823E-2,3.1233609E-2,6.525909E-2,-7.85898E-2,7.567208E-2,-1.02651E-1,7.53493E-2,8.101719E-2,8.219477E-2,7.3677406E-2,-4.6589724E-3,6.5442465E-2,7.868939E-2,5.238926E-2,7.361361E-2,7.650758E-2,7.302751E-2,5.175324E-2,-7.900162E-2,-7.754568E-2,-7.9723865E-2,-8.4811285E-2],"split_indices":[10,46,18,15,10,4,48,51,10,10,42,46,46,4,41,10,10,0,0,0,0,10,0,15,48,0,7,0,13,13,46,0,41,0,0,35,5,5,10,77,5,10,10,23,10,15,0,0,41,0,41,0,0,0,42,67,0,10,6,0,5,5,0,23,0,0,0,0,10,32,41,0,0,32,50,45,0,5,0,46,0,0,0,0,0,0,0,0,0,0,0,0,0,0,0,0,0,0,0,0,0,0,0,0,0,0,0,0,0,0,0,0,0,0,0],"split_type":[0,0,0,0,0,0,0,0,0,0,0,0,0,0,0,0,0,0,0,0,0,0,0,0,0,0,0,0,0,0,0,0,0,0,0,0,0,0,0,0,0,0,0,0,0,0,0,0,0,0,0,0,0,0,0,0,0,0,0,0,0,0,0,0,0,0,0,0,0,0,0,0,0,0,0,0,0,0,0,0,0,0,0,0,0,0,0,0,0,0,0,0,0,0,0,0,0,0,0,0,0,0,0,0,0,0,0,0,0,0,0,0,0,0,0],"sum_hessian":[1.03528956E6,3.4111903E5,6.9417056E5,3.244587E5,1.6660348E4,6.3826644E5,5.5904133E4,3.0492694E5,1.9531748E4,7.5383945E3,9.121952E3,1.0095577E5,5.373106E5,4.3781953E4,1.2122183E4,3.013799E5,3.5470469E3,1.1171275E4,8.360474E3,7.0116943E3,5.267003E2,8.857846E3,2.641065E2,7.826059E4,2.2695186E4,3.1660794E5,2.2070269E5,1.8034193E4,2.5747758E4,1.0909457E4,1.2127257E3,2.7761862E5,2.3761256E4,2.580797E3,9.6624976E2,4.2517915E3,4.1086816E3,1.5611436E3,7.296702E3,7.630456E4,1.9560314E3,4.7926377E3,1.7902547E4,2.1132368E3,3.1449472E5,2.2064875E5,5.3934433E1,4.474183E3,2.1273574E4,4.0301592E3,6.879298E3,1.0368978E3,1.758278E2,2.1607486E4,2.1537703E3,4.1563525E3,9.543911E1,3.0379187E3,1.070763E3,5.287415E2,1.032402E3,7.2052227E3,9.147966E1,7.295752E4,3.3470366E3,9.5512537E2,1.000906E3,6.335973E1,4.729278E3,1.3073067E4,4.82948E3,1.6696007E3,4.436361E2,2.2294824E4,2.9219988E5,1.6090223E5,5.9746527E4,2.0348688E4,9.248862E2,3.7829536E3,3.0963442E3,1.6806051E3,4.731652E2,4.1026855E3,5.3667088E1,2.0428447E3,9.950739E2,9.663652E2,1.04397705E2,9.759724E2,5.64296E1,7.150544E3,5.4678665E1,7.129572E4,1.6618054E3,2.3770117E3,9.70025E2,4.665976E3,6.3301895E1,1.2114666E4,9.58401E2,3.8841118E3,9.453681E2,1.3682099E4,8.612727E3,2.4870781E4,2.673291E5,1.0228375E5,5.861848E4,5.2021062E4,7.7254634E3,1.4617256E4,5.731433E3,3.3066885E3,4.7626517E2],"tree_param":{"num_deleted":"0","num_feature":"95","num_nodes":"115","size_leaf_vector":"1"}},{"base_weights":[2.2320183E-2,-1.3815262E0,7.319275E-1,-1.4726804E0,-6.178938E-1,9.319604E-1,-1.5484338E0,-7.311938E-1,-1.4925557E0,-1.3800776E0,4.208936E-1,-4.5410395E-1,1.1873837E0,-1.5353127E0,-1.5955874E0,7.1641386E-1,-1.5480901E0,-1.5023975E0,-9.271943E-1,-1.5100447E0,6.642202E-2,6.977804E-1,-1.5584766E0,1.4783497E0,-1.1046466E0,1.0045934E0,1.4359486E0,-7.566083E-2,-1.5506989E0,-1.6032492E0,-7.632501E-2,-7.49519E-2,8.55455E-2,-7.513064E-2,-1.7125221E0,-7.4941345E-2,-1.6914028E0,-1.5121002E0,7.8977126E-1,-7.494039E-2,-1.567407E0,8.1476325E-1,-7.82188E-2,-7.4946515E-2,-9.457588E-2,1.4957299E0,-7.651268E-2,-1.1756722E0,1.5121262E0,-7.599755E-2,1.0210999E0,-7.9677835E-2,1.4367507E0,-8.1861526E-2,-1.5322397E0,-8.14872E-2,-1.587328E0,-1.6491119E0,-9.550209E-2,-7.597398E-2,-1.8048415E0,-7.505466E-2,-8.9045815E-2,-7.511409E-2,7.479541E-2,-7.608709E-2,-9.244897E-2,-1.6213645E0,9.114972E-1,1.4779766E0,9.501424E-2,-1.2196779E0,1.2036614E0,7.841005E-2,7.276597E-2,1.0441415E0,-2.4236159E-1,1.4591128E0,1.3802378E0,-7.6007955E-2,-7.7635735E-2,-1.5610554E0,-8.094744E-2,-8.438373E-2,-7.466331E-2,-8.377211E-2,-9.176444E-2,-9.460956E-2,-7.869593E-2,2.8603971E-2,6.948928E-2,7.485606E-2,-8.291289E-2,-6.2909104E-2,7.840299E-2,-8.5122064E-2,9.7268425E-2,3.5921E-2,5.607974E-2,-1.21732354E-1,4.8612624E-2,7.218758E-2,7.4627586E-2,7.122036E-2,5.7741236E-2,-7.746847E-2,-8.1996635E-2],"categories":[],"categories_nodes":[],"categories_segments":[],"categories_sizes":[],"default_left":[0,0,0,0,0,0,0,0,0,0,0,0,0,0,0,0,0,0,0,0,0,0,0,0,0,0,0,0,0,0,0,0,0,0,0,0,0,0,0,0,0,0,0,0,0,0,0,0,0,0,0,0,0,0,0,0,0,0,0,0,0,0,0,0,0,0,0,0,0,0,0,0,0,0,0,0,0,0,0,0,0,0,0,0,0,0,0,0,0,0,0,0,0,0,0,0,0,0,0,0,0,0,0,0,0,0,0],"id":8,"left_children":[1,3,5,7,9,11,13,15,17,19,21,23,25,27,29,31,33,35,37,39,-1,41,43,45,47,49,51,-1,53,55,-1,-1,-1,-1,57,-1,59,61,63,-1,65,67,-1,-1,-1,69,-1,71,73,-1,75,-1,77,-1,79,-1,81,83,-1,-1,85,-1,-1,-1,-1,-1,-1,87,89,91,-1,93,95,-1,-1,97,99,101,103,-1,-1,105,-1,-1,-1,-1,-1,-1,-1,-1,-1,-1,-1,-1,-1,-1,-1,-1,-1,-1,-1,-1,-1,-1,-1,-1,-1],"loss_changes":[1.01238775E6,2.3750688E4,3.079237E5,4.491125E3,2.8811922E4,2.197175E5,3.0914062E1,9.413902E3,1.6501875E3,7.3906953E3,8.441688E3,1.2140482E5,2.380825E4,1.184375E1,3.4980469E0,6.330388E3,3.515918E1,1.940625E2,5.1052573E3,1.02578125E1,0E0,3.5768525E3,3.431201E1,1.2740977E3,1.3429859E4,1.2585406E4,5.4184375E2,0E0,3.7234375E1,1.5722656E0,0E0,0E0,0E0,0E0,1.0206787E1,0E0,1.0228125E2,8.216797E0,2.0934058E3,0E0,3.873535E1,3.02913E3,0E0,0E0,0E0,1.7054297E2,0E0,7.3664766E3,3.4985352E0,0E0,8.7345E3,0E0,2.7828125E2,0E0,2.4453125E0,0E0,2.7011719E0,2.1887207E0,0E0,0E0,9.374023E0,0E0,0E0,0E0,0E0,0E0,0E0,2.9846191E0,2.005207E3,1.3937031E3,0E0,7.4152188E3,2.757587E3,0E0,0E0,7.4323125E3,1.4312607E4,7.921875E1,6.2496875E2,0E0,0E0,5.292969E-1,0E0,0E0,0E0,0E0,0E0,0E0,0E0,0E0,0E0,0E0,0E0,0E0,0E0,0E0,0E0,0E0,0E0,0E0,0E0,0E0,0E0,0E0,0E0,0E0,0E0],"parents":[2147483647,0,0,1,1,2,2,3,3,4,4,5,5,6,6,7,7,8,8,9,9,10,10,11,11,12,12,13,13,14,14,15,15,16,16,17,17,18,18,19,19,21,21,22,22,23,23,24,24,25,25,26,26,28,28,29,29,34,34,36,36,37,37,38,38,40,40,41,41,45,45,47,47,48,48,50,50,52,52,54,54,56,56,57,57,60,60,67,67,68,68,69,69,71,71,72,72,75,75,76,76,77,77,78,78,81,81],"right_children":[2,4,6,8,10,12,14,16,18,20,22,24,26,28,30,32,34,36,38,40,-1,42,44,46,48,50,52,-1,54,56,-1,-1,-1,-1,58,-1,60,62,64,-1,66,68,-1,-1,-1,70,-1,72,74,-1,76,-1,78,-1,80,-1,82,84,-1,-1,86,-1,-1,-1,-1,-1,-1,88,90,92,-1,94,96,-1,-1,98,100,102,104,-1,-1,106,-1,-1,-1,-1,-1,-1,-1,-1,-1,-1,-1,-1,-1,-1,-1,-1,-1,-1,-1,-1,-1,-1,-1,-1,-1],"split_conditions":[1.07E2,9E1,1E0,-3.3333337E-1,1.3333334E0,1E0,3.3333333E0,2.5E1,6.6666675E-1,1E0,1E0,-3.3333325E-1,1E0,1E0,4E0,5.7E1,6.642576E1,1.0568331E2,1E0,1.0568331E2,6.642202E-2,1E0,1.0568331E2,1E0,1E0,2.3E1,1.03318E2,-7.566083E-2,1E0,1E0,-7.632501E-2,-7.49519E-2,8.55455E-2,-7.513064E-2,1.0568331E2,-7.4941345E-2,1E0,1.0568331E2,5.6E1,-7.494039E-2,1E0,4E0,-7.82188E-2,-7.4946515E-2,-9.457588E-2,5.5087475E5,-7.651268E-2,1E0,4E1,-7.599755E-2,2.3E2,-7.9677835E-2,1E0,-8.1861526E-2,2.3333333E0,-8.14872E-2,3E0,1E0,-9.550209E-2,-7.597398E-2,1.2043364E2,-7.505466E-2,-8.9045815E-2,-7.511409E-2,7.479541E-2,-7.608709E-2,-9.244897E-2,2.008E3,1E0,-6.666665E-1,9.501424E-2,1E0,2.44E2,7.841005E-2,7.276597E-2,1.3597241E2,1E0,0E0,5.1E1,-7.6007955E-2,-7.7635735E-2,1E0,-8.094744E-2,-8.438373E-2,-7.466331E-2,-8.377211E-2,-9.176444E-2,-9.460956E-2,-7.869593E-2,2.8603971E-2,6.948928E-2,7.485606E-2,-8.291289E-2,-6.2909104E-2,7.840299E-2,-8.5122064E-2,9.7268425E-2,3.5921E-2,5.607974E-2,-1.21732354E-1,4.8612624E-2,7.218758E-2,7.4627586E-2,7.122036E-2,5.7741236E-2,-7.746847E-2,-8.1996635E-2],"split_indices":[2,2,18,49,48,4,48,0,49,51,42,49,46,4,41,2,10,10,75,10,0,18,10,91,15,0,10,0,13,13,0,0,0,0,10,0,4,10,2,0,4,8,0,0,0,5,0,31,0,0,2,0,15,0,48,0,41,42,0,0,10,0,0,0,0,0,0,9,46,49,0,32,2,0,0,10,30,47,0,0,0,46,0,0,0,0,0,0,0,0,0,0,0,0,0,0,0,0,0,0,0,0,0,0,0,0,0],"split_type":[0,0,0,0,0,0,0,0,0,0,0,0,0,0,0,0,0,0,0,0,0,0,0,0,0,0,0,0,0,0,0,0,0,0,0,0,0,0,0,0,0,0,0,0,0,0,0,0,0,0,0,0,0,0,0,0,0,0,0,0,0,0,0,0,0,0,0,0,0,0,0,0,0,0,0,0,0,0,0,0,0,0,0,0,0,0,0,0,0,0,0,0,0,0,0,0,0,0,0,0,0,0,0,0,0,0,0],"sum_hessian":[1.0162683E6,3.4121906E5,6.7504925E5,3.048306E5,3.6388457E4,6.2061006E5,5.443916E4,7.9587046E3,2.9687188E5,2.0988469E4,1.5399986E4,9.65697E4,5.2404038E5,4.2616273E4,1.182289E4,2.8710203E3,5.0876846E3,2.9179056E5,5.0813228E3,2.0027918E4,9.6055176E2,1.351072E4,1.8892665E3,2.4321281E4,7.224842E4,3.0197712E5,2.2206325E5,1.7537102E4,2.507917E4,1.0621317E4,1.2015726E3,8.893023E2,1.981718E3,3.993847E3,1.0938374E3,2.8638947E5,5.4010938E3,3.7902903E3,1.2910326E3,1.6771389E4,3.2565286E3,1.2847045E4,6.6367487E2,1.6076299E3,2.8163666E2,2.4182121E4,1.3915955E2,7.033982E4,1.9086058E3,1.9610012E3,3.0001612E5,5.8215065E1,2.2200505E5,4.3929844E3,2.0686186E4,3.946395E3,6.6749224E3,8.354771E2,2.5836035E2,2.1531467E3,3.247947E3,3.6478782E3,1.42412E2,3.0376648E2,9.872661E2,2.8079033E3,4.486251E2,4.900073E2,1.2357037E4,2.3170229E4,1.01189197E3,6.906302E4,1.276792E3,9.462157E2,9.623902E2,2.94643E5,5.3731167E3,1.5904467E5,6.2960367E4,1.3060441E4,7.625744E3,3.6750093E3,2.9999128E3,6.613583E2,1.7411882E2,6.2995917E2,2.6179878E3,6.693662E1,4.2307065E2,7.2292207E3,5.127817E3,2.3030201E4,1.400287E2,6.81227E4,9.403226E2,2.593186E2,1.0174734E3,5.6605633E4,2.3803738E5,1.9152732E3,3.4578435E3,1.0901339E5,5.0031285E4,5.263986E4,1.0320506E4,3.219881E3,4.5512823E2],"tree_param":{"num_deleted":"0","num_feature":"95","num_nodes":"107","size_leaf_vector":"1"}},{"base_weights":[-2.4457071E-2,-1.3684211E0,6.7003274E-1,-1.4462482E0,-6.616379E-1,-5.873065E-1,9.408467E-1,-7.0408934E-1,-1.4661933E0,-1.3410314E0,3.7037262E-1,1.4329549E0,-1.1052494E0,6.706127E-1,1.3604043E0,-1.4843206E0,8.526538E-1,-7.314406E-2,-1.6382265E0,-1.4732031E0,1.2789596E0,6.5703434E-1,-1.4903471E0,1.4524869E0,-7.4578285E-2,-1.1663133E0,3.7505406E-1,5.5066067E-1,1.1162798E0,1.361571E0,-1.1234515E-1,-1.4702302E0,-8.827797E-2,-1.6523387E0,1.276451E0,-7.407649E-2,-1.7360238E0,-1.0221621E-1,-1.4679713E0,7.2790675E-2,-9.2207275E-2,8.643964E-1,-1.7296362E0,-7.313719E-2,-8.616157E-2,1.4356977E0,9.076022E-2,-1.4194168E0,-8.544503E-1,-7.7928685E-2,1.1585524E0,1.2743392E0,4.3892923E-1,1.1460793E0,-5.733435E-2,1.4118114E0,1.2851442E0,-7.31044E-2,-7.744559E-2,-7.289938E-2,-8.485371E-2,1.4623789E0,-7.8255095E-2,-8.126662E-2,-8.809774E-2,-7.314625E-2,-1.5044568E0,-7.604917E-2,9.819578E-1,-1.6453351E0,-9.4200745E-2,1.4575914E0,-8.009434E-2,-1.4949551E0,9.4483984E-1,1.9595945E-1,-1.3751092E0,-7.760269E-2,1.5279477E0,1.2985251E0,-2.220152E0,7.158938E-1,1.6761372E-2,1.1547084E0,-2.2619019E0,-2.207422E0,7.35363E-2,1.4135547E0,-1.3726906E-1,-2.4614947E0,1.2914544E0,7.816171E-2,-8.13136E-2,-7.3970966E-2,-8.56587E-2,2.9938256E-2,7.631157E-2,-7.9644166E-2,-8.8084E-2,7.161577E-2,7.490798E-2,-7.443132E-2,-7.528658E-2,-8.4413715E-2,9.580034E-2,-2.2411395E-2,9.171456E-2,-7.534726E-2,1.1287551E-2,8.4933095E-2,-8.183786E-2,6.560039E-2,-1.0764568E-1,-1.2546943E-1,-1.0467716E-1,-2.1945996E-2,4.3329965E-2,-2.5647065E-2,2.5283411E-2,-9.111997E-2,5.8118977E-2,-1.278424E-1,-1.04561925E-1,-1.2345781E-1,-1.0532581E-1,7.0801586E-2,5.4868724E-2,-1.0634041E-1,-1.3315421E-1,5.7120062E-2,7.146259E-2],"categories":[],"categories_nodes":[],"categories_segments":[],"categories_sizes":[],"default_left":[0,0,0,0,0,0,0,0,0,0,0,0,0,0,0,0,0,0,0,0,0,0,0,0,0,0,0,0,0,0,0,0,0,0,0,0,0,0,0,0,0,0,0,0,0,0,0,0,0,0,0,0,0,0,0,0,0,0,0,0,0,0,0,0,0,0,0,0,0,0,0,0,0,0,0,0,0,0,0,0,0,0,0,0,0,0,0,0,0,0,0,0,0,0,0,0,0,0,0,0,0,0,0,0,0,0,0,0,0,0,0,0,0,0,0,0,0,0,0,0,0,0,0,0,0,0,0,0,0,0,0],"id":9,"left_children":[1,3,5,7,9,11,13,15,17,19,21,23,25,27,29,31,33,-1,35,37,39,41,43,45,-1,47,49,51,53,55,-1,57,-1,59,61,-1,63,-1,65,-1,-1,67,69,-1,-1,71,-1,73,75,-1,77,79,81,83,85,87,89,-1,-1,-1,-1,91,-1,-1,-1,-1,93,-1,95,97,-1,99,-1,101,103,105,107,-1,109,111,113,115,117,119,121,123,-1,125,-1,127,129,-1,-1,-1,-1,-1,-1,-1,-1,-1,-1,-1,-1,-1,-1,-1,-1,-1,-1,-1,-1,-1,-1,-1,-1,-1,-1,-1,-1,-1,-1,-1,-1,-1,-1,-1,-1,-1,-1,-1,-1],"loss_changes":[9.005298E5,1.808E4,2.1659875E5,4.3818125E3,2.2862781E4,1.1795942E5,5.9339062E4,9.416338E3,1.615625E2,6.8109727E3,6.905776E3,1.3161797E3,8.1111953E3,1.7017344E4,8.6590625E2,1.7543945E1,2.7500522E3,0E0,8.043945E1,5.258203E1,5.244949E2,5.5531284E3,8.270996E0,1.3623438E2,0E0,6.800453E3,5.3881235E3,2.0281008E4,2.3612188E3,7.8490625E2,0E0,5.888672E-1,0E0,4.7021484E-1,1.1722764E3,0E0,6.3896484E0,0E0,9.1796875E-1,0E0,0E0,2.8959482E3,8.221436E0,0E0,0E0,1.4551602E3,0E0,8.496297E3,2.1115117E4,0E0,2.536388E3,2.8380703E3,2.5406297E4,1.9386484E3,5.49855E3,9E2,1.9254219E3,0E0,0E0,0E0,0E0,6.501885E2,0E0,0E0,0E0,0E0,8.730469E0,0E0,2.0506143E3,4.498291E-1,0E0,1.9800781E1,0E0,5.9375E-1,3.7706309E3,1.3505295E4,5.4483438E3,0E0,1.2063657E3,1.5531211E3,2.7425537E0,2.2835352E4,2.2292943E4,1.5018984E3,2.5737915E0,1.2704346E1,0E0,9.5E1,0E0,3.1027222E0,1.6653906E3,0E0,0E0,0E0,0E0,0E0,0E0,0E0,0E0,0E0,0E0,0E0,0E0,0E0,0E0,0E0,0E0,0E0,0E0,0E0,0E0,0E0,0E0,0E0,0E0,0E0,0E0,0E0,0E0,0E0,0E0,0E0,0E0,0E0,0E0,0E0,0E0,0E0,0E0,0E0,0E0],"parents":[2147483647,0,0,1,1,2,2,3,3,4,4,5,5,6,6,7,7,8,8,9,9,10,10,11,11,12,12,13,13,14,14,15,15,16,16,18,18,19,19,20,20,21,21,22,22,23,23,25,25,26,26,27,27,28,28,29,29,31,31,33,33,34,34,36,36,38,38,41,41,42,42,45,45,47,47,48,48,50,50,51,51,52,52,53,53,54,54,55,55,56,56,61,61,66,66,68,68,69,69,71,71,73,73,74,74,75,75,76,76,78,78,79,79,80,80,81,81,82,82,83,83,84,84,85,85,87,87,89,89,90,90],"right_children":[2,4,6,8,10,12,14,16,18,20,22,24,26,28,30,32,34,-1,36,38,40,42,44,46,-1,48,50,52,54,56,-1,58,-1,60,62,-1,64,-1,66,-1,-1,68,70,-1,-1,72,-1,74,76,-1,78,80,82,84,86,88,90,-1,-1,-1,-1,92,-1,-1,-1,-1,94,-1,96,98,-1,100,-1,102,104,106,108,-1,110,112,114,116,118,120,122,124,-1,126,-1,128,130,-1,-1,-1,-1,-1,-1,-1,-1,-1,-1,-1,-1,-1,-1,-1,-1,-1,-1,-1,-1,-1,-1,-1,-1,-1,-1,-1,-1,-1,-1,-1,-1,-1,-1,-1,-1,-1,-1,-1,-1],"split_conditions":[1.06E2,9E1,1E0,-3.3333337E-1,2E0,-3.3333325E-1,1E0,7.1E1,1.0568331E2,1E0,1E0,1E0,1E0,3.3333325E-1,3E0,9.004599E1,-6.666666E-1,-7.314406E-2,1E0,0E0,-3.3333325E-1,1.03318E2,1.0568331E2,5.5087475E5,-7.4578285E-2,1.7000658E2,4E0,-3.3333302E-1,2.21E2,2E0,-1.1234515E-1,5.6636005E1,-8.827797E-2,3E0,1E0,-7.407649E-2,1.2043364E2,-1.0221621E-1,1.0568331E2,7.2790675E-2,-9.2207275E-2,4E0,1.0568331E2,-7.313719E-2,-8.616157E-2,-6.666665E-1,9.076022E-2,1E0,1.7631406E2,-7.7928685E-2,8E0,1E0,2E0,1E0,1E0,4.317817E5,1.13E2,-7.31044E-2,-7.744559E-2,-7.289938E-2,-8.485371E-2,8.1E1,-7.8255095E-2,-8.126662E-2,-8.809774E-2,-7.314625E-2,1E0,-7.604917E-2,1E0,1E0,-9.4200745E-2,1.7394875E2,-8.009434E-2,1E0,2.0575973E5,1.75E2,2.44E2,-7.760269E-2,1E0,2.3019054E2,2E0,1.2739816E2,1E0,1.0712878E2,2E0,2E0,7.35363E-2,1E0,-1.3726906E-1,1E0,1E0,7.816171E-2,-8.13136E-2,-7.3970966E-2,-8.56587E-2,2.9938256E-2,7.631157E-2,-7.9644166E-2,-8.8084E-2,7.161577E-2,7.490798E-2,-7.443132E-2,-7.528658E-2,-8.4413715E-2,9.580034E-2,-2.2411395E-2,9.171456E-2,-7.534726E-2,1.1287551E-2,8.4933095E-2,-8.183786E-2,6.560039E-2,-1.0764568E-1,-1.2546943E-1,-1.0467716E-1,-2.1945996E-2,4.3329965E-2,-2.5647065E-2,2.5283411E-2,-9.111997E-2,5.8118977E-2,-1.278424E-1,-1.04561925E-1,-1.2345781E-1,-1.0532581E-1,7.0801586E-2,5.4868724E-2,-1.0634041E-1,-1.3315421E-1,5.7120062E-2,7.146259E-2],"split_indices":[2,2,4,49,35,49,46,2,10,51,42,91,77,49,45,10,49,0,4,47,49,10,10,5,0,10,52,49,2,41,0,10,0,8,34,0,10,0,10,0,0,8,10,0,0,49,0,23,10,0,8,24,41,79,25,5,2,0,0,0,0,2,0,0,0,0,4,0,46,15,0,10,0,13,5,10,2,0,35,10,41,10,23,10,41,41,0,25,0,23,45,0,0,0,0,0,0,0,0,0,0,0,0,0,0,0,0,0,0,0,0,0,0,0,0,0,0,0,0,0,0,0,0,0,0,0,0,0,0,0,0],"split_type":[0,0,0,0,0,0,0,0,0,0,0,0,0,0,0,0,0,0,0,0,0,0,0,0,0,0,0,0,0,0,0,0,0,0,0,0,0,0,0,0,0,0,0,0,0,0,0,0,0,0,0,0,0,0,0,0,0,0,0,0,0,0,0,0,0,0,0,0,0,0,0,0,0,0,0,0,0,0,0,0,0,0,0,0,0,0,0,0,0,0,0,0,0,0,0,0,0,0,0,0,0,0,0,0,0,0,0,0,0,0,0,0,0,0,0,0,0,0,0,0,0,0,0,0,0,0,0,0,0,0,0],"sum_hessian":[9.648141E5,3.2870647E5,6.361076E5,2.9610038E5,3.2606105E4,1.1272849E5,5.2337916E5,7.750405E3,2.8834997E5,1.9662004E4,1.2944101E4,2.300284E4,8.972566E4,3.183409E5,2.0503825E5,5.1628984E3,2.5875063E3,2.8291306E5,5.436891E3,1.8718197E4,9.438077E2,1.1216753E4,1.7273478E3,2.2850764E4,1.5207573E2,8.617129E4,3.5543657E3,2.5083164E5,6.7509266E4,2.049726E5,6.564238E1,4.9228423E3,2.4005634E2,3.739597E2,2.2135466E3,2.095892E3,3.340999E3,1.6619821E2,1.8551998E4,8.9376196E2,5.0045727E1,1.0320732E4,8.9602045E2,1.5511976E3,1.761502E2,2.1844857E4,1.00590576E3,4.7564633E4,3.8606656E4,1.024599E3,2.5297666E3,3.3545824E4,2.1728581E5,6.583767E4,1.6715887E3,1.2366229E5,8.131031E4,4.4800747E3,4.4276752E2,7.667501E1,2.9728467E2,2.0780938E3,1.3545284E2,6.469423E2,2.694057E3,1.6336277E4,2.2157207E3,4.8415686E2,9.836575E3,5.875075E2,3.0851297E2,2.1689084E4,1.5577368E2,4.6092387E4,1.4722455E3,1.2794555E4,2.5812102E4,3.029872E2,2.2267795E3,3.33159E4,2.2992668E2,1.3120645E5,8.607936E4,6.5672086E4,1.6559119E2,6.9429205E2,9.772967E2,1.2361113E5,5.1152805E1,1.3603453E2,8.117428E4,2.012892E3,6.5201775E1,1.986046E3,2.2967473E2,5.773829E3,4.062746E3,4.156639E2,1.7184357E2,1.3387031E4,8.302053E3,2.9132617E4,1.695977E4,3.9646713E2,1.0757783E3,9.18407E3,3.6104849E3,2.3848244E4,1.9638573E3,2.1132776E3,1.1350195E2,3.3186906E4,1.2899135E2,6.40333E1,1.6589339E2,1.5145811E4,1.1606065E5,4.1315797E4,4.4763562E4,1.6814322E2,6.550394E4,5.535578E1,1.1023541E2,1.8638303E2,5.07909E2,1.2264648E5,9.6465985E2,5.566449E1,8.037005E1,3.8999316E4,4.2174965E4],"tree_param":{"num_deleted":"0","num_feature":"95","num_nodes":"131","size_leaf_vector":"1"}},{"base_weights":[1.6742863E-2,-1.3137451E0,6.8306565E-1,1.2433598E-1,-1.372854E0,-7.121033E-1,9.3935096E-1,-1.4408443E0,1.0044477E0,-1.433258E0,-8.2180065E-1,-1.1445187E0,6.03388E-1,6.7102003E-1,1.3342385E0,-7.15159E-2,-8.416336E-2,1.2454065E0,-1.6757749E0,-7.151174E-2,-1.5876839E0,-1.2091739E0,4.452904E-1,-1.4636532E0,-7.464652E-1,1.4823949E0,-3.2953283E-1,3.852721E-1,9.3927646E-1,1.3832507E0,1.2471219E0,1.3180437E0,-1.5737096E0,-7.703814E-2,-1.8697846E0,-7.234445E-2,-1.6740314E0,9.406778E-2,-1.4570085E0,9.230274E-1,-1.6591305E0,-1.4618298E0,-8.270919E-2,2.6720688E-1,-1.3267461E0,1.4375206E0,1.5256531E0,-1.9317445E0,5.6694615E-1,6.2692076E-1,-2.0050617E-1,9.5846015E-1,-2.188057E0,-8.341765E-2,1.3844053E0,1.1164769E0,1.3861202E0,1.3608125E0,-8.277374E-2,-7.256969E-2,-8.6323015E-2,-9.902689E-2,-7.70616E-2,-7.87781E-2,-1.6972806E0,-7.1837835E-2,8.234253E-1,-1.440814E0,-1.5742459E0,1.0906138E0,-7.8611575E-2,-1.5896922E0,-1.808899E0,-7.299017E-2,-1.5412188E0,-3.6310422E-1,1.7577426E0,-7.366139E-2,9.92769E-1,1.3760477E0,7.420957E-2,1.5062385E0,8.175702E-2,-2.1915226E0,-1.5266529E0,1.0370922E0,-1.8923142E0,-5.4940885E-1,7.534892E-1,-1.120283E0,6.754363E-1,9.751319E-1,-1.6257071E0,-2.6303015E0,-2.0705824E0,8.148467E-2,1.3827161E0,-1.9372684E0,1.1358964E0,1.3041705E0,1.4111468E0,-7.2712E-2,7.01218E-2,-7.099697E-2,-8.517642E-2,5.8972687E-2,-7.501361E-2,-7.176714E-2,-7.713289E-2,-7.6404355E-2,-9.296631E-2,-7.509032E-2,5.9912067E-2,-8.1505165E-2,-7.123765E-2,-8.623036E-2,-1.0109158E-1,-8.639213E-2,-7.282465E-2,7.6544546E-2,-5.21122E-2,-7.710951E-2,1.19909905E-1,7.93741E-2,-7.5859495E-2,7.262611E-2,6.16418E-2,7.629829E-2,7.0249945E-2,-9.406119E-2,-1.2128675E-1,-7.48249E-2,-1.0082626E-1,-1.0145091E-1,6.362488E-2,-1.0755559E-1,-7.553918E-2,-5.3664185E-2,7.471794E-2,-2.2717139E-2,4.254606E-2,-7.389364E-2,1.1927763E-2,4.136101E-2,-1.0465832E-1,5.1579576E-2,2.6933897E-2,-7.358384E-2,-8.44487E-2,-1.14443146E-1,-1.362559E-1,-8.682219E-2,-1.1400396E-1,6.953512E-2,6.682073E-2,-8.582369E-2,-1.2823507E-1,5.980807E-2,1.4184828E-2,6.73979E-2,-1.2165662E-1,6.99482E-2,7.200236E-2],"categories":[],"categories_nodes":[],"categories_segments":[],"categories_sizes":[],"default_left":[0,0,0,0,0,0,0,0,0,0,0,0,0,0,0,0,0,0,0,0,0,0,0,0,0,0,0,0,0,0,0,0,0,0,0,0,0,0,0,0,0,0,0,0,0,0,0,0,0,0,0,0,0,0,0,0,0,0,0,0,0,0,0,0,0,0,0,0,0,0,0,0,0,0,0,0,0,0,0,0,0,0,0,0,0,0,0,0,0,0,0,0,0,0,0,0,0,0,0,0,0,0,0,0,0,0,0,0,0,0,0,0,0,0,0,0,0,0,0,0,0,0,0,0,0,0,0,0,0,0,0,0,0,0,0,0,0,0,0,0,0,0,0,0,0,0,0,0,0,0,0,0,0,0,0,0,0,0,0,0,0,0,0],"id":10,"left_children":[1,3,5,7,9,11,13,15,17,19,21,23,25,27,29,-1,-1,31,33,-1,35,37,39,41,43,45,47,49,51,53,55,57,59,-1,61,-1,63,65,67,69,71,73,-1,75,77,79,81,83,85,87,89,91,93,-1,95,97,99,101,-1,-1,-1,-1,-1,-1,103,-1,105,107,109,111,-1,113,115,-1,117,119,121,-1,123,125,-1,127,-1,129,131,133,135,137,139,141,143,145,147,149,151,-1,153,155,157,159,161,-1,-1,-1,-1,-1,-1,-1,-1,-1,-1,-1,-1,-1,-1,-1,-1,-1,-1,-1,-1,-1,-1,-1,-1,-1,-1,-1,-1,-1,-1,-1,-1,-1,-1,-1,-1,-1,-1,-1,-1,-1,-1,-1,-1,-1,-1,-1,-1,-1,-1,-1,-1,-1,-1,-1,-1,-1,-1,-1,-1,-1,-1],"loss_changes":[8.6099275E5,2.7548062E4,2.3138206E5,1.7627564E4,1.03600625E4,5.7125766E4,5.7926125E4,9.033203E0,5.2918057E3,1.284375E2,1.5095557E4,9.599859E3,2.0374197E4,2.4950719E4,9.4240625E2,0E0,0E0,1.5410625E3,1.4485352E1,0E0,6.263672E1,7.6076875E3,7.241282E3,1.184375E1,1.9784459E4,2.2339844E1,1.7314115E4,2.2311115E4,1.0074375E4,5.0090625E2,1.4445391E3,9.340918E2,7.1154785E-1,0E0,6.5080566E0,0E0,4.6132812E0,4.203993E3,3.5003906E1,2.4561587E3,1.0643799E1,4.1328125E0,0E0,1.1505223E4,7.269008E3,1.5739258E1,1.1030273E1,4.5139746E2,8.93895E3,1.6613883E4,3.7087582E4,7.190625E3,4.727588E1,0E0,5.603125E1,2.437207E3,7.702344E1,8.485088E2,0E0,0E0,0E0,0E0,0E0,0E0,1.9072266E0,0E0,2.1115415E3,7.1914062E0,2.8274902E1,1.5365776E3,0E0,3.4987793E0,3.5769043E0,0E0,1.3217529E1,1.1072341E4,7.6956924E3,0E0,1.8998185E3,2.7864746E1,0E0,8.610352E0,0E0,1.863291E2,2.1643555E1,4.6866763E3,1.1890576E2,1.1608016E4,1.18563125E4,1.0911352E4,9.909969E3,4.0849062E3,7.6254883E0,9.25293E-2,5.2609863E1,0E0,4.984375E1,3.1162354E1,2.095082E3,1.4826777E3,8.105469E0,0E0,0E0,0E0,0E0,0E0,0E0,0E0,0E0,0E0,0E0,0E0,0E0,0E0,0E0,0E0,0E0,0E0,0E0,0E0,0E0,0E0,0E0,0E0,0E0,0E0,0E0,0E0,0E0,0E0,0E0,0E0,0E0,0E0,0E0,0E0,0E0,0E0,0E0,0E0,0E0,0E0,0E0,0E0,0E0,0E0,0E0,0E0,0E0,0E0,0E0,0E0,0E0,0E0,0E0,0E0,0E0,0E0,0E0,0E0,0E0,0E0,0E0],"parents":[2147483647,0,0,1,1,2,2,3,3,4,4,5,5,6,6,7,7,8,8,9,9,10,10,11,11,12,12,13,13,14,14,17,17,18,18,20,20,21,21,22,22,23,23,24,24,25,25,26,26,27,27,28,28,29,29,30,30,31,31,32,32,34,34,36,36,37,37,38,38,39,39,40,40,41,41,43,43,44,44,45,45,46,46,47,47,48,48,49,49,50,50,51,51,52,52,54,54,55,55,56,56,57,57,64,64,66,66,67,67,68,68,69,69,71,71,72,72,74,74,75,75,76,76,78,78,79,79,81,81,83,83,84,84,85,85,86,86,87,87,88,88,89,89,90,90,91,91,92,92,93,93,94,94,96,96,97,97,98,98,99,99,100,100],"right_children":[2,4,6,8,10,12,14,16,18,20,22,24,26,28,30,-1,-1,32,34,-1,36,38,40,42,44,46,48,50,52,54,56,58,60,-1,62,-1,64,66,68,70,72,74,-1,76,78,80,82,84,86,88,90,92,94,-1,96,98,100,102,-1,-1,-1,-1,-1,-1,104,-1,106,108,110,112,-1,114,116,-1,118,120,122,-1,124,126,-1,128,-1,130,132,134,136,138,140,142,144,146,148,150,152,-1,154,156,158,160,162,-1,-1,-1,-1,-1,-1,-1,-1,-1,-1,-1,-1,-1,-1,-1,-1,-1,-1,-1,-1,-1,-1,-1,-1,-1,-1,-1,-1,-1,-1,-1,-1,-1,-1,-1,-1,-1,-1,-1,-1,-1,-1,-1,-1,-1,-1,-1,-1,-1,-1,-1,-1,-1,-1,-1,-1,-1,-1,-1,-1,-1,-1],"split_conditions":[1.07E2,-3.3333337E-1,1E0,5.7E1,9E1,1E0,1E0,9.004599E1,4.6E1,1.0568331E2,2E0,1.7000658E2,1E0,1E0,2E0,-7.15159E-2,-8.416336E-2,2.0833333E-1,9.004599E1,-7.151174E-2,1E0,3.6E1,9.9671486E1,1E0,1.7631406E2,1.3907097E5,4E0,2E0,7.3E1,1.03318E2,1E0,1.1E1,9.004599E1,-7.703814E-2,1E0,-7.234445E-2,1.2043364E2,1E0,1.3333334E0,1E0,1.0568331E2,1E0,-8.270919E-2,1.75E2,1E0,7.9E1,2.29E2,2E0,4.8E1,1E0,1E0,4E0,2E0,-8.341765E-2,1.04500656E2,2.5E0,1E0,3E0,-8.277374E-2,-7.256969E-2,-8.6323015E-2,-9.902689E-2,-7.70616E-2,-7.87781E-2,2.3E1,-7.1837835E-2,1.1454525E5,1.06E2,1.0568331E2,4E0,-7.8611575E-2,1E0,1E0,-7.299017E-2,4.4E1,4E1,1E0,-7.366139E-2,6.886776E4,4E1,7.420957E-2,1.8308048E5,8.175702E-2,1E0,1E0,1.5124835E2,2E0,2.42E2,1.2043364E2,1E0,1.9353095E5,2.07E2,1E0,1.3462549E2,1E0,8.148467E-2,1E0,1E0,5.8E1,1E0,2.9166666E-1,-7.2712E-2,7.01218E-2,-7.099697E-2,-8.517642E-2,5.8972687E-2,-7.501361E-2,-7.176714E-2,-7.713289E-2,-7.6404355E-2,-9.296631E-2,-7.509032E-2,5.9912067E-2,-8.1505165E-2,-7.123765E-2,-8.623036E-2,-1.0109158E-1,-8.639213E-2,-7.282465E-2,7.6544546E-2,-5.21122E-2,-7.710951E-2,1.19909905E-1,7.93741E-2,-7.5859495E-2,7.262611E-2,6.16418E-2,7.629829E-2,7.0249945E-2,-9.406119E-2,-1.2128675E-1,-7.48249E-2,-1.0082626E-1,-1.0145091E-1,6.362488E-2,-1.0755559E-1,-7.553918E-2,-5.3664185E-2,7.471794E-2,-2.2717139E-2,4.254606E-2,-7.389364E-2,1.1927763E-2,4.136101E-2,-1.0465832E-1,5.1579576E-2,2.6933897E-2,-7.358384E-2,-8.44487E-2,-1.14443146E-1,-1.362559E-1,-8.682219E-2,-1.1400396E-1,6.953512E-2,6.682073E-2,-8.582369E-2,-1.2823507E-1,5.980807E-2,1.4184828E-2,6.73979E-2,-1.2165662E-1,6.99482E-2,7.200236E-2],"split_indices":[2,49,90,2,2,4,46,10,0,10,41,10,48,38,41,0,0,36,10,0,4,0,10,23,10,5,52,41,0,10,45,8,10,0,42,0,10,90,48,63,10,77,0,10,77,0,2,41,0,4,23,41,41,0,10,48,13,8,0,0,0,0,0,0,0,0,5,2,10,8,0,42,15,0,0,0,13,0,5,0,0,5,0,13,19,10,41,2,10,19,5,2,13,10,23,0,15,23,0,65,36,0,0,0,0,0,0,0,0,0,0,0,0,0,0,0,0,0,0,0,0,0,0,0,0,0,0,0,0,0,0,0,0,0,0,0,0,0,0,0,0,0,0,0,0,0,0,0,0,0,0,0,0,0,0,0,0,0,0,0,0,0,0],"split_type":[0,0,0,0,0,0,0,0,0,0,0,0,0,0,0,0,0,0,0,0,0,0,0,0,0,0,0,0,0,0,0,0,0,0,0,0,0,0,0,0,0,0,0,0,0,0,0,0,0,0,0,0,0,0,0,0,0,0,0,0,0,0,0,0,0,0,0,0,0,0,0,0,0,0,0,0,0,0,0,0,0,0,0,0,0,0,0,0,0,0,0,0,0,0,0,0,0,0,0,0,0,0,0,0,0,0,0,0,0,0,0,0,0,0,0,0,0,0,0,0,0,0,0,0,0,0,0,0,0,0,0,0,0,0,0,0,0,0,0,0,0,0,0,0,0,0,0,0,0,0,0,0,0,0,0,0,0,0,0,0,0,0,0],"sum_hessian":[9.711872E5,3.2407847E5,6.471087E5,1.2794449E4,3.1128403E5,1.0042293E5,5.4668575E5,4.6047197E3,8.1897295E3,2.8053156E5,3.0752459E4,7.5579414E4,2.4843518E4,3.2550447E5,2.2118131E5,4.4201064E3,1.846133E2,7.514711E3,6.7501855E2,2.7515547E5,5.376092E3,2.355223E4,7.2002285E3,4.194644E4,3.3632977E4,1.279112E4,1.2052396E4,1.5761502E5,1.6788945E5,1.4153628E5,7.964504E4,7.3265044E3,1.882067E2,4.036051E2,2.7141348E2,2.0508943E3,3.3251975E3,3.7632651E3,1.9788967E4,5.868577E3,1.3316514E3,4.155792E4,3.8851788E2,1.2244268E4,2.1388707E4,6.29622E3,6.4949004E3,4.323779E3,7.7286177E3,1.1158388E5,4.6031133E4,1.6686658E5,1.0228694E3,5.2948563E1,1.4148333E5,4.106121E4,3.8583832E4,7.2231875E3,1.0331678E2,1.1071083E2,7.749586E1,1.9899944E2,7.241404E1,6.490975E2,2.6761E3,1.2140431E3,2.549222E3,1.7399635E4,2.3893323E3,5.4998022E3,3.6877463E2,9.1821484E2,4.1343652E2,4.054371E4,1.01421014E3,8.605782E3,3.6384854E3,2.011859E4,1.2701172E3,2.7312974E3,3.5649226E3,5.529973E3,9.6492725E2,2.6315525E3,1.6922262E3,6.488757E3,1.2398611E3,1.0839281E4,1.007446E5,2.2453666E4,2.3577469E4,1.657976E5,1.0689834E3,2.1001318E2,8.128562E2,9.6063605E2,1.405227E5,2.58812E2,4.08024E4,9.039842E3,2.9543988E4,1.0471671E2,7.1184707E3,6.433857E1,2.6117615E3,2.2109968E3,3.382253E2,1.6527783E4,8.718498E2,2.0621494E3,3.271828E2,2.1867596E2,5.2811265E3,7.29897E2,1.8831783E2,3.0304245E2,1.1039408E2,3.1025156E2,7.0395856E2,2.270995E3,6.3347876E3,5.9113116E2,3.0473542E3,1.0271503E3,2.4296693E2,1.7740981E3,9.5719916E2,4.61554E3,9.144328E2,1.1359867E3,1.4955658E3,1.5981108E3,9.411531E1,4.620891E2,6.0266675E3,7.3583405E2,5.0402704E2,8.628165E3,2.2111162E3,7.5197715E3,9.322483E4,1.77758E4,4.677865E3,2.2352754E4,1.224714E3,1.4680528E5,1.899231E4,3.187624E2,7.50221E2,5.133776E1,1.5867543E2,3.1700778E2,4.958484E2,1.1982357E5,2.0699129E4,1.9432416E2,6.448785E1,3.8107066E4,2.695332E3,8.9358125E3,1.0402873E2,2.0820248E4,8.72374E3],"tree_param":{"num_deleted":"0","num_feature":"95","num_nodes":"163","size_leaf_vector":"1"}},{"base_weights":[1.2203619E-2,-1.2721591E0,6.56851E-1,2.4925093E-1,-1.3403815E0,8.4859604E-1,-1.4836067E0,-1.4103593E0,1.0603222E0,-1.3864652E0,-7.4447984E-1,-4.3347052E-1,1.0822605E0,-1.4585308E0,-1.5701401E0,-7.0029095E-2,-8.143165E-2,1.164873E0,-1.6435821E0,-1.3957093E0,-6.856378E-1,-1.2286952E0,5.324247E-1,-9.4878584E-1,1.3756204E0,9.1961104E-1,1.329388E0,-7.0923656E-2,-1.4857553E0,-1.5545119E0,-8.2976304E-2,1.2344308E0,-1.5143136E0,-7.661279E-2,-9.466678E-2,-5.022124E-1,-1.4042715E0,-1.4226601E0,1.3314517E0,-1.4178245E0,1.082564E-2,-1.5783384E0,1.085597E0,-1.0161381E0,1.469909E0,1.3851296E0,-1.084641E-1,9.318697E-1,-7.419307E-2,-7.798119E-2,1.3302795E0,-1.6125127E0,-1.4575889E0,-1.5660787E0,-7.2322406E-2,1.2791486E0,-1.5959206E0,-7.0391946E-2,-8.22859E-2,-7.056462E-2,1.2065474E0,-1.4013461E0,-1.5064656E0,-7.0179336E-2,-1.6498526E0,7.618513E-2,-9.031426E-2,-7.018592E-2,-8.177637E-2,-7.067946E-2,1.3629812E0,-1.5295036E0,-1.7737669E0,1.2919446E0,-1.7888447E0,-1.0926361E0,5.1579416E-1,7.825123E-2,6.868494E-2,1.3756537E0,7.8648046E-2,9.815031E-1,4.109544E-1,1.3584028E0,1.2449583E0,-1.6226114E0,-7.708492E-2,-7.187688E-2,-1.4910097E0,-1.5065306E0,-7.953997E-2,-7.222684E-2,6.610065E-2,-7.2189644E-2,-8.9720264E-2,-6.965267E-2,7.080853E-2,-7.001435E-2,-7.079982E-2,-7.0836544E-2,-8.19748E-2,-7.147036E-2,-8.582868E-2,-6.94394E-2,7.994188E-2,-7.845007E-2,-7.032397E-2,-8.401056E-2,-9.819727E-2,-8.473183E-2,7.146934E-2,-9.304732E-2,-7.250696E-2,-5.7008147E-2,4.13715E-2,7.371416E-2,-7.359825E-2,6.9292836E-2,-9.2638314E-2,5.283329E-2,3.5110634E-2,7.220906E-2,4.9510975E-3,6.6699855E-2,6.976806E-2,6.2581204E-2,-1.4117554E-1,-8.219164E-2,-7.836394E-2,-7.3971756E-2,-7.859111E-2,-7.279455E-2,-7.839247E-2],"categories":[],"categories_nodes":[],"categories_segments":[],"categories_sizes":[],"default_left":[0,0,0,0,0,0,0,0,0,0,0,0,0,0,0,0,0,0,0,0,0,0,0,0,0,0,0,0,0,0,0,0,0,0,0,0,0,0,0,0,0,0,0,0,0,0,0,0,0,0,0,0,0,0,0,0,0,0,0,0,0,0,0,0,0,0,0,0,0,0,0,0,0,0,0,0,0,0,0,0,0,0,0,0,0,0,0,0,0,0,0,0,0,0,0,0,0,0,0,0,0,0,0,0,0,0,0,0,0,0,0,0,0,0,0,0,0,0,0,0,0,0,0,0,0,0,0,0,0,0,0,0,0],"id":11,"left_children":[1,3,5,7,9,11,13,15,17,19,21,23,25,27,29,-1,-1,31,33,35,37,39,41,43,45,47,49,-1,51,53,-1,55,57,-1,-1,59,61,63,65,67,69,71,73,75,77,79,-1,81,-1,-1,83,85,87,89,-1,91,93,-1,-1,-1,95,97,99,-1,101,-1,-1,-1,-1,-1,103,105,107,109,111,113,115,-1,-1,117,-1,119,121,123,125,127,-1,-1,129,131,-1,-1,-1,-1,-1,-1,-1,-1,-1,-1,-1,-1,-1,-1,-1,-1,-1,-1,-1,-1,-1,-1,-1,-1,-1,-1,-1,-1,-1,-1,-1,-1,-1,-1,-1,-1,-1,-1,-1,-1,-1,-1,-1],"loss_changes":[7.828278E5,3.279622E4,2.5837019E5,1.825574E4,8.30325E3,1.7308325E5,1.0971094E2,6.916992E0,2.5772197E3,1.8174375E3,1.342404E4,8.303558E4,1.964175E4,4.1382812E1,1.3322266E1,0E0,0E0,1.6364805E3,6.196472E0,2.118625E3,5.437629E3,3.6904004E3,6.9720864E3,1.1294457E4,6.685742E2,8.6849375E3,5.0165625E2,0E0,8.259766E1,9.8125E0,0E0,1.084169E3,4.890747E-1,0E0,0E0,4.0892395E3,7.95625E1,8.985352E0,5.9326306E2,3.9339844E1,4.0173389E3,8.791016E0,2.8082495E3,7.9045234E3,1.4746582E1,3.259375E1,0E0,7.5808906E3,0E0,0E0,4.6334375E2,2.7929688E-1,1.0660156E1,1.0441406E1,0E0,9.846572E2,1.1133118E0,0E0,0E0,0E0,5.001931E2,1.875E0,8.836719E1,0E0,1.930542E-1,0E0,0E0,0E0,0E0,0E0,6.967479E2,2.3537598E0,6.279907E-1,1.814481E3,4.7178955E0,5.863E3,6.114891E3,0E0,0E0,6.203633E2,0E0,5.6191406E3,8.221743E3,1.29375E2,1.3073906E3,1.5292969E0,0E0,0E0,4.1992188E0,5.6137695E0,0E0,0E0,0E0,0E0,0E0,0E0,0E0,0E0,0E0,0E0,0E0,0E0,0E0,0E0,0E0,0E0,0E0,0E0,0E0,0E0,0E0,0E0,0E0,0E0,0E0,0E0,0E0,0E0,0E0,0E0,0E0,0E0,0E0,0E0,0E0,0E0,0E0,0E0,0E0,0E0,0E0,0E0,0E0],"parents":[2147483647,0,0,1,1,2,2,3,3,4,4,5,5,6,6,7,7,8,8,9,9,10,10,11,11,12,12,13,13,14,14,17,17,18,18,19,19,20,20,21,21,22,22,23,23,24,24,25,25,26,26,28,28,29,29,31,31,32,32,35,35,36,36,37,37,38,38,39,39,40,40,41,41,42,42,43,43,44,44,45,45,47,47,50,50,51,51,52,52,53,53,55,55,56,56,60,60,61,61,62,62,64,64,70,70,71,71,72,72,73,73,74,74,75,75,76,76,79,79,81,81,82,82,83,83,84,84,85,85,88,88,89,89],"right_children":[2,4,6,8,10,12,14,16,18,20,22,24,26,28,30,-1,-1,32,34,36,38,40,42,44,46,48,50,-1,52,54,-1,56,58,-1,-1,60,62,64,66,68,70,72,74,76,78,80,-1,82,-1,-1,84,86,88,90,-1,92,94,-1,-1,-1,96,98,100,-1,102,-1,-1,-1,-1,-1,104,106,108,110,112,114,116,-1,-1,118,-1,120,122,124,126,128,-1,-1,130,132,-1,-1,-1,-1,-1,-1,-1,-1,-1,-1,-1,-1,-1,-1,-1,-1,-1,-1,-1,-1,-1,-1,-1,-1,-1,-1,-1,-1,-1,-1,-1,-1,-1,-1,-1,-1,-1,-1,-1,-1,-1,-1,-1],"split_conditions":[1.07E2,-3.3333337E-1,1E0,5.7E1,3E0,1E0,3.3333333E0,9.004599E1,1E0,1E0,9E1,1E0,1E0,1E0,1E0,-7.0029095E-2,-8.143165E-2,5E0,9.004599E1,-3.3333325E-1,9.9E1,1E0,1E0,1E0,1.936268E2,1E0,1.03318E2,-7.0923656E-2,1E0,4E0,-8.2976304E-2,1.1E1,9.004599E1,-7.661279E-2,-9.466678E-2,1E0,1.0568331E2,8.919186E1,9.9671486E1,1.0568331E2,6.666666E-1,1.0568331E2,5E0,2.42E2,3.914628E4,3.333335E-1,-1.084641E-1,2.006E3,-7.419307E-2,-7.798119E-2,1E0,2E0,2.3333333E0,1E0,-7.2322406E-2,3E0,8.919186E1,-7.0391946E-2,-8.22859E-2,-7.056462E-2,9.3E1,9E1,1E0,-7.0179336E-2,7E0,7.618513E-2,-9.031426E-2,-7.018592E-2,-8.177637E-2,-7.067946E-2,5.6E1,1E0,1.06E2,6.123234E-17,1E0,1E0,1E0,7.825123E-2,6.868494E-2,-6.666665E-1,7.8648046E-2,1.93E2,-3.3333302E-1,1E0,2.4004599E2,1E0,-7.708492E-2,-7.187688E-2,3E0,3E0,-7.953997E-2,-7.222684E-2,6.610065E-2,-7.2189644E-2,-8.9720264E-2,-6.965267E-2,7.080853E-2,-7.001435E-2,-7.079982E-2,-7.0836544E-2,-8.19748E-2,-7.147036E-2,-8.582868E-2,-6.94394E-2,7.994188E-2,-7.845007E-2,-7.032397E-2,-8.401056E-2,-9.819727E-2,-8.473183E-2,7.146934E-2,-9.304732E-2,-7.250696E-2,-5.7008147E-2,4.13715E-2,7.371416E-2,-7.359825E-2,6.9292836E-2,-9.2638314E-2,5.283329E-2,3.5110634E-2,7.220906E-2,4.9510975E-3,6.6699855E-2,6.976806E-2,6.2581204E-2,-1.4117554E-1,-8.219164E-2,-7.836394E-2,-7.3971756E-2,-7.859111E-2,-7.279455E-2,-7.839247E-2],"split_indices":[2,49,18,2,48,4,48,10,19,46,2,46,46,4,46,0,0,35,10,49,2,75,65,15,10,16,10,0,13,41,0,8,10,0,0,51,10,10,10,10,49,10,35,2,5,49,0,9,0,0,15,41,48,38,0,8,10,0,0,0,2,2,4,0,2,0,0,0,0,0,2,22,2,55,22,23,91,0,0,49,0,2,49,45,10,91,0,0,41,41,0,0,0,0,0,0,0,0,0,0,0,0,0,0,0,0,0,0,0,0,0,0,0,0,0,0,0,0,0,0,0,0,0,0,0,0,0,0,0,0,0,0,0],"split_type":[0,0,0,0,0,0,0,0,0,0,0,0,0,0,0,0,0,0,0,0,0,0,0,0,0,0,0,0,0,0,0,0,0,0,0,0,0,0,0,0,0,0,0,0,0,0,0,0,0,0,0,0,0,0,0,0,0,0,0,0,0,0,0,0,0,0,0,0,0,0,0,0,0,0,0,0,0,0,0,0,0,0,0,0,0,0,0,0,0,0,0,0,0,0,0,0,0,0,0,0,0,0,0,0,0,0,0,0,0,0,0,0,0,0,0,0,0,0,0,0,0,0,0,0,0,0,0,0,0,0,0,0,0],"sum_hessian":[9.454868E5,3.159677E5,6.2951906E5,1.3560244E4,3.0240744E5,5.7776294E5,5.175612E4,4.4512515E3,9.108993E3,2.806983E5,2.1709152E4,8.906751E4,4.8869547E5,4.014251E4,1.1613609E4,4.267945E3,1.8330699E2,8.770475E3,3.3851834E2,2.770429E5,3.6553833E3,1.5740361E4,5.9687905E3,6.932187E4,1.974564E4,2.9472456E5,1.939709E5,1.62658955E4,2.3876615E4,9.901871E3,1.7117383E3,8.549097E3,2.2137746E2,2.3936021E2,9.915813E1,2.6303364E3,2.7441256E5,2.6774255E3,9.7795764E2,1.3656546E4,2.083815E3,1.2390109E3,4.72978E3,6.74444E4,1.8774706E3,1.9693451E4,5.219053E1,2.9322962E5,1.4949308E3,5.9261547E1,1.9391164E5,4.330082E3,1.9546533E4,8.931457E3,9.704133E2,8.416702E3,1.323953E2,1.2918001E2,9.219746E1,1.7170686E3,9.1326776E2,2.66791E5,7.621593E3,2.477086E3,2.0033968E2,9.220117E2,5.59459E1,1.2832949E4,8.2359705E2,1.014734E3,1.0690809E3,9.987702E2,2.4024065E2,4.413531E3,3.1624893E2,6.423703E4,3.2073645E3,9.359056E2,9.4156494E2,1.875608E4,9.3737036E2,2.6771988E5,2.5509762E4,1.4582808E5,4.8083562E4,3.7692341E3,5.608478E2,1.2246238E4,7.3002954E3,2.6394497E3,6.292008E3,1.2986406E2,8.286838E3,7.991934E1,5.2475956E1,6.769084E1,8.4557697E2,2.489016E5,1.7889395E4,4.558852E3,3.0627405E3,5.2105606E1,1.4823407E2,8.397862E1,9.851023E2,7.465265E2,2.522437E2,1.6797044E2,7.22702E1,1.9364378E2,4.219887E3,2.5679443E2,5.9454494E1,6.2685844E4,1.5511881E3,2.164136E3,1.0432285E3,1.8697592E4,5.8488934E1,2.1094675E5,5.6773105E4,5.914608E3,1.9595152E4,8.7853234E4,5.797485E4,4.800563E4,7.7934586E1,2.7023198E3,1.0669142E3,6.403656E3,8.966395E2,1.460051E3,1.1793987E3],"tree_param":{"num_deleted":"0","num_feature":"95","num_nodes":"133","size_leaf_vector":"1"}},{"base_weights":[2.110531E-2,-1.2579575E0,6.2309235E-1,6.469262E-2,-1.3095039E0,8.030575E-1,-1.4489166E0,-6.875231E-2,9.164402E-1,-1.363436E0,-7.6791894E-1,-4.4587666E-1,1.0356975E0,-1.4261253E0,-1.5270431E0,1.158564E0,-1.5942707E0,-6.8712376E-2,-7.5188076E-1,-1.2440429E0,1.2425473E-1,-9.101528E-1,1.3578986E0,8.5444176E-1,1.2995028E0,-6.949432E-2,-1.4506305E0,-1.5129117E0,-8.0349736E-2,1.2263017E0,-7.263879E-2,-7.4937284E-2,-1.759742E0,-6.881859E-2,8.8948625E-1,9.225187E-1,-6.8835415E-2,8.116457E-1,-7.094878E-1,-9.7067404E-1,1.4124296E0,1.2961234E0,1.3991426E0,-1.4790024E0,8.706084E-1,1.3005885E0,-1.3224985E-1,-1.5646036E0,-1.4251292E0,-1.5232036E0,-7.075624E-2,-8.271303E-2,1.2675805E0,-9.4463125E-2,-6.8454236E-2,-6.843149E-2,7.518338E-2,6.6779785E-2,-7.628096E-2,1.0370408E0,-1.5473696E0,-1.4931055E0,7.9227135E-2,-1.0444022E0,5.816533E-1,7.61013E-2,6.5152854E-2,1.3488228E0,1.1980925E0,1.2687565E0,1.4217068E0,-7.23261E-2,-7.950346E-2,1.2874049E0,8.132071E-1,-9.9037275E-2,1.3014433E0,-7.413607E-2,-1.572275E0,-7.034761E-2,-1.4552636E0,-1.4697211E0,-1.5453402E0,4.429544E-2,7.477462E-2,5.7344604E-2,-7.9188555E-2,-7.948468E-2,-6.855858E-2,-7.802539E-2,-6.926701E-2,-6.6009305E-2,-3.3445E-2,6.515412E-2,-7.072738E-2,6.337528E-2,6.825589E-2,4.2049088E-2,6.982397E-2,6.8402894E-2,5.8658727E-2,6.644636E-2,7.203266E-2,6.491798E-2,-1.2995766E-1,-1.7600934E-3,4.3493338E-2,6.641482E-2,6.147889E-2,-7.9113685E-2,-7.502087E-2,-7.4034505E-2,-7.099113E-2,-7.11882E-2,-7.6227404E-2,-7.7547535E-2,-7.1276985E-2],"categories":[],"categories_nodes":[],"categories_segments":[],"categories_sizes":[],"default_left":[0,0,0,0,0,0,0,0,0,0,0,0,0,0,0,0,0,0,0,0,0,0,0,0,0,0,0,0,0,0,0,0,0,0,0,0,0,0,0,0,0,0,0,0,0,0,0,0,0,0,0,0,0,0,0,0,0,0,0,0,0,0,0,0,0,0,0,0,0,0,0,0,0,0,0,0,0,0,0,0,0,0,0,0,0,0,0,0,0,0,0,0,0,0,0,0,0,0,0,0,0,0,0,0,0,0,0,0,0,0,0,0,0,0,0,0,0],"id":12,"left_children":[1,3,5,7,9,11,13,-1,15,17,19,21,23,25,27,29,31,-1,33,35,37,39,41,43,45,-1,47,49,-1,51,-1,-1,53,-1,55,57,-1,59,61,63,65,67,69,71,73,75,-1,77,79,81,-1,-1,83,-1,-1,-1,-1,-1,-1,85,87,89,-1,91,93,-1,-1,95,97,99,101,-1,-1,103,105,-1,107,-1,109,-1,111,113,115,-1,-1,-1,-1,-1,-1,-1,-1,-1,-1,-1,-1,-1,-1,-1,-1,-1,-1,-1,-1,-1,-1,-1,-1,-1,-1,-1,-1,-1,-1,-1,-1,-1,-1],"loss_changes":[7.1635694E5,2.0299562E4,2.358979E5,1.3697897E4,8.369125E3,1.6912038E5,8.755469E1,0E0,4.268202E3,1.7219062E3,1.1025735E4,7.6542086E4,2.3460562E4,3.2476562E1,1.0138672E1,1.1341045E3,6.800171E0,0E0,4.6443267E3,4.8657188E3,5.1771685E3,1.0218902E4,4.558203E1,1.0972906E4,8.59E2,0E0,6.528516E1,7.3203125E0,0E0,7.4406445E2,0E0,0E0,8.216248E0,0E0,1.7342954E3,9.900949E2,0E0,2.63421E3,7.3406826E3,8.108711E3,1.986621E1,3.6901367E1,3.0894531E1,4.616699E0,6.9091562E3,5.6284375E2,0E0,3.7109375E-2,8.1171875E0,7.810547E0,0E0,0E0,5.336465E2,0E0,0E0,0E0,0E0,0E0,0E0,1.3031099E3,7.471924E-1,1.9649902E1,0E0,7.0026953E3,4.62857E3,0E0,0E0,4.4628906E0,1.8518018E2,1.3925781E1,1.4583984E1,0E0,0E0,1.4917891E3,1.220425E4,0E0,3.8359375E2,0E0,9.9609375E-2,0E0,4.0498047E0,4.057617E0,1.6464844E0,0E0,0E0,0E0,0E0,0E0,0E0,0E0,0E0,0E0,0E0,0E0,0E0,0E0,0E0,0E0,0E0,0E0,0E0,0E0,0E0,0E0,0E0,0E0,0E0,0E0,0E0,0E0,0E0,0E0,0E0,0E0,0E0,0E0,0E0],"parents":[2147483647,0,0,1,1,2,2,3,3,4,4,5,5,6,6,8,8,9,9,10,10,11,11,12,12,13,13,14,14,15,15,16,16,18,18,19,19,20,20,21,21,22,22,23,23,24,24,26,26,27,27,29,29,32,32,34,34,35,35,37,37,38,38,39,39,40,40,41,41,42,42,43,43,44,44,45,45,47,47,48,48,49,49,52,52,59,59,60,60,61,61,63,63,64,64,67,67,68,68,69,69,70,70,73,73,74,74,76,76,78,78,80,80,81,81,82,82],"right_children":[2,4,6,8,10,12,14,-1,16,18,20,22,24,26,28,30,32,-1,34,36,38,40,42,44,46,-1,48,50,-1,52,-1,-1,54,-1,56,58,-1,60,62,64,66,68,70,72,74,76,-1,78,80,82,-1,-1,84,-1,-1,-1,-1,-1,-1,86,88,90,-1,92,94,-1,-1,96,98,100,102,-1,-1,104,106,-1,108,-1,110,-1,112,114,116,-1,-1,-1,-1,-1,-1,-1,-1,-1,-1,-1,-1,-1,-1,-1,-1,-1,-1,-1,-1,-1,-1,-1,-1,-1,-1,-1,-1,-1,-1,-1,-1,-1,-1],"split_conditions":[1.0568331E2,-3.3333337E-1,1E0,5.719448E1,9.004599E1,1E0,3.3333333E0,-6.875231E-2,4.6E1,6.6666675E-1,2E0,1E0,1E0,1E0,1E0,5E0,8.919186E1,-6.8712376E-2,1E0,-3.3333325E-1,4.1E1,1E0,1.6796977E2,2.3E1,6.66667E-1,-6.949432E-2,1E0,4E0,-8.0349736E-2,1E0,-7.263879E-2,-7.4937284E-2,1E0,-6.881859E-2,5.5946125E1,3.6E1,-6.8835415E-2,4E0,1E0,1E0,3.914628E4,-6.66667E-1,3E0,1E0,-3.3333302E-1,2.4E1,-1.3224985E-1,1.2739816E2,2.3333333E0,1E0,-7.075624E-2,-8.271303E-2,1.7036406E5,-9.4463125E-2,-6.8454236E-2,-6.843149E-2,7.518338E-2,6.6779785E-2,-7.628096E-2,5E0,1E0,1E0,7.9227135E-2,1.7263469E2,4.4E1,7.61013E-2,6.5152854E-2,1E0,1E0,3.8E1,4.7E1,-7.23261E-2,-7.950346E-2,7.1E1,1.2043364E2,-9.9037275E-2,1E0,-7.413607E-2,2E0,-7.034761E-2,1E0,3E0,6.9E1,4.429544E-2,7.477462E-2,5.7344604E-2,-7.9188555E-2,-7.948468E-2,-6.855858E-2,-7.802539E-2,-6.926701E-2,-6.6009305E-2,-3.3445E-2,6.515412E-2,-7.072738E-2,6.337528E-2,6.825589E-2,4.2049088E-2,6.982397E-2,6.8402894E-2,5.8658727E-2,6.644636E-2,7.203266E-2,6.491798E-2,-1.2995766E-1,-1.7600934E-3,4.3493338E-2,6.641482E-2,6.147889E-2,-7.9113685E-2,-7.502087E-2,-7.4034505E-2,-7.099113E-2,-7.11882E-2,-7.6227404E-2,-7.7547535E-2,-7.1276985E-2],"split_indices":[10,49,18,10,10,4,48,0,0,49,48,46,46,4,46,35,10,0,75,49,0,15,10,0,49,0,13,41,0,41,0,0,42,0,10,0,0,52,76,77,5,49,52,23,49,0,0,10,48,38,0,0,5,0,0,0,0,0,0,35,42,42,0,10,0,0,0,58,59,0,0,0,0,0,10,0,15,0,41,0,42,41,0,0,0,0,0,0,0,0,0,0,0,0,0,0,0,0,0,0,0,0,0,0,0,0,0,0,0,0,0,0,0,0,0,0,0],"split_type":[0,0,0,0,0,0,0,0,0,0,0,0,0,0,0,0,0,0,0,0,0,0,0,0,0,0,0,0,0,0,0,0,0,0,0,0,0,0,0,0,0,0,0,0,0,0,0,0,0,0,0,0,0,0,0,0,0,0,0,0,0,0,0,0,0,0,0,0,0,0,0,0,0,0,0,0,0,0,0,0,0,0,0,0,0,0,0,0,0,0,0,0,0,0,0,0,0,0,0,0,0,0,0,0,0,0,0,0,0,0,0,0,0,0,0,0,0],"sum_hessian":[9.3035694E5,2.977391E5,6.326178E5,1.1168168E4,2.865709E5,5.820632E5,5.055466E4,4.1509463E3,7.0172217E3,2.6061652E5,2.5954398E4,9.13966E4,4.906666E5,3.915326E4,1.1401399E4,6.4005537E3,6.1666785E2,2.5608778E5,4.5287246E3,1.6922912E4,9.031487E3,7.2687914E4,1.8708688E4,2.908404E5,1.9982619E5,1.5820051E4,2.3333209E4,9.706876E3,1.6945233E3,6.239277E3,1.6127695E2,3.9772607E2,2.1894174E2,3.280728E3,1.2479963E3,9.7606525E2,1.5946847E4,4.9502935E3,4.0811938E3,7.084254E4,1.8453726E3,7.5040366E3,1.1204651E4,2.0004747E3,2.888399E5,1.997719E5,5.4286064E1,4.254463E3,1.9078748E4,8.768411E3,9.3846533E2,8.7560135E1,6.151717E3,1.6135367E2,5.758807E1,2.6656067E2,9.8143567E2,8.355733E2,1.4049193E2,4.519112E3,4.311817E2,3.0423503E3,1.0388435E3,6.763079E4,3.2117502E3,9.148338E2,9.305387E2,4.871461E3,2.632576E3,1.6620751E3,9.542576E3,1.5593748E3,4.410999E2,3.4961043E4,2.5387888E5,5.1394276E1,1.9972052E5,3.8221298E2,3.8722498E3,1.1932257E4,7.14649E3,2.587898E3,6.1805127E3,2.3020042E3,3.8497126E3,4.33789E3,1.8122192E2,3.407431E2,9.04386E1,1.8628263E3,1.1795239E3,3.899127E4,2.863952E4,2.3594426E3,8.523077E2,8.2739374E2,4.0440671E3,9.4223285E2,1.6903431E3,8.081343E2,8.539408E2,1.6311838E3,7.9113926E3,3.486347E4,9.757469E1,1.5893391E4,2.3798548E5,1.4537966E5,5.4340848E4,3.3795886E3,4.9266107E2,4.135774E3,3.0107158E3,1.4234893E3,1.1644087E3,5.8918057E3,2.8870715E2],"tree_param":{"num_deleted":"0","num_feature":"95","num_nodes":"117","size_leaf_vector":"1"}},{"base_weights":[6.2302803E-3,5.691573E-1,-1.2741848E0,-7.6629233E-1,8.340361E-1,-3.1554446E-1,-1.3197038E0,-1.1531727E0,1.331851E0,9.9363494E-1,-1.4419982E0,5.9775954E-1,-6.747096E-2,-9.313227E-1,-6.746689E-2,1.0363625E0,-1.1844373E0,1.3418422E0,-7.63632E-2,8.243999E-1,1.2652643E0,-1.5185037E0,-1.4169704E0,8.2684076E-1,-1.4721775E0,-1.3610647E0,5.560118E-1,-6.999522E-2,8.327592E-2,-1.217965E0,9.370475E-1,1.3094747E0,1.5821182E0,8.967161E-1,1.5335695E-1,1.2971196E0,1.1761867E0,-7.618042E-2,-7.051606E-2,-1.400973E0,-1.4936602E0,9.997212E-1,-1.5297453E0,-8.11209E-2,-7.0984736E-2,-6.757035E-2,-1.4277478E0,-7.229308E-2,1.0647284E0,-1.2560465E0,5.748217E-1,8.7325506E-2,-7.45888E-2,1.3252305E0,-8.806108E-2,7.1640424E-2,8.591603E-2,2.4088305E-1,9.341458E-1,1.3163539E0,-1.3697541E-1,1.2722895E0,1.3414247E0,-1.5456371E-1,1.1848551E0,-1.3886791E0,-7.350691E-2,-7.540092E-2,-7.069375E-2,1.1405662E0,-6.946685E-2,-8.331569E-2,-7.350266E-2,-1.4758755E0,-6.742261E-2,-7.5304225E-2,1.288193E0,-6.49297E-2,-1.7019043E-2,-7.791325E-2,1.0719476E-1,-7.36066E-2,6.681364E-2,3.0855624E-2,-3.7209917E-2,4.717329E-2,-7.1439855E-2,6.857815E-2,-1.1466638E-1,-6.1291613E-2,7.1028173E-3,6.375098E-2,-1.622175E-1,6.407303E-2,6.745342E-2,-1.3875426E-1,5.9559148E-2,-6.917793E-2,-7.591015E-2,6.01951E-2,-7.5670324E-2,-7.51308E-2,-6.88188E-2,7.004267E-2,-7.13025E-2],"categories":[],"categories_nodes":[],"categories_segments":[],"categories_sizes":[],"default_left":[0,0,0,0,0,0,0,0,0,0,0,0,0,0,0,0,0,0,0,0,0,0,0,0,0,0,0,0,0,0,0,0,0,0,0,0,0,0,0,0,0,0,0,0,0,0,0,0,0,0,0,0,0,0,0,0,0,0,0,0,0,0,0,0,0,0,0,0,0,0,0,0,0,0,0,0,0,0,0,0,0,0,0,0,0,0,0,0,0,0,0,0,0,0,0,0,0,0,0,0,0,0,0,0,0],"id":13,"left_children":[1,3,5,7,9,11,13,15,17,19,21,23,-1,25,-1,27,29,31,-1,33,35,37,39,41,43,45,47,-1,-1,49,51,53,55,57,59,61,63,-1,-1,65,67,69,71,-1,-1,-1,73,-1,75,77,79,-1,-1,81,-1,-1,-1,83,85,87,89,91,93,-1,95,97,-1,-1,-1,99,-1,-1,-1,101,-1,-1,103,-1,-1,-1,-1,-1,-1,-1,-1,-1,-1,-1,-1,-1,-1,-1,-1,-1,-1,-1,-1,-1,-1,-1,-1,-1,-1,-1,-1],"loss_changes":[6.479214E5,2.208719E5,1.1978219E4,8.38927E4,1.8927572E5,1.1752232E4,3.01475E3,5.9745625E3,4.6166602E2,2.2381719E4,6.2929688E1,3.1348386E3,0E0,1.1878037E4,0E0,1.8860494E3,6.120453E3,1.223418E2,0E0,1.4558141E4,5.285625E2,2.1953125E0,2.9199219E1,2.4258672E3,2.5871582E0,7.076172E0,4.244247E3,0E0,0E0,5.7829844E3,2.635152E3,6.862715E2,3.583008E1,6.6475938E3,9.855325E3,1.4948438E2,1.8251719E3,0E0,0E0,1.5800781E1,2.6464844E0,1.8672808E3,5.5529785E-1,0E0,0E0,0E0,4.61499E0,0E0,1.9106941E3,3.230375E3,5.901524E3,0E0,0E0,4.364375E2,0E0,0E0,0E0,5.420022E3,5.643422E3,1.1650557E3,7.096687E3,1.0920312E3,2.0664062E1,0E0,1.2346641E3,9.625E0,0E0,0E0,0E0,8.820171E2,0E0,0E0,0E0,6.022949E-1,0E0,0E0,9.369243E2,0E0,0E0,0E0,0E0,0E0,0E0,0E0,0E0,0E0,0E0,0E0,0E0,0E0,0E0,0E0,0E0,0E0,0E0,0E0,0E0,0E0,0E0,0E0,0E0,0E0,0E0,0E0,0E0],"parents":[2147483647,0,0,1,1,2,2,3,3,4,4,5,5,6,6,7,7,8,8,9,9,10,10,11,11,13,13,15,15,16,16,17,17,19,19,20,20,21,21,22,22,23,23,24,24,25,25,26,26,29,29,30,30,31,31,32,32,33,33,34,34,35,35,36,36,39,39,40,40,41,41,42,42,46,46,48,48,49,49,50,50,53,53,57,57,58,58,59,59,60,60,61,61,62,62,64,64,65,65,69,69,73,73,76,76],"right_children":[2,4,6,8,10,12,14,16,18,20,22,24,-1,26,-1,28,30,32,-1,34,36,38,40,42,44,46,48,-1,-1,50,52,54,56,58,60,62,64,-1,-1,66,68,70,72,-1,-1,-1,74,-1,76,78,80,-1,-1,82,-1,-1,-1,84,86,88,90,92,94,-1,96,98,-1,-1,-1,100,-1,-1,-1,102,-1,-1,104,-1,-1,-1,-1,-1,-1,-1,-1,-1,-1,-1,-1,-1,-1,-1,-1,-1,-1,-1,-1,-1,-1,-1,-1,-1,-1,-1,-1],"split_conditions":[2.008E3,1E0,-3.3333325E-1,1E0,1E0,2.012E3,2.009E3,-3.3333325E-1,1E0,1E0,1E0,1E0,-6.747096E-2,1E0,-6.746689E-2,5.5087475E5,1E0,1E0,-7.63632E-2,2.006E3,1E0,4E0,3E0,1E0,2.009E3,2E0,1E0,-6.999522E-2,8.327592E-2,1E0,1.996E3,-6.666665E-1,2.007E3,1.998E3,-3.3333302E-1,1E0,4.767951E4,-7.618042E-2,-7.051606E-2,1E0,4E0,1E0,2.009E3,-8.11209E-2,-7.0984736E-2,-6.757035E-2,1.1E1,-7.229308E-2,2E0,1E0,1E0,8.7325506E-2,-7.45888E-2,1E0,-8.806108E-2,7.1640424E-2,8.591603E-2,8E0,1E0,1E0,3E0,3E0,1E0,-1.5456371E-1,8.3333336E-2,1E0,-7.350691E-2,-7.540092E-2,-7.069375E-2,1E0,-6.946685E-2,-8.331569E-2,-7.350266E-2,1E0,-6.742261E-2,-7.5304225E-2,1E1,-6.49297E-2,-1.7019043E-2,-7.791325E-2,1.0719476E-1,-7.36066E-2,6.681364E-2,3.0855624E-2,-3.7209917E-2,4.717329E-2,-7.1439855E-2,6.857815E-2,-1.1466638E-1,-6.1291613E-2,7.1028173E-3,6.375098E-2,-1.622175E-1,6.407303E-2,6.745342E-2,-1.3875426E-1,5.9559148E-2,-6.917793E-2,-7.591015E-2,6.01951E-2,-7.5670324E-2,-7.51308E-2,-6.88188E-2,7.004267E-2,-7.13025E-2],"split_indices":[9,4,49,46,18,9,9,49,18,46,13,54,0,38,0,5,31,38,0,9,15,41,41,65,9,41,65,0,0,23,9,49,9,9,49,45,5,0,0,38,41,61,9,0,0,0,8,0,41,84,76,0,0,90,0,0,0,8,16,81,52,41,13,0,36,46,0,0,0,19,0,0,0,42,0,0,8,0,0,0,0,0,0,0,0,0,0,0,0,0,0,0,0,0,0,0,0,0,0,0,0,0,0,0,0],"split_type":[0,0,0,0,0,0,0,0,0,0,0,0,0,0,0,0,0,0,0,0,0,0,0,0,0,0,0,0,0,0,0,0,0,0,0,0,0,0,0,0,0,0,0,0,0,0,0,0,0,0,0,0,0,0,0,0,0,0,0,0,0,0,0,0,0,0,0,0,0,0,0,0,0,0,0,0,0,0,0,0,0,0,0,0,0,0,0,0,0,0,0,0,0,0,0,0,0,0,0,0,0,0,0,0,0],"sum_hessian":[8.9891475E5,6.244011E5,2.7451366E5,1.0334756E5,5.2105353E5,1.2444276E4,2.6206938E5,8.7258336E4,1.6089224E4,4.8691122E5,3.4142312E4,6.60759E3,5.8366865E3,1.858122E4,2.4348816E5,1.2279287E3,8.603041E4,1.6033759E4,5.5464367E1,3.0000278E5,1.8690844E5,8.400361E3,2.5741951E4,5.9497734E3,6.578163E2,1.4416074E4,4.165146E3,2.517394E2,9.761893E2,8.4692414E4,1.3379956E3,1.4136325E4,1.8974337E3,2.7081716E5,2.9185623E4,1.3766339E5,4.924506E4,8.00846E3,3.9190143E2,2.1316025E4,4.4259253E3,5.5437026E3,4.0607092E2,1.6206395E2,4.9575235E2,1.2612217E4,1.8038574E3,8.435634E2,3.3215828E3,8.293119E4,1.7612283E3,1.0037833E3,3.342123E2,1.406476E4,7.156545E1,9.110086E2,9.864251E2,1.4622132E4,2.5619503E5,5.8297905E3,2.3355834E4,8.8241805E4,4.9421582E4,9.908255E1,4.9145977E4,1.8118125E4,3.1979014E3,3.7346746E3,6.912509E2,5.235606E3,3.080966E2,1.1480965E2,2.9126126E2,1.1107983E3,6.930591E2,2.6513956E2,3.056443E3,7.924828E4,3.6829001E3,7.464311E2,1.0147972E3,5.4745235E1,1.4010015E4,1.0581314E4,4.0408174E3,2.5518914E5,1.00588434E3,5.7426064E3,8.718384E1,4.763672E3,1.8592162E4,8.8189234E4,5.2565445E1,5.608094E3,4.381349E4,7.768503E1,4.9068293E4,1.7441082E4,6.7704236E2,5.114144E3,1.2146231E2,