{"learner":{"attributes":{"best_iteration":"31","best_score":"0.8864470668281454"},"feature_names":["age","ind_nuevo","antiguedad","indrel","ind_actividad_cliente","renta","log_renta","is_new_customer","join_month","join_year","months_since_join","ind_ahor_fin_ult1_lag1","ind_aval_fin_ult1_lag1","ind_cco_fin_ult1_lag1","ind_cder_fin_ult1_lag1","ind_cno_fin_ult1_lag1","ind_ctju_fin_ult1_lag1","ind_ctma_fin_ult1_lag1","ind_ctop_fin_ult1_lag1","ind_ctpp_fin_ult1_lag1","ind_deco_fin_ult1_lag1","ind_deme_fin_ult1_lag1","ind_dela_fin_ult1_lag1","ind_ecue_fin_ult1_lag1","ind_fond_fin_ult1_lag1","ind_hip_fin_ult1_lag1","ind_plan_fin_ult1_lag1","ind_pres_fin_ult1_lag1","ind_reca_fin_ult1_lag1","ind_tjcr_fin_ult1_lag1","ind_valo_fin_ult1_lag1","ind_viv_fin_ult1_lag1","ind_nomina_ult1_lag1","ind_nom_pens_ult1_lag1","ind_recibo_ult1_lag1","total_products","product_diversity","has_any_product","payroll_bundle","has_current_account","has_credit_card","n_accounts","n_investments","n_lending","total_products_lag1","products_gained","products_lost","net_product_change","total_products_rolling3","product_momentum","activity_lag1","activity_change","month","year","month_sin","month_cos","is_q1","is_post_summer","is_male","seg_01___TOP","seg_02___PARTICULARES","seg_03___UNIVERSITARIO","canal_KAS","canal_KAT","canal_KFA","canal_KFC","canal_KHD","canal_KHE","canal_KHK","canal_KHM","canal_KHN","canal_KHQ","canal_OTHER","is_spain","prov_ALICANTE","prov_BARCELONA","prov_CADIZ","prov_CORU_A__A","prov_MADRID","prov_MALAGA","prov_MURCIA","prov_OTHER","prov_SEVILLA","prov_VALENCIA","prov_ZARAGOZA","indrel1m_1","indrel1m_2","indrel1m_3","indrel1m_4","indrel1m_5","tiprel_A","tiprel_I","tiprel_N","tiprel_P","tiprel_R"],"feature_types":["float","float","float","float","float","float","float","int","float","float","float","int","int","int","int","int","int","int","int","int","int","int","int","int","int","int","int","int","int","int","int","int","int","int","int","int","float","int","int","int","int","int","int","int","int","int","int","int","float","float","float","float","int","int","float","float","int","int","int","int","int","int","int","int","int","int","int","int","int","int","int","int","int","int","int","int","int","int","int","int","int","int","int","int","int","int","int","int","int","int","int","int","int","int","int"],"gradient_booster":{"model":{"cats":{"enc":[],"feature_segments":[],"sorted_idx":[]},"gbtree_model_param":{"num_parallel_tree":"1","num_trees":"82"},"iteration_indptr":[0,1,2,3,4,5,6,7,8,9,10,11,12,13,14,15,16,17,18,19,20,21,22,23,24,25,26,27,28,29,30,31,32,33,34,35,36,37,38,39,40,41,42,43,44,45,46,47,48,49,50,51,52,53,54,55,56,57,58,59,60,61,62,63,64,65,66,67,68,69,70,71,72,73,74,75,76,77,78,79,80,81,82],"tree_info":[0,0,0,0,0,0,0,0,0,0,0,0,0,0,0,0,0,0,0,0,0,0,0,0,0,0,0,0,0,0,0,0,0,0,0,0,0,0,0,0,0,0,0,0,0,0,0,0,0,0,0,0,0,0,0,0,0,0,0,0,0,0,0,0,0,0,0,0,0,0,0,0,0,0,0,0,0,0,0,0,0,0],"trees":[{"base_weights":[5.3524256E-2,-1.9114892E0,8.4236836E-1,1.4627473E0,-9.9999666E-2,-1.5542547E0,1.0499597E0,-9.9895835E-2,1.9412534E0,-9.999817E-2,9.963786E-2,6.909675E-1,1.7039516E0,-9.8885946E-2,9.961704E-2,1.8949223E0,4.979314E-1,1.7357973E0,-9.99533E-2,-9.9858105E-2,1.9387846E0,-2.8808026E-2,9.4233066E-1,1.7527393E0,-9.991109E-2,1.9518374E0,-9.95178E-2,-3.605321E-1,1.6185428E0,1.0027686E0,-9.997677E-2,1.7661208E0,-9.988655E-2,9.781341E-2,-9.858586E-2,2.3151217E-2,-4.2189028E-2,9.353397E-2,-9.9949256E-2,2.6226861E-2,6.7011416E-2,-9.9863596E-2,8.886603E-2],"categories":[],"categories_nodes":[],"categories_segments":[],"categories_sizes":[],"default_left":[0,0,0,0,0,0,0,0,0,0,0,0,0,0,0,0,0,0,0,0,0,0,0,0,0,0,0,0,0,0,0,0,0,0,0,0,0,0,0,0,0,0,0],"id":0,"left_children":[1,3,5,7,-1,9,11,-1,13,-1,-1,15,17,-1,-1,19,21,23,-1,-1,25,27,29,31,-1,33,-1,35,37,39,-1,41,-1,-1,-1,-1,-1,-1,-1,-1,-1,-1,-1],"loss_changes":[1.7559454E6,9.6907375E4,4.0215088E5,1.3738699E4,0E0,1.0186944E5,1.7464469E5,0E0,1.4629199E3,0E0,0E0,1.11613625E5,3.1091375E4,0E0,0E0,1.1332797E4,9.688597E4,1.6538562E4,0E0,0E0,3.3694375E3,1.0350236E5,3.9917156E4,1.3061875E4,0E0,1.1408906E3,0E0,6.2744867E4,2.896046E4,3.5499703E4,0E0,1.09316875E4,0E0,0E0,0E0,0E0,0E0,0E0,0E0,0E0,0E0,0E0,0E0],"parents":[2147483647,0,0,1,1,2,2,3,3,5,5,6,6,8,8,11,11,12,12,15,15,16,16,17,17,20,20,21,21,22,22,23,23,25,25,27,27,28,28,29,29,31,31],"right_children":[2,4,6,8,-1,10,12,-1,14,-1,-1,16,18,-1,-1,20,22,24,-1,-1,26,28,30,32,-1,34,-1,36,38,40,-1,42,-1,-1,-1,-1,-1,-1,-1,-1,-1,-1,-1],"split_conditions":[1E0,-6.666666E-1,2.9E1,1E0,-9.9999666E-2,4E0,3.333333E-1,-9.9895835E-2,6.3E1,-9.999817E-2,9.963786E-2,1E0,6.1E1,-9.8885946E-2,9.961704E-2,4E1,2.5E0,2.2381845E5,-9.99533E-2,-9.9858105E-2,1E0,1E0,7E1,2.0499342E2,-9.991109E-2,1E0,-9.95178E-2,4E0,3E0,1E0,-9.997677E-2,1E0,-9.988655E-2,9.781341E-2,-9.858586E-2,2.3151217E-2,-4.2189028E-2,9.353397E-2,-9.9949256E-2,2.6226861E-2,6.7011416E-2,-9.9863596E-2,8.886603E-2],"split_indices":[4,49,0,75,0,45,49,0,0,0,0,50,0,0,0,0,48,5,0,0,69,15,0,10,0,75,0,8,52,23,0,90,0,0,0,0,0,0,0,0,0,0,0],"split_type":[0,0,0,0,0,0,0,0,0,0,0,0,0,0,0,0,0,0,0,0,0,0,0,0,0,0,0,0,0,0,0,0,0,0,0,0,0,0,0,0,0,0,0],"sum_hessian":[1.1328008E6,3.24491E5,8.0830975E5,8.293234E3,3.1619775E5,6.4432734E4,7.43877E5,1.007E3,7.2862344E3,5.72405E4,7.1922344E3,4.802553E5,2.6362172E5,9.325E1,7.1929844E3,6.636036E4,4.1389494E5,2.6137447E5,2.24725E3,7.39E2,6.562136E4,1.894013E5,2.2449364E5,2.6019447E5,1.18E3,6.540461E4,2.1675E2,1.5765536E5,3.1745938E4,2.1997514E5,4.5185E3,2.5926997E5,9.245E2,6.533136E4,7.325E1,5.829992E4,9.935544E4,2.9677938E4,2.068E3,9.1007125E4,1.28968016E5,7.6875E2,2.5850122E5],"tree_param":{"num_deleted":"0","num_feature":"95","num_nodes":"43","size_leaf_vector":"1"}},{"base_weights":[-8.577188E-2,-1.820548E0,6.850643E-1,1.2582053E0,-9.524165E-2,-1.4814299E0,8.953024E-1,-9.52268E-2,1.8433768E0,-9.52402E-2,9.490978E-2,1.742262E0,7.089418E-1,9.518554E-2,-9.4578624E-2,-2.0315974E0,1.7866688E0,7.6227E-1,-1.9521134E0,-9.560029E-2,-2.063556E0,1.8011501E0,-1.0067599E-1,5.752149E-1,1.4539886E0,-1.9738827E0,-9.521699E-2,-9.460484E-2,-1.0449628E-1,1.8104161E0,-1.000412E-1,-5.335308E-1,7.5308084E-1,1.5142329E0,-9.896194E-2,-1.00900546E-1,-9.786055E-2,-1.0053768E-1,9.080654E-2,-6.589172E-2,7.651285E-2,4.0155854E-2,-1.005047E-1,7.75828E-2,-9.7763434E-2],"categories":[],"categories_nodes":[],"categories_segments":[],"categories_sizes":[],"default_left":[0,0,0,0,0,0,0,0,0,0,0,0,0,0,0,0,0,0,0,0,0,0,0,0,0,0,0,0,0,0,0,0,0,0,0,0,0,0,0,0,0,0,0,0,0],"id":1,"left_children":[1,3,5,7,-1,9,11,-1,13,-1,-1,15,17,-1,-1,19,21,23,25,-1,27,29,-1,31,33,35,-1,-1,-1,37,-1,39,41,43,-1,-1,-1,-1,-1,-1,-1,-1,-1,-1,-1],"loss_changes":[1.4071251E6,8.40065E4,3.3183888E5,1.5969517E4,0E0,9.221466E4,1.0482025E5,0E0,1.6442012E3,0E0,0E0,2.0075375E4,7.724706E4,0E0,0E0,9.824219E-1,6.518125E3,6.904609E4,6.9765625E0,0E0,5.5908203E-1,4.1582188E3,0E0,8.28377E4,2.3496812E4,1.0371094E0,0E0,0E0,0E0,2.5724688E3,0E0,9.399584E4,5.0048625E4,1.4497078E4,0E0,0E0,0E0,0E0,0E0,0E0,0E0,0E0,0E0,0E0,0E0],"parents":[2147483647,0,0,1,1,2,2,3,3,5,5,6,6,8,8,11,11,12,12,15,15,16,16,17,17,18,18,20,20,21,21,23,23,24,24,25,25,29,29,31,31,32,32,33,33],"right_children":[2,4,6,8,-1,10,12,-1,14,-1,-1,16,18,-1,-1,20,22,24,26,-1,28,30,-1,32,34,36,-1,-1,-1,38,-1,40,42,44,-1,-1,-1,-1,-1,-1,-1,-1,-1,-1,-1],"split_conditions":[1E0,0E0,2.9E1,1.77E2,-9.524165E-2,4E0,1E0,-9.52268E-2,1.78E2,-9.52402E-2,9.490978E-2,3.6E1,7.4E1,9.518554E-2,-9.4578624E-2,1E0,1.2E1,1E0,2.5E0,-9.560029E-2,1E0,1E0,-1.0067599E-1,4E1,1.88E2,4E0,-9.521699E-2,-9.460484E-2,-1.0449628E-1,1E0,-1.000412E-1,1E0,2.19E2,5.9E1,-9.896194E-2,-1.00900546E-1,-9.786055E-2,-1.0053768E-1,9.080654E-2,-6.589172E-2,7.651285E-2,4.0155854E-2,-1.005047E-1,7.75828E-2,-9.7763434E-2],"split_indices":[4,47,0,2,0,45,48,0,2,0,0,0,0,0,0,35,8,45,48,0,90,75,0,0,2,8,0,0,0,60,0,82,2,0,0,0,0,0,0,0,0,0,0,0,0],"split_type":[0,0,0,0,0,0,0,0,0,0,0,0,0,0,0,0,0,0,0,0,0,0,0,0,0,0,0,0,0,0,0,0,0,0,0,0,0,0,0,0,0,0,0,0,0],"sum_hessian":[1.052268E6,3.2372338E5,7.285446E5,8.625799E3,3.150976E5,6.444413E4,6.641005E5,1.3463899E3,7.2794087E3,5.727021E4,7.1739146E3,1.1976975E5,5.443307E5,7.1641963E3,1.1521258E2,1.3923855E3,1.1837737E5,5.3363725E5,1.0693467E4,3.0711176E2,1.0852738E3,1.1792853E5,4.4883667E2,4.2004922E5,1.1358803E5,7.316911E3,3.376556E3,1.5486357E2,9.3041016E2,1.1764237E5,2.861639E2,5.8068785E4,3.6198044E5,1.11629805E5,1.9582286E3,1.9717759E3,5.3451353E3,1.7511984E2,1.1746725E5,4.207818E4,1.5990608E4,3.5554294E5,6.4375083E3,1.1043916E5,1.1906458E3],"tree_param":{"num_deleted":"0","num_feature":"95","num_nodes":"45","size_leaf_vector":"1"}},{"base_weights":[3.3645533E-2,-1.7419361E0,7.550445E-1,1.1987324E0,-9.11316E-2,-1.4011475E0,9.5515597E-1,-9.1123626E-2,1.7631272E0,-1.8283697E0,9.693557E-1,6.9869775E-1,1.560735E0,9.1069266E-2,-9.057249E-2,-9.113338E-2,-1.9430581E0,1.7300353E0,-1.8620497E0,4.7385082E-1,1.4000763E0,1.5999179E0,-1.8679829E0,-9.613635E-2,-1.0470884E-1,-9.100209E-2,2.0876987E0,-9.110375E-2,-9.986507E-2,-1.2592736E0,6.7286056E-1,1.4882426E0,-2.015775E0,1.6271915E0,-1.9063628E0,-9.818486E-2,-9.2509985E-2,-9.0517715E-2,2.1722844E0,1.5532166E0,-1.9366791E0,7.4717534E-1,-1.8680916E0,-1.0267414E-1,1.5246091E0,-2.0527065E0,-9.37235E-2,1.6422228E0,-1.0540656E-1,-9.8654956E-2,-9.253802E-2,-8.9247786E-2,1.1001376E-1,-9.5749915E-2,8.764004E-2,-9.651765E-2,-1.0340499E-1,8.5526824E-2,2.8641967E-2,-9.426044E-2,-9.110223E-2,7.749928E-2,-1.0311981E-1,-1.0379537E-1,-9.6498676E-2,-9.7707674E-2,8.248525E-2],"categories":[],"categories_nodes":[],"categories_segments":[],"categories_sizes":[],"default_left":[0,0,0,0,0,0,0,0,0,0,0,0,0,0,0,0,0,0,0,0,0,0,0,0,0,0,0,0,0,0,0,0,0,0,0,0,0,0,0,0,0,0,0,0,0,0,0,0,0,0,0,0,0,0,0,0,0,0,0,0,0,0,0,0,0,0,0],"id":2,"left_children":[1,3,5,7,-1,9,11,-1,13,15,17,19,21,-1,-1,-1,23,25,27,29,31,33,35,-1,-1,-1,37,-1,-1,39,41,43,45,47,49,-1,-1,-1,51,53,55,57,59,-1,61,63,-1,65,-1,-1,-1,-1,-1,-1,-1,-1,-1,-1,-1,-1,-1,-1,-1,-1,-1,-1,-1],"loss_changes":[1.4243786E6,7.62395E4,3.411896E5,1.4635416E4,0E0,6.801178E4,1.12376E5,0E0,1.5091387E3,3.3296875E1,2.2091223E4,8.0162766E4,2.892375E4,0E0,0E0,0E0,3.8027344E0,1.0268609E4,7.723633E0,1.3276453E5,3.716572E4,2.0356375E4,1.2695312E-1,0E0,0E0,0E0,2.4256855E3,0E0,0E0,7.553929E4,6.5200203E4,1.54968125E4,1.1964844E1,1.18613125E4,2.0634766E0,0E0,0E0,0E0,8.002969E2,5.330715E3,2.2171875E1,5.6340016E4,3.9296875E0,0E0,1.08416875E4,2.571289E0,0E0,5.663375E3,0E0,0E0,0E0,0E0,0E0,0E0,0E0,0E0,0E0,0E0,0E0,0E0,0E0,0E0,0E0,0E0,0E0,0E0,0E0],"parents":[2147483647,0,0,1,1,2,2,3,3,5,5,6,6,8,8,9,9,10,10,11,11,12,12,16,16,17,17,18,18,19,19,20,20,21,21,22,22,26,26,29,29,30,30,31,31,32,32,33,33,34,34,38,38,39,39,40,40,41,41,42,42,44,44,45,45,47,47],"right_children":[2,4,6,8,-1,10,12,-1,14,16,18,20,22,-1,-1,-1,24,26,28,30,32,34,36,-1,-1,-1,38,-1,-1,40,42,44,46,48,50,-1,-1,-1,52,54,56,58,60,-1,62,64,-1,66,-1,-1,-1,-1,-1,-1,-1,-1,-1,-1,-1,-1,-1,-1,-1,-1,-1,-1,-1],"split_conditions":[1E0,0E0,3E1,1.77E2,-9.11316E-2,2E0,1E0,-9.1123626E-2,1.78E2,2.9E1,2.4E1,1E0,5.9E1,9.1069266E-2,-9.057249E-2,-9.113338E-2,1E0,3E0,2.9E1,4E1,5.7E1,1.8843626E2,6.1E1,-9.613635E-2,-1.0470884E-1,-9.100209E-2,4E0,-9.110375E-2,-9.986507E-2,2.7923784E0,7.4E1,2E0,7E1,1E0,2.05E2,-9.818486E-2,-9.2509985E-2,-9.0517715E-2,1.5078423E5,3.7E1,1E0,1E0,2.5E0,-1.0267414E-1,8.666667E0,2.19E2,-9.37235E-2,1E0,-1.0540656E-1,-9.8654956E-2,-9.253802E-2,-8.9247786E-2,1.1001376E-1,-9.5749915E-2,8.764004E-2,-9.651765E-2,-1.0340499E-1,8.5526824E-2,2.8641967E-2,-9.426044E-2,-9.110223E-2,7.749928E-2,-1.0311981E-1,-1.0379537E-1,-9.6498676E-2,-9.7707674E-2,8.248525E-2],"split_indices":[4,47,0,2,0,41,45,0,2,0,0,29,0,0,0,0,45,48,0,0,0,10,0,0,0,0,52,0,0,10,0,8,0,75,2,0,0,0,5,0,82,48,48,0,48,2,0,90,0,0,0,0,0,0,0,0,0,0,0,0,0,0,0,0,0,0,0],"split_type":[0,0,0,0,0,0,0,0,0,0,0,0,0,0,0,0,0,0,0,0,0,0,0,0,0,0,0,0,0,0,0,0,0,0,0,0,0,0,0,0,0,0,0,0,0,0,0,0,0,0,0,0,0,0,0,0,0,0,0,0,0,0,0,0,0,0,0],"sum_hessian":[1.1120096E6,3.2126862E5,7.90741E5,8.580175E3,3.1268844E5,6.715392E4,7.2358706E5,1.3501919E3,7.2299824E3,5.689952E4,1.0254405E4,5.0831975E5,2.1526733E5,7.114549E3,1.15433784E2,5.4221406E4,2.6781128E3,8.0832104E3,2.1711948E3,3.8492338E5,1.2339638E5,2.1283562E5,2.4316987E3,2.3732102E3,3.049026E2,7.394312E2,7.3437793E3,1.687617E3,4.8357782E2,3.964649E4,3.452769E5,1.20292125E5,3.1042632E3,2.1119342E5,1.642206E3,3.629821E2,2.0687166E3,1.5551332E2,7.188266E3,7.6952925E3,3.1951193E4,3.354663E5,9.81058E3,1.2220121E3,1.1907011E5,2.4497573E3,6.5450586E2,2.1034755E5,8.4586615E2,7.298837E2,9.1232227E2,5.00218E1,7.138244E3,4.18246E2,7.277047E3,3.0499512E4,1.451682E3,5.140403E4,2.8406228E5,7.1212656E3,2.6893145E3,1.1823425E5,8.358606E2,2.0462216E3,4.0353586E2,4.3614597E2,2.099114E5],"tree_param":{"num_deleted":"0","num_feature":"95","num_nodes":"67","size_leaf_vector":"1"}},{"base_weights":[-5.7064645E-2,-8.7549336E-2,6.564407E-1,8.4389645E-1,-1.0746906E0,5.1615775E-1,1.4447118E0,-1.7704027E0,1.1810776E0,7.3931617E-1,-3.7362814E-1,1.5098435E0,7.616886E-1,-1.7628628E0,-1.8659711E0,1.6950994E0,-1.8793551E0,-5.004298E-2,9.4720274E-1,-7.514329E-2,-1.9864279E0,1.526551E0,-9.933056E-2,-1.9983245E0,1.6648638E0,-1.7605714E0,-9.1459416E-2,-1.8498436E0,-9.896867E-2,-9.4555005E-2,1.7824935E0,-9.0776026E-2,-9.779208E-2,6.2653214E-1,-1.976042E0,1.5872583E0,6.935929E-1,2.9867727E-1,-1.9998335E0,-1.9615861E0,-1.0239861E-1,-9.3015805E-2,1.5396723E0,-2.1124616E0,-1.8740551E0,1.8360655E0,-1.9664311E0,-8.991106E-2,-8.791906E-2,-9.1303766E-2,-9.588752E-2,8.819972E-2,9.0037085E-2,5.0453693E-2,-1.0007204E-1,-9.724136E-2,-1.0241387E-1,8.160847E-2,-1.0265684E-1,4.0240746E-2,-1.0207609E-1,-9.718453E-2,2.999877E-2,-1.0041048E-1,-8.7311946E-2,-9.83314E-2,-8.713985E-2,7.7481374E-2,-1.0500095E-1,-1.0656998E-1,-9.839191E-2,-9.942591E-2,-9.037467E-2,-1.0159041E-1,9.460423E-2,-1.0646415E-1,-8.920356E-2],"categories":[],"categories_nodes":[],"categories_segments":[],"categories_sizes":[],"default_left":[0,0,0,0,0,0,0,0,0,0,0,0,0,0,0,0,0,0,0,0,0,0,0,0,0,0,0,0,0,0,0,0,0,0,0,0,0,0,0,0,0,0,0,0,0,0,0,0,0,0,0,0,0,0,0,0,0,0,0,0,0,0,0,0,0,0,0,0,0,0,0,0,0,0,0,0,0],"id":3,"left_children":[1,-1,3,5,7,9,11,13,15,17,19,21,23,25,27,29,31,33,35,37,39,41,-1,43,45,47,-1,49,-1,-1,51,-1,-1,53,55,57,59,61,63,65,-1,-1,67,69,71,73,75,-1,-1,-1,-1,-1,-1,-1,-1,-1,-1,-1,-1,-1,-1,-1,-1,-1,-1,-1,-1,-1,-1,-1,-1,-1,-1,-1,-1,-1,-1],"loss_changes":[1.2664788E6,0E0,2.3926434E5,1.3099719E5,1.1305753E5,8.547366E4,1.0444469E4,3.6015625E1,2.6716965E4,5.6473734E4,4.155025E4,1.25256875E4,5.096517E4,4.171875E0,3.2851562E0,4.56034E3,7.9970703E0,9.348725E4,4.421686E4,5.240425E4,1.6191406E1,9.483969E3,0E0,6.7140625E1,9.579945E3,5.625E-1,0E0,1.8144531E0,0E0,0E0,1.2578125E0,0E0,0E0,5.3376234E4,3.7671875E1,1.2642031E4,5.935286E4,4.120696E4,2.1273438E1,6.8203125E0,0E0,0E0,7.7038125E3,2.5703125E0,1.4483398E1,3.1913125E3,1.6419678E1,0E0,0E0,0E0,0E0,0E0,0E0,0E0,0E0,0E0,0E0,0E0,0E0,0E0,0E0,0E0,0E0,0E0,0E0,0E0,0E0,0E0,0E0,0E0,0E0,0E0,0E0,0E0,0E0,0E0,0E0],"parents":[2147483647,0,0,2,2,3,3,4,4,5,5,6,6,7,7,8,8,9,9,10,10,11,11,12,12,13,13,14,14,15,15,16,16,17,17,18,18,19,19,20,20,21,21,23,23,24,24,25,25,27,27,30,30,33,33,34,34,35,35,36,36,37,37,38,38,39,39,42,42,43,43,44,44,45,45,46,46],"right_children":[2,-1,4,6,8,10,12,14,16,18,20,22,24,26,28,30,32,34,36,38,40,42,-1,44,46,48,-1,50,-1,-1,52,-1,-1,54,56,58,60,62,64,66,-1,-1,68,70,72,74,76,-1,-1,-1,-1,-1,-1,-1,-1,-1,-1,-1,-1,-1,-1,-1,-1,-1,-1,-1,-1,-1,-1,-1,-1,-1,-1,-1,-1,-1,-1],"split_conditions":[1E0,-8.7549336E-2,1E0,3.3333325E-1,1E0,4E0,1.5295663E2,3E0,6.481845E4,9.154194E4,1E0,2.0904627E5,1.1E1,1E0,1E0,6.269229E4,4E0,7E0,-3.3333334E-1,1.5397158E5,2.5E0,1E0,-9.933056E-2,1.8843626E2,1E0,7E0,-9.1459416E-2,1E0,-9.896867E-2,-9.4555005E-2,1E0,-9.0776026E-2,-9.779208E-2,1E0,2.5E0,1E0,1E0,4.632063E1,1E0,1E0,-1.0239861E-1,-9.3015805E-2,1E0,2.2381845E5,1E0,1.3611323E5,1.86728E2,-8.991106E-2,-8.791906E-2,-9.1303766E-2,-9.588752E-2,8.819972E-2,9.0037085E-2,5.0453693E-2,-1.0007204E-1,-9.724136E-2,-1.0241387E-1,8.160847E-2,-1.0265684E-1,4.0240746E-2,-1.0207609E-1,-9.718453E-2,2.999877E-2,-1.0041048E-1,-8.7311946E-2,-9.83314E-2,-8.713985E-2,7.7481374E-2,-1.0500095E-1,-1.0656998E-1,-9.839191E-2,-9.942591E-2,-9.037467E-2,-1.0159041E-1,9.460423E-2,-1.0646415E-1,-8.920356E-2],"split_indices":[4,0,61,49,23,52,10,35,5,5,81,5,8,45,43,5,35,8,49,5,48,90,0,10,45,8,0,45,0,0,82,0,0,81,48,33,28,10,16,16,0,0,68,5,45,5,10,0,0,0,0,0,0,0,0,0,0,0,0,0,0,0,0,0,0,0,0,0,0,0,0,0,0,0,0,0,0],"split_type":[0,0,0,0,0,0,0,0,0,0,0,0,0,0,0,0,0,0,0,0,0,0,0,0,0,0,0,0,0,0,0,0,0,0,0,0,0,0,0,0,0,0,0,0,0,0,0,0,0,0,0,0,0,0,0,0,0,0,0,0,0,0,0,0,0,0,0,0,0,0,0,0,0,0,0,0,0],"sum_hessian":[1.0478677E6,3.1056316E5,7.373045E5,6.652666E5,7.2037914E4,4.3045806E5,2.3480853E5,5.5057598E4,1.6980314E4,3.4414638E5,8.631167E4,2.143657E5,2.044283E4,5.105044E4,4.0071555E3,1.4538883E4,2.4414314E3,7.174107E4,2.724053E5,7.2833336E4,1.3478338E4,2.1334683E5,1.01886914E3,5.0399434E3,1.5402887E4,4.9373715E4,1.6767292E3,3.524161E3,4.8299472E2,3.4535892E2,1.4193523E4,1.3449767E3,1.0964548E3,5.3091445E4,1.8649621E4,7.730324E4,1.9510208E5,6.098868E4,1.1844657E4,9.626998E3,3.8513394E3,8.227759E2,2.1252406E5,2.6183108E3,2.4216328E3,1.4709894E4,6.929934E2,2.6667134E3,4.6707E4,2.6322136E3,8.9194714E2,7.099522E3,7.094002E3,4.6345766E4,6.7456807E3,1.3042784E4,5.606838E3,7.636176E4,9.4148126E2,1.8747908E5,7.623E3,7.223447E3,5.376523E4,1.1458869E4,3.857888E2,9.4018955E3,2.2510327E2,2.1194495E5,5.791029E2,2.3023926E3,3.1591803E2,8.792501E2,1.5423828E3,2.0947546E2,1.4500418E4,3.6014792E2,3.328455E2],"tree_param":{"num_deleted":"0","num_feature":"95","num_nodes":"77","size_leaf_vector":"1"}},{"base_weights":[4.3311547E-2,-1.6084386E0,7.046027E-1,1.3651439E0,-8.440127E-2,-5.2415633E-1,9.767905E-1,-8.440008E-2,1.7769263E0,-1.2111272E0,9.52866E-1,7.1894413E-1,1.584769E0,9.095182E-2,-8.365651E-2,-1.7355688E0,6.835839E-1,1.2621113E0,-1.9473176E0,9.102839E-1,-8.965831E-2,1.604924E0,-1.7805705E0,-1.6944375E0,-1.8144664E0,1.3897303E0,-1.8868576E0,1.4209462E0,-1.9312906E0,-8.548979E-2,-2.1210372E0,9.626928E-1,-1.795062E0,1.7419448E0,-4.6191022E-1,1.6178956E0,-8.6345784E-2,-8.470975E-2,-9.1569655E-2,-1.7402384E0,-8.438076E-2,-1.8062056E0,-9.932445E-2,-8.65876E-2,1.7289016E0,-1.87266E0,-1.08776584E-1,1.4789349E0,-2.018273E0,-8.524672E-2,-2.0982535E0,-9.787939E-2,-2.206796E0,1.7281452E0,8.573674E-1,-1.8145138E0,-8.7564036E-2,1.8283315E0,-1.0261311E-1,5.95441E-2,-1.9791398E0,1.6278764E0,-1.0115309E-1,-8.791806E-2,-8.514393E-2,-9.011882E-2,-1.0552495E-1,-8.868909E-2,9.199651E-2,-9.241984E-2,-1.00652516E-1,7.535064E-2,-9.351688E-2,-8.464832E-2,-1.0687786E-1,-9.711872E-2,-1.09989084E-1,-1.1161317E-1,-8.7330125E-2,-1.0761122E-1,8.679919E-2,-1.0168175E-1,4.4496812E-2,-8.863038E-2,-9.180302E-2,8.605348E-2,9.667249E-2,-4.6092905E-2,4.75809E-2,-9.990044E-2,-8.718306E-2,8.175674E-2,-9.491383E-2],"categories":[],"categories_nodes":[],"categories_segments":[],"categories_sizes":[],"default_left":[0,0,0,0,0,0,0,0,0,0,0,0,0,0,0,0,0,0,0,0,0,0,0,0,0,0,0,0,0,0,0,0,0,0,0,0,0,0,0,0,0,0,0,0,0,0,0,0,0,0,0,0,0,0,0,0,0,0,0,0,0,0,0,0,0,0,0,0,0,0,0,0,0,0,0,0,0,0,0,0,0,0,0,0,0,0,0,0,0,0,0,0,0],"id":4,"left_children":[1,3,5,7,-1,9,11,-1,13,15,17,19,21,-1,-1,23,25,27,29,31,33,35,37,39,41,43,45,47,49,-1,51,53,55,57,59,61,-1,-1,-1,63,-1,65,-1,-1,67,69,-1,71,73,-1,75,-1,77,79,81,83,-1,85,-1,87,89,91,-1,-1,-1,-1,-1,-1,-1,-1,-1,-1,-1,-1,-1,-1,-1,-1,-1,-1,-1,-1,-1,-1,-1,-1,-1,-1,-1,-1,-1,-1,-1],"loss_changes":[1.1971844E6,7.415969E4,2.6177081E5,1.0272906E4,0E0,1.4401872E5,1.00445375E5,0E0,1.0488574E3,9.626522E4,4.0413984E4,6.961266E4,1.29455625E4,0E0,0E0,2.4279688E2,3.8124406E4,2.0655605E4,1.7515234E2,5.1588E4,5.8702227E4,8.20075E3,1.5334473E0,1.2296875E1,3.2960938E1,1.7447275E4,1.4073242E1,7.738836E3,6.896973E1,0E0,3.0354492E1,2.8773969E4,2.3535156E0,4.7703164E3,5.661149E4,6.8694688E3,0E0,0E0,0E0,1.0175781E0,0E0,2.4710938E1,0E0,0E0,5.7832617E3,1.0615234E1,0E0,3.5900938E3,2.0971191E1,0E0,1.2815918E1,0E0,1.4850098E1,1.3168047E3,2.954364E4,6.8066406E-1,0E0,1.5663281E2,0E0,4.6622938E4,7.746875E1,4.8257188E3,0E0,0E0,0E0,0E0,0E0,0E0,0E0,0E0,0E0,0E0,0E0,0E0,0E0,0E0,0E0,0E0,0E0,0E0,0E0,0E0,0E0,0E0,0E0,0E0,0E0,0E0,0E0,0E0,0E0,0E0,0E0],"parents":[2147483647,0,0,1,1,2,2,3,3,5,5,6,6,8,8,9,9,10,10,11,11,12,12,15,15,16,16,17,17,18,18,19,19,20,20,21,21,22,22,23,23,24,24,25,25,26,26,27,27,28,28,30,30,31,31,32,32,33,33,34,34,35,35,39,39,41,41,44,44,45,45,47,47,48,48,50,50,52,52,53,53,54,54,55,55,57,57,59,59,60,60,61,61],"right_children":[2,4,6,8,-1,10,12,-1,14,16,18,20,22,-1,-1,24,26,28,30,32,34,36,38,40,42,44,46,48,50,-1,52,54,56,58,60,62,-1,-1,-1,64,-1,66,-1,-1,68,70,-1,72,74,-1,76,-1,78,80,82,84,-1,86,-1,88,90,92,-1,-1,-1,-1,-1,-1,-1,-1,-1,-1,-1,-1,-1,-1,-1,-1,-1,-1,-1,-1,-1,-1,-1,-1,-1,-1,-1,-1,-1,-1,-1],"split_conditions":[1E0,-6.666666E-1,3.9E1,1.77E2,-8.440127E-2,3.333333E-1,5E-1,-8.440008E-2,1.78E2,1E0,1E0,4E0,6.1E1,9.095182E-2,-8.365651E-2,2.9E1,3.1E1,1E1,2.9E1,7.4E1,1E0,2.04E2,2.004E3,1E0,1E0,1E0,1E0,5.4E1,2.9E1,-8.548979E-2,1E0,1E0,2.5E0,0E0,8E0,1E0,-8.6345784E-2,-8.470975E-2,-9.1569655E-2,4E0,-8.438076E-2,1E0,-9.932445E-2,-8.65876E-2,4E0,1E0,-1.08776584E-1,1.1843975E1,2.9E1,-8.524672E-2,1E0,-9.787939E-2,1E0,-3.3333302E-1,1E0,1.1424563E1,-8.7564036E-2,1E0,-1.0261311E-1,6E0,7.4E1,1.2318595E1,-1.0115309E-1,-8.791806E-2,-8.514393E-2,-9.011882E-2,-1.0552495E-1,-8.868909E-2,9.199651E-2,-9.241984E-2,-1.00652516E-1,7.535064E-2,-9.351688E-2,-8.464832E-2,-1.0687786E-1,-9.711872E-2,-1.09989084E-1,-1.1161317E-1,-8.7330125E-2,-1.0761122E-1,8.679919E-2,-1.0168175E-1,4.4496812E-2,-8.863038E-2,-9.180302E-2,8.605348E-2,9.667249E-2,-4.6092905E-2,4.75809E-2,-9.990044E-2,-8.718306E-2,8.175674E-2,-9.491383E-2],"split_indices":[4,49,0,2,0,49,49,0,2,23,58,52,0,0,0,0,0,8,0,0,50,2,9,61,29,34,45,2,0,0,45,50,48,47,8,75,0,0,0,52,0,45,0,0,52,29,0,6,0,0,45,0,91,49,41,6,0,15,0,8,0,6,0,0,0,0,0,0,0,0,0,0,0,0,0,0,0,0,0,0,0,0,0,0,0,0,0,0,0,0,0,0,0],"split_type":[0,0,0,0,0,0,0,0,0,0,0,0,0,0,0,0,0,0,0,0,0,0,0,0,0,0,0,0,0,0,0,0,0,0,0,0,0,0,0,0,0,0,0,0,0,0,0,0,0,0,0,0,0,0,0,0,0,0,0,0,0,0,0,0,0,0,0,0,0,0,0,0,0,0,0,0,0,0,0,0,0,0,0,0,0,0,0,0,0,0,0,0,0],"sum_hessian":[1.0960319E6,3.1335156E5,7.8268025E5,8.1676606E3,3.051839E5,1.4193417E5,6.4074606E5,9.7027203E2,7.1973887E3,9.687661E4,4.5057566E4,4.4993078E5,1.908153E5,7.1110947E3,8.629381E1,7.587509E4,2.1001512E4,4.0716574E4,4.3409917E3,3.6383612E5,8.609466E4,1.8967986E5,1.1354342E3,4.9890008E4,2.5985086E4,1.6475809E4,4.525702E3,3.878791E4,1.9286643E3,1.8385762E3,2.5024153E3,3.5692238E5,6.9137407E3,1.4541533E4,7.1553125E4,1.889448E5,7.350667E2,4.3404828E2,7.013859E2,6.433114E3,4.3456895E4,2.4805953E4,1.1791322E3,1.6143278E3,1.4861481E4,4.3210195E3,2.0468289E2,3.814534E4,6.4257E2,8.237263E2,1.1049381E3,8.697434E2,1.6326719E3,4.3169777E4,3.1375262E5,4.7573447E3,2.156396E3,1.4218354E4,3.2317953E2,5.325194E4,1.8301184E4,1.8842884E5,5.159514E2,4.2989985E3,2.134115E3,2.4504824E4,3.0113055E2,4.5612003E2,1.4405361E4,3.696961E3,6.2405853E2,3.782879E4,3.1654984E2,1.7670326E2,4.6586673E2,4.441449E2,6.6079315E2,1.5432023E3,8.946959E1,8.645239E1,4.3083324E4,3.4945088E3,3.102581E5,1.645294E3,3.1120508E3,7.046491E3,7.1718623E3,2.5356361E4,2.7895578E4,1.6936178E4,1.3650051E3,1.8804234E5,3.865057E2],"tree_param":{"num_deleted":"0","num_feature":"95","num_nodes":"93","size_leaf_vector":"1"}},{"base_weights":[3.6100943E-3,-8.161734E-2,6.550694E-1,-9.1497976E-1,8.1220776E-1,-1.6410018E0,1.2083248E0,1.5394131E0,6.1946833E-1,-8.441942E-2,-8.165471E-2,-8.202248E-2,1.6798502E0,-1.9625399E0,1.5557864E0,3.3407158E-1,1.2980332E0,1.8118382E0,-8.519993E-2,-2.0615005E0,-9.045602E-2,1.5681436E0,-1.9585046E0,-6.892817E-1,6.3144636E-1,1.3871657E0,-1.8998522E0,-8.455738E-2,1.8490795E0,-1.08046785E-1,-9.02465E-2,1.5765784E0,-9.685572E-2,-1.0730815E-1,-9.53375E-2,3.4424415E-1,-1.9110605E0,8.469566E-1,-3.7700215E-1,-9.848162E-2,1.4022477E0,-1.9390405E0,-8.6975366E-2,8.7197565E-2,9.764259E-2,7.9135396E-2,-1.0758839E-1,3.652427E-2,-9.148316E-2,-8.981126E-2,-1.0416629E-1,4.5594476E-2,-8.6377E-2,-9.763765E-2,1.2921849E-2,-1.0577215E-1,7.074649E-2,-1.04100205E-1,-9.5840886E-2],"categories":[],"categories_nodes":[],"categories_segments":[],"categories_sizes":[],"default_left":[0,0,0,0,0,0,0,0,0,0,0,0,0,0,0,0,0,0,0,0,0,0,0,0,0,0,0,0,0,0,0,0,0,0,0,0,0,0,0,0,0,0,0,0,0,0,0,0,0,0,0,0,0,0,0,0,0,0,0],"id":5,"left_children":[1,-1,3,5,7,9,11,13,15,-1,-1,-1,17,19,21,23,25,27,-1,29,-1,31,33,35,37,39,41,-1,43,-1,-1,45,-1,-1,-1,47,49,51,53,-1,55,57,-1,-1,-1,-1,-1,-1,-1,-1,-1,-1,-1,-1,-1,-1,-1,-1,-1],"loss_changes":[1.1266422E6,0E0,1.865309E5,1.0603991E5,9.632747E4,1.6125E1,2.3546912E4,8.259219E3,1.0521133E5,0E0,0E0,0E0,6.719883E3,6.0634766E0,6.227E3,1.1638286E5,4.5849562E4,1.8914688E3,0E0,5.9086914E0,0E0,4.2256875E3,3.840332E-1,1.0873457E5,6.440135E4,7.9250938E3,2.3667969E1,0E0,1.5247656E2,0E0,0E0,3.2593438E3,0E0,0E0,0E0,3.9170453E4,7.765E2,4.0816094E4,5.2244938E4,0E0,6.9528125E3,6.716797E0,0E0,0E0,0E0,0E0,0E0,0E0,0E0,0E0,0E0,0E0,0E0,0E0,0E0,0E0,0E0,0E0,0E0],"parents":[2147483647,0,0,2,2,3,3,4,4,5,5,6,6,7,7,8,8,12,12,13,13,14,14,15,15,16,16,17,17,19,19,21,21,22,22,23,23,24,24,25,25,26,26,28,28,31,31,35,35,36,36,37,37,38,38,40,40,41,41],"right_children":[2,-1,4,6,8,10,12,14,16,-1,-1,-1,18,20,22,24,26,28,-1,30,-1,32,34,36,38,40,42,-1,44,-1,-1,46,-1,-1,-1,48,50,52,54,-1,56,58,-1,-1,-1,-1,-1,-1,-1,-1,-1,-1,-1,-1,-1,-1,-1,-1,-1],"split_conditions":[1E0,-8.161734E-2,2.9E1,3E0,3.9750328E0,1E0,1E0,1E0,1E0,-8.441942E-2,-8.165471E-2,-8.202248E-2,2.4E1,1E0,5.9E1,4.4E1,5.6E1,4E0,-8.519993E-2,6.1E1,-9.045602E-2,1E0,6.1E1,1.1273803E1,4E0,1E0,7E1,-8.455738E-2,1.1923612E1,-1.08046785E-1,-9.02465E-2,1E0,-9.685572E-2,-1.0730815E-1,-9.53375E-2,1E0,4E1,7.5E1,1.1615775E1,-9.848162E-2,2.434297E1,5.7E1,-8.6975366E-2,8.7197565E-2,9.764259E-2,7.9135396E-2,-1.0758839E-1,3.652427E-2,-9.148316E-2,-8.981126E-2,-1.0416629E-1,4.5594476E-2,-8.6377E-2,-9.763765E-2,1.2921849E-2,-1.0577215E-1,7.074649E-2,-1.04100205E-1,-9.5840886E-2],"split_indices":[4,0,0,35,10,61,60,60,29,0,0,0,0,61,0,0,0,52,0,0,0,75,0,6,52,41,0,0,6,0,0,83,0,0,0,81,0,0,6,0,10,0,0,0,0,0,0,0,0,0,0,0,0,0,0,0,0,0,0],"split_type":[0,0,0,0,0,0,0,0,0,0,0,0,0,0,0,0,0,0,0,0,0,0,0,0,0,0,0,0,0,0,0,0,0,0,0,0,0,0,0,0,0,0,0,0,0,0,0,0,0,0,0,0,0,0,0,0,0,0,0],"sum_hessian":[1.0571244E6,3.0107003E5,7.560544E5,6.878482E4,6.8726956E5,5.1258324E4,1.7526498E4,1.4398966E5,5.432799E5,7.298252E3,4.396007E4,2.4886064E3,1.5037892E4,6.695061E2,1.4332014E5,3.824341E5,1.608458E5,1.4473829E4,5.640619E2,3.9903E2,2.7047607E2,1.4281855E5,5.0160495E2,8.610838E4,2.9632572E5,1.564848E5,4.360994E3,1.5176173E2,1.4322067E4,2.8194775E2,1.17082245E2,1.4247627E5,3.4226746E2,9.926725E1,4.0233768E2,4.664832E4,3.9460062E4,2.4414995E5,5.2175754E4,6.993251E2,1.5578548E5,3.4950789E3,8.6591516E2,7.123877E3,7.198191E3,1.4224303E5,2.3324814E2,3.9611246E4,7.0370767E3,2.368393E4,1.5776134E4,2.3814427E5,6.005692E3,1.4993418E4,3.7182336E4,5.589985E2,1.5522648E5,4.5712314E2,3.0379558E3],"tree_param":{"num_deleted":"0","num_feature":"95","num_nodes":"59","size_leaf_vector":"1"}},{"base_weights":[5.1548257E-2,-1.5030184E0,6.6165286E-1,1.3809639E0,-7.913887E-2,2.3799264E-1,1.3456221E0,-7.9115905E-2,1.7721529E0,-8.571304E-2,1.2772762E0,1.375563E0,-1.7482073E0,9.0558894E-2,-7.841333E-2,1.4637195E0,-3.0128697E-1,-1.987751E0,1.3484116E0,6.7575234E-1,1.4537536E0,-1.832677E0,-1.6912867E0,-1.6262544E0,1.6035215E0,-1.257106E0,1.463625E-1,-1.7334608E0,-2.1680565E0,1.408008E0,-1.952991E0,-1.8125536E0,1.4952258E0,1.4634409E0,-2.2237906E0,-1.9202981E0,-8.290318E-2,-8.666106E-2,-8.2166046E-2,-8.008773E-2,-1.7998818E0,1.6270874E0,-9.686094E-2,-1.7265717E0,3.1425595E-2,2.984225E-1,-2.025415E0,-7.939231E-2,-1.7878228E0,-1.1018995E-1,-9.79862E-2,-7.946696E-2,1.4474779E0,-1.7234079E0,-2.0280485E0,-1.627957E0,-1.9875766E0,-1.9039938E0,1.6120198E0,1.4713829E0,-8.74519E-2,-1.1306895E-1,-9.1724746E-2,-9.900107E-2,-9.031304E-2,-9.786581E-2,-8.437866E-2,8.178302E-2,-1.1343656E-1,-8.058334E-2,-9.981648E-2,-9.719648E-2,3.190544E-2,3.1808063E-2,-2.8020103E-2,-1.0258072E-1,-8.343307E-2,-8.749999E-2,-9.899824E-2,7.343351E-2,-1.0044606E-1,-7.8679964E-2,-8.829303E-2,-1.0210645E-1,-8.3175436E-2,-8.504079E-2,-8.0013715E-2,-9.3035184E-2,-1.0410625E-1,-8.1265815E-2,-1.072277E-1,8.281124E-2,-9.361178E-2,7.389482E-2,-9.2889056E-2],"categories":[],"categories_nodes":[],"categories_segments":[],"categories_sizes":[],"default_left":[0,0,0,0,0,0,0,0,0,0,0,0,0,0,0,0,0,0,0,0,0,0,0,0,0,0,0,0,0,0,0,0,0,0,0,0,0,0,0,0,0,0,0,0,0,0,0,0,0,0,0,0,0,0,0,0,0,0,0,0,0,0,0,0,0,0,0,0,0,0,0,0,0,0,0,0,0,0,0,0,0,0,0,0,0,0,0,0,0,0,0,0,0,0,0],"id":6,"left_children":[1,3,5,7,-1,9,11,-1,13,15,17,19,21,-1,-1,23,25,27,29,31,33,35,37,39,41,43,45,47,49,51,53,55,57,59,61,63,-1,-1,-1,-1,65,67,-1,69,71,73,75,-1,77,-1,-1,-1,79,81,83,85,87,89,91,93,-1,-1,-1,-1,-1,-1,-1,-1,-1,-1,-1,-1,-1,-1,-1,-1,-1,-1,-1,-1,-1,-1,-1,-1,-1,-1,-1,-1,-1,-1,-1,-1,-1,-1,-1],"loss_changes":[1.01738875E6,6.9546E4,2.2322566E5,9.434992E3,0E0,1.6003648E5,2.7296812E4,0E0,9.399414E2,1.21156516E5,2.6242688E4,1.59675E4,1.0128906E1,0E0,0E0,1.9140578E4,1.3624448E5,1.06319336E2,2.1757406E4,5.9812695E4,9.3548125E3,1.36623535E1,2.3535156E-1,4.936035E0,3.5397812E3,6.143853E4,7.161628E4,4.777588E0,5.7304688E0,1.28513125E4,2.9921387E1,2.3118945E2,8.763234E3,6.6823125E3,5.539551E0,1.0983887E0,0E0,0E0,0E0,0E0,3.7426758E-1,1.4099219E3,0E0,2.303875E3,3.250596E4,5.8786617E4,1.2883594E2,0E0,1.4179688E0,0E0,0E0,0E0,7.8550312E3,4.3945312E-3,3.7875977E0,4.09375E0,4.0421875E1,4.5303223E1,3.288836E3,5.665875E3,0E0,0E0,0E0,0E0,0E0,0E0,0E0,0E0,0E0,0E0,0E0,0E0,0E0,0E0,0E0,0E0,0E0,0E0,0E0,0E0,0E0,0E0,0E0,0E0,0E0,0E0,0E0,0E0,0E0,0E0,0E0,0E0,0E0,0E0,0E0],"parents":[2147483647,0,0,1,1,2,2,3,3,5,5,6,6,8,8,9,9,10,10,11,11,12,12,15,15,16,16,17,17,18,18,19,19,20,20,21,21,22,22,23,23,24,24,25,25,26,26,27,27,28,28,29,29,30,30,31,31,32,32,33,33,34,34,35,35,40,40,41,41,43,43,44,44,45,45,46,46,48,48,52,52,53,53,54,54,55,55,56,56,57,57,58,58,59,59],"right_children":[2,4,6,8,-1,10,12,-1,14,16,18,20,22,-1,-1,24,26,28,30,32,34,36,38,40,42,44,46,48,50,52,54,56,58,60,62,64,-1,-1,-1,-1,66,68,-1,70,72,74,76,-1,78,-1,-1,-1,80,82,84,86,88,90,92,94,-1,-1,-1,-1,-1,-1,-1,-1,-1,-1,-1,-1,-1,-1,-1,-1,-1,-1,-1,-1,-1,-1,-1,-1,-1,-1,-1,-1,-1,-1,-1,-1,-1,-1,-1],"split_conditions":[1E0,-6.666666E-1,3.3333325E-1,1.77E2,-7.913887E-2,1E0,6.1E1,-7.9115905E-2,1.78E2,1E0,-1.333333E0,3.6E1,3.333335E-1,9.0558894E-2,-7.841333E-2,4E1,8.3333336E-2,4E1,2E0,1E0,1E0,7.4E1,1.5295663E2,3.6E1,4E0,1.33E2,1.9221419E2,2.9E1,4E0,2.9E1,3.9E1,2.9E1,3E0,2.1934953E2,1.8843626E2,1E0,-8.290318E-2,-8.666106E-2,-8.2166046E-2,-8.008773E-2,2.7923784E0,1.3924194E5,-9.686094E-2,4E1,1E0,8E0,7.4E1,-7.939231E-2,1E0,-1.1018995E-1,-9.79862E-2,-7.946696E-2,1E0,2.9E1,7E1,1E0,1E0,2.9E1,9.272466E4,1E0,-8.74519E-2,-1.1306895E-1,-9.1724746E-2,-9.900107E-2,-9.031304E-2,-9.786581E-2,-8.437866E-2,8.178302E-2,-1.1343656E-1,-8.058334E-2,-9.981648E-2,-9.719648E-2,3.190544E-2,3.1808063E-2,-2.8020103E-2,-1.0258072E-1,-8.343307E-2,-8.749999E-2,-9.899824E-2,7.343351E-2,-1.0044606E-1,-7.8679964E-2,-8.829303E-2,-1.0210645E-1,-8.3175436E-2,-8.504079E-2,-8.0013715E-2,-9.3035184E-2,-1.0410625E-1,-8.1265815E-2,-1.072277E-1,8.281124E-2,-9.361178E-2,7.389482E-2,-9.2889056E-2],"split_indices":[4,49,49,2,0,46,0,0,2,50,49,0,49,0,0,0,36,0,38,49,83,0,10,0,52,2,10,0,52,0,0,0,38,10,10,45,0,0,0,0,10,5,0,0,63,8,0,0,29,0,0,0,75,0,0,61,45,0,5,91,0,0,0,0,0,0,0,0,0,0,0,0,0,0,0,0,0,0,0,0,0,0,0,0,0,0,0,0,0,0,0,0,0,0,0],"split_type":[0,0,0,0,0,0,0,0,0,0,0,0,0,0,0,0,0,0,0,0,0,0,0,0,0,0,0,0,0,0,0,0,0,0,0,0,0,0,0,0,0,0,0,0,0,0,0,0,0,0,0,0,0,0,0,0,0,0,0,0,0,0,0,0,0,0,0,0,0,0,0,0,0,0,0,0,0,0,0,0,0,0,0,0,0,0,0,0,0,0,0,0,0,0,0],"sum_hessian":[1.0726859E6,3.023321E5,7.7035375E5,8.135771E3,2.941963E5,4.7569997E5,2.9465378E5,9.483856E2,7.1873853E3,3.6272334E5,1.12976625E5,2.9183016E5,2.823638E3,7.104869E3,8.251605E1,4.4301453E4,3.1842188E5,2.4083416E3,1.1056829E5,2.933057E4,2.6249956E5,1.123467E3,1.7001709E3,1.9171125E3,4.238434E4,1.0156316E5,2.1685872E5,1.0038094E3,1.4045322E3,1.0860831E5,1.9599773E3,7.2660615E3,2.206451E4,2.6181055E5,6.8902325E2,7.410421E2,3.8242496E2,8.872585E2,8.129125E2,1.6895131E3,2.275996E2,4.2104676E4,2.7966428E2,7.444095E4,2.7122205E4,2.0266945E5,1.4189271E4,2.8158963E2,7.222197E2,1.1902668E3,2.1426538E2,1.4110532E3,1.0719726E5,4.8913245E2,1.4708448E3,3.541605E3,3.7244568E3,7.323963E2,2.1332113E4,2.6116545E5,6.450943E2,6.237328E2,6.529045E1,4.7502396E2,2.660182E2,8.7551445E1,1.4004816E2,4.2012832E4,9.184617E1,5.2209406E4,2.2231543E4,6.3721553E3,2.075005E4,1.4546478E5,5.720467E4,1.3213841E4,9.7543024E2,6.1231396E2,1.0990579E2,1.065446E5,6.5265265E2,1.169296E2,3.7220285E2,1.4114504E3,5.9394333E1,9.575001E2,2.5841047E3,1.5996497E3,2.1248071E3,3.431014E2,3.892949E2,2.1065408E4,2.6670465E2,2.6065608E5,5.0938132E2],"tree_param":{"num_deleted":"0","num_feature":"95","num_nodes":"95","size_leaf_vector":"1"}},{"base_weights":[3.6874772E-3,-1.460495E0,5.9706E-1,-7.6921806E-2,1.1684448E0,-8.5678995E-1,7.430883E-1,-7.689833E-2,1.679943E0,-1.5488375E0,1.1319518E0,5.0843406E-1,1.3205487E0,-7.62623E-2,8.671298E-2,-1.5415087E0,-7.965198E-2,-7.8400485E-2,1.5731448E0,1.5496147E0,3.6665523E-1,1.369373E0,-1.8533776E0,-7.6891325E-2,-7.849146E-2,1.6970295E0,-8.1359684E-2,1.5938135E0,-1.9516534E0,9.467465E-2,1.1562576E0,1.3920302E0,-8.3932705E-2,-2.1173067E0,-1.7577082E0,1.7313659E0,-8.078004E-2,-8.040334E-2,1.6150484E0,-8.4040165E-2,-2.166636E0,-9.3588166E-2,1.0378721E0,1.2429392E0,-1.8014673E0,1.4073733E0,-1.9491295E0,-1.1176264E-1,-8.25833E-2,-1.854927E0,-1.6949458E0,8.111306E-2,9.183979E-2,8.13487E-2,-1.0706337E-1,-9.253865E-2,-1.1476578E-1,-8.3838716E-2,2.1076875E-3,-9.6989505E-2,5.9408337E-2,6.778563E-2,1.4239522E-2,-9.114697E-2,-8.10981E-2,7.071742E-2,-1.0348322E-1,-9.00738E-2,-9.9624746E-2,-9.553877E-2,-8.038365E-2,-8.368012E-2,-9.08436E-2],"categories":[],"categories_nodes":[],"categories_segments":[],"categories_sizes":[],"default_left":[0,0,0,0,0,0,0,0,0,0,0,0,0,0,0,0,0,0,0,0,0,0,0,0,0,0,0,0,0,0,0,0,0,0,0,0,0,0,0,0,0,0,0,0,0,0,0,0,0,0,0,0,0,0,0,0,0,0,0,0,0,0,0,0,0,0,0,0,0,0,0,0,0],"id":7,"left_children":[1,3,5,-1,7,9,11,-1,13,15,17,19,21,-1,-1,23,-1,-1,25,27,29,31,33,-1,-1,35,-1,37,39,41,43,45,-1,47,49,51,-1,-1,53,-1,55,57,59,61,63,65,67,-1,-1,69,71,-1,-1,-1,-1,-1,-1,-1,-1,-1,-1,-1,-1,-1,-1,-1,-1,-1,-1,-1,-1,-1,-1],"loss_changes":[8.9038075E5,6.0560438E4,1.5483002E5,0E0,1.178384E4,9.1616195E4,8.980003E4,0E0,1.2488691E3,1.3234375E1,2.047269E4,6.956149E4,2.967625E4,0E0,0E0,1.703125E0,0E0,0E0,5.859215E3,8.743094E3,8.907161E4,1.3026125E4,6.915137E1,0E0,0E0,1.6204023E3,0E0,3.7947344E3,3.699463E1,5.4779605E4,2.7245625E4,9.5990625E3,0E0,3.8029053E1,9.532715E0,1.5858984E2,0E0,0E0,2.4854688E3,0E0,1.1151611E1,5.5266605E4,2.2974082E4,1.1154578E4,8.363281E0,4.5220938E3,1.5129395E0,0E0,0E0,7.9904785E0,1.8798828E-2,0E0,0E0,0E0,0E0,0E0,0E0,0E0,0E0,0E0,0E0,0E0,0E0,0E0,0E0,0E0,0E0,0E0,0E0,0E0,0E0,0E0,0E0],"parents":[2147483647,0,0,1,1,2,2,4,4,5,5,6,6,8,8,9,9,10,10,11,11,12,12,15,15,18,18,19,19,20,20,21,21,22,22,25,25,27,27,28,28,29,29,30,30,31,31,33,33,34,34,35,35,38,38,40,40,41,41,42,42,43,43,44,44,45,45,46,46,49,49,50,50],"right_children":[2,4,6,-1,8,10,12,-1,14,16,18,20,22,-1,-1,24,-1,-1,26,28,30,32,34,-1,-1,36,-1,38,40,42,44,46,-1,48,50,52,-1,-1,54,-1,56,58,60,62,64,66,68,-1,-1,70,72,-1,-1,-1,-1,-1,-1,-1,-1,-1,-1,-1,-1,-1,-1,-1,-1,-1,-1,-1,-1,-1,-1],"split_conditions":[1E0,1E0,2.9E1,-7.6921806E-2,1E0,3E0,1E0,-7.689833E-2,6.3E1,1E0,1E0,1E0,1.7743102E2,-7.62623E-2,8.671298E-2,2E0,-7.965198E-2,-7.8400485E-2,2.4E1,1E0,1E0,6.1E1,1.8843626E2,-7.6891325E-2,-7.849146E-2,1E0,-8.1359684E-2,4E1,3.9E1,1E0,5.7E1,1E0,-8.3932705E-2,5.9E1,2.0499342E2,4.632063E1,-8.078004E-2,-8.040334E-2,1E0,-8.4040165E-2,1E0,3.7E1,7.831059E4,1.5397158E5,7.4E1,1E0,3.6E1,-1.1176264E-1,-8.25833E-2,6.1E1,1E0,8.111306E-2,9.183979E-2,8.13487E-2,-1.0706337E-1,-9.253865E-2,-1.1476578E-1,-8.3838716E-2,2.1076875E-3,-9.6989505E-2,5.9408337E-2,6.778563E-2,1.4239522E-2,-9.114697E-2,-8.10981E-2,7.071742E-2,-1.0348322E-1,-9.00738E-2,-9.9624746E-2,-9.553877E-2,-8.038365E-2,-8.368012E-2,-9.08436E-2],"split_indices":[4,46,0,0,75,35,45,0,0,60,60,50,10,0,0,35,0,0,0,7,29,0,10,0,0,56,0,0,0,46,0,75,0,0,10,10,0,0,81,0,56,0,5,5,0,68,0,0,0,0,46,0,0,0,0,0,0,0,0,0,0,0,0,0,0,0,0,0,0,0,0,0,0],"split_type":[0,0,0,0,0,0,0,0,0,0,0,0,0,0,0,0,0,0,0,0,0,0,0,0,0,0,0,0,0,0,0,0,0,0,0,0,0,0,0,0,0,0,0,0,0,0,0,0,0,0,0,0,0,0,0,0,0,0,0,0,0,0,0,0,0,0,0,0,0,0,0,0,0],"sum_hessian":[1.02483106E6,2.9554772E5,7.292834E5,2.8703825E5,8.509462E3,6.656454E4,6.627188E5,1.3522594E3,7.157203E3,4.9381062E4,1.718348E4,4.7123275E5,1.9148605E5,1.18785805E2,7.038417E3,4.2390715E4,6.990345E3,2.413127E3,1.4770354E4,5.647641E4,4.1475634E5,1.8858566E5,2.9004011E3,3.7565273E4,4.825442E3,1.4220385E4,5.4996844E2,5.5772926E4,7.034877E2,3.084955E5,1.06260836E5,1.8719473E5,1.3909253E3,7.65737E2,2.134664E3,1.4075001E4,1.4538432E2,3.6692535E2,5.5406E4,3.1540363E2,3.88084E2,2.5716584E5,5.132967E4,1.0323593E5,3.0249062E3,1.8633964E5,8.550897E2,6.0777374E2,1.5796329E2,8.25625E2,1.309039E3,6.9254688E3,7.1495317E3,5.5231242E4,1.7475497E2,1.1701462E2,2.710694E2,2.0307275E4,2.3685856E5,2.4657273E3,4.8863945E4,9.236422E4,1.0871714E4,2.6930557E3,3.318505E2,1.859672E5,3.724356E2,2.0430496E2,6.507847E2,6.6768036E2,1.5794469E2,1.1272579E3,1.8178107E2],"tree_param":{"num_deleted":"0","num_feature":"95","num_nodes":"73","size_leaf_vector":"1"}},{"base_weights":[-4.7721088E-2,-7.492929E-2,5.403563E-1,2.0898953E-1,1.2200977E0,-7.3185885E-1,4.9896038E-1,1.2521663E0,-1.6945928E0,-1.5331655E0,9.298496E-2,1.5878835E0,3.2702976E-1,1.2763753E0,-1.8094571E0,-2.0128498E0,-1.6318696E0,-1.5026166E0,-1.6183071E0,5.8275694E-1,-1.6870929E0,-1.09768346E-1,1.5954258E0,5.384389E-1,-5.296204E-1,1.2938441E0,-1.8596027E0,-2.0108202E0,-1.7114198E0,-1.06245175E-1,-8.630298E-2,-1.7270968E0,-7.867761E-2,-7.682925E-2,-7.488247E-2,-1.5893241E0,-1.6838135E0,-1.657603E0,9.575861E-1,-1.6577048E0,-1.9931397E0,1.6019422E0,-9.551796E-2,6.122856E-1,-1.7318594E0,1.4086978E-1,-1.9117801E0,1.3085899E0,-1.6646057E0,-1.5892944E0,-2.0157034E0,-1.05374835E-1,-8.7345354E-2,-9.137481E-2,-8.056923E-2,-1.7783201E0,-7.854825E-2,-7.8720294E-2,-8.7288104E-2,-8.290111E-2,-8.63723E-2,-7.708309E-2,-8.5113E-2,6.116681E-2,-9.128235E-2,-7.7064045E-2,-8.517118E-2,-7.6514885E-2,-1.0210549E-1,8.949446E-2,7.618702E-2,1.6093804E-2,5.0015356E-2,-1.02769315E-1,-8.314138E-2,-9.364173E-2,4.631874E-2,-9.6570216E-2,-8.494208E-2,4.7900777E-2,7.03975E-2,-7.817118E-2,-9.0723164E-2,-7.448111E-2,-8.5249186E-2,-1.1235797E-1,-9.779736E-2,-9.2485175E-2,-8.0853954E-2],"categories":[],"categories_nodes":[],"categories_segments":[],"categories_sizes":[],"default_left":[0,0,0,0,0,0,0,0,0,0,0,0,0,0,0,0,0,0,0,0,0,0,0,0,0,0,0,0,0,0,0,0,0,0,0,0,0,0,0,0,0,0,0,0,0,0,0,0,0,0,0,0,0,0,0,0,0,0,0,0,0,0,0,0,0,0,0,0,0,0,0,0,0,0,0,0,0,0,0,0,0,0,0,0,0,0,0,0,0],"id":8,"left_children":[1,-1,3,5,7,9,11,13,15,17,19,21,23,25,27,29,31,33,35,37,39,-1,41,43,45,47,49,51,53,-1,-1,55,-1,-1,-1,57,59,61,63,65,67,69,-1,71,73,75,77,79,81,83,85,-1,-1,-1,-1,87,-1,-1,-1,-1,-1,-1,-1,-1,-1,-1,-1,-1,-1,-1,-1,-1,-1,-1,-1,-1,-1,-1,-1,-1,-1,-1,-1,-1,-1,-1,-1,-1,-1],"loss_changes":[8.3331206E5,0E0,1.5653802E5,1.2746493E5,2.1290875E4,7.275269E4,6.686324E4,1.6699969E4,4.5837402E1,1.4246875E2,4.7289305E4,1.3930781E3,5.586062E4,1.2247E4,3.1083984E1,8.916992E0,8.483398E0,4.3359375E0,2.4960938E1,3.572247E4,1.0159766E2,0E0,1.1133828E3,4.1477164E4,5.657983E4,9.6989375E3,4.8697754E1,1.0547363E1,1.0598633E1,0E0,0E0,3.0913086E0,0E0,0E0,0E0,2.0794922E1,1.8603516E0,2.861914E1,2.6955832E4,5.3921875E1,1.9639648E1,7.099844E2,0E0,2.6998805E4,1.7027344E2,6.503031E4,7.96875E1,7.7027188E3,1.3547119E1,2.4263916E0,5.989258E0,0E0,0E0,0E0,0E0,3.3100586E0,0E0,0E0,0E0,0E0,0E0,0E0,0E0,0E0,0E0,0E0,0E0,0E0,0E0,0E0,0E0,0E0,0E0,0E0,0E0,0E0,0E0,0E0,0E0,0E0,0E0,0E0,0E0,0E0,0E0,0E0,0E0,0E0,0E0],"parents":[2147483647,0,0,2,2,3,3,4,4,5,5,6,6,7,7,8,8,9,9,10,10,11,11,12,12,13,13,14,14,15,15,16,16,17,17,18,18,19,19,20,20,22,22,23,23,24,24,25,25,26,26,27,27,28,28,31,31,35,35,36,36,37,37,38,38,39,39,40,40,41,41,43,43,44,44,45,45,46,46,47,47,48,48,49,49,50,50,55,55],"right_children":[2,-1,4,6,8,10,12,14,16,18,20,22,24,26,28,30,32,34,36,38,40,-1,42,44,46,48,50,52,54,-1,-1,56,-1,-1,-1,58,60,62,64,66,68,70,-1,72,74,76,78,80,82,84,86,-1,-1,-1,-1,88,-1,-1,-1,-1,-1,-1,-1,-1,-1,-1,-1,-1,-1,-1,-1,-1,-1,-1,-1,-1,-1,-1,-1,-1,-1,-1,-1,-1,-1,-1,-1,-1,-1],"split_conditions":[1E0,-7.492929E-2,3.333333E-1,4E1,5.9E1,2E0,1E0,1.8843626E2,6.1E1,2.9E1,1E0,6.233097E4,4E0,2.0904627E5,1E0,1.7197766E2,1E0,1E0,3.7E1,3.8E1,1E0,-1.09768346E-1,1E0,7.2E1,1.1174904E5,1E0,3.6E1,2.1934953E2,2.05E2,-1.06245175E-1,-8.630298E-2,1E0,-7.867761E-2,-7.682925E-2,-7.488247E-2,1E0,3.9E1,2.9E1,3.7E1,2.9E1,2.9E1,0E0,-9.551796E-2,3.3333333E0,7.4E1,8.664927E4,7.4E1,4E1,3.7E1,2.9E1,2.2381845E5,-1.05374835E-1,-8.7345354E-2,-9.137481E-2,-8.056923E-2,7.4E1,-7.854825E-2,-7.8720294E-2,-8.7288104E-2,-8.290111E-2,-8.63723E-2,-7.708309E-2,-8.5113E-2,6.116681E-2,-9.128235E-2,-7.7064045E-2,-8.517118E-2,-7.6514885E-2,-1.0210549E-1,8.949446E-2,7.618702E-2,1.6093804E-2,5.0015356E-2,-1.02769315E-1,-8.314138E-2,-9.364173E-2,4.631874E-2,-9.6570216E-2,-8.494208E-2,4.7900777E-2,7.03975E-2,-7.817118E-2,-9.0723164E-2,-7.448111E-2,-8.5249186E-2,-1.1235797E-1,-9.779736E-2,-9.2485175E-2,-8.0853954E-2],"split_indices":[4,0,49,0,0,35,50,10,0,0,58,5,52,5,47,10,47,61,0,2,29,0,75,0,5,91,0,10,2,0,0,29,0,0,0,46,0,0,0,0,0,47,0,48,0,5,0,0,0,0,5,0,0,0,0,0,0,0,0,0,0,0,0,0,0,0,0,0,0,0,0,0,0,0,0,0,0,0,0,0,0,0,0,0,0,0,0,0,0],"split_type":[0,0,0,0,0,0,0,0,0,0,0,0,0,0,0,0,0,0,0,0,0,0,0,0,0,0,0,0,0,0,0,0,0,0,0,0,0,0,0,0,0,0,0,0,0,0,0,0,0,0,0,0,0,0,0,0,0,0,0,0,0,0,0,0,0,0,0,0,0,0,0,0,0,0,0,0,0,0,0,0,0,0,0,0,0,0,0,0,0],"sum_hessian":[9.7666444E5,2.816919E5,6.9497256E5,4.6721272E5,2.2775983E5,1.10071016E5,3.571417E5,2.252818E5,2.4780308E3,5.583173E4,5.4239285E4,4.869881E4,3.084429E5,2.2351503E5,1.7667745E3,4.0259357E2,2.0754373E3,4.110362E4,1.4728111E4,4.2536492E4,1.1702794E4,9.628998E1,4.8602516E4,2.4739083E5,6.1052074E4,2.2227745E5,1.2375712E3,5.7179974E2,1.1949749E3,2.8462726E2,1.1796629E2,7.7674725E2,1.2986901E3,5.201922E3,3.59017E4,1.0229089E4,4.4990225E3,6.0961304E3,3.644036E4,1.06836455E4,1.01914874E3,4.8512914E4,8.960225E1,2.3959812E5,7.7927056E3,4.1110203E4,1.994187E4,2.2117564E5,1.1018102E3,4.5738052E2,7.801906E2,4.1310623E2,1.586935E2,5.4468243E2,6.5029236E2,5.7656036E2,2.0018689E2,9.349231E3,8.798573E2,2.8535667E3,1.6454559E3,1.7056256E3,4.390505E3,3.3264754E4,3.1756067E3,3.022826E3,7.6608193E3,1.00792816E2,9.1835596E2,1.4247611E4,3.4265305E4,1.3703681E5,1.02561305E5,1.3650443E3,6.427661E3,1.1535787E4,2.9574416E4,1.8251314E4,1.6905552E3,4.8845355E4,1.7233028E5,6.6494604E2,4.3686414E2,2.5361699E2,2.0376355E2,1.5223964E2,6.279509E2,3.919483E2,1.8461203E2],"tree_param":{"num_deleted":"0","num_feature":"95","num_nodes":"89","size_leaf_vector":"1"}},{"base_weights":[5.60692E-2,-7.312956E-2,6.168387E-1,2.8241578E-1,1.2257115E0,1.4704655E0,1.0088731E-1,1.2483977E0,-1.7281343E0,-7.395865E-2,1.5280284E0,-4.378717E-1,6.717309E-1,1.263667E0,-1.6634784E0,-1.7610825E0,-7.6710135E-2,1.5526695E0,-1.7892752E0,-1.044586E0,7.092801E-1,7.877228E-1,-1.9447255E0,1.2767637E0,-1.6148137E0,-1.7996045E0,-7.903836E-2,-9.6106924E-2,-1.7194873E0,-8.952331E-2,1.5579171E0,-9.2944086E-2,-8.120367E-2,4.135678E-1,-1.5107405E0,8.378266E-1,-2.0132809E0,9.0867686E-1,-1.5016172E0,-2.0344245E0,-1.7617366E0,1.2853186E0,-1.9022405E0,-8.3389394E-2,-7.4079044E-2,-9.410488E-2,-8.3995074E-2,-8.830951E-2,-1.6084111E0,7.8101955E-2,-1.0005253E-1,5.979457E-2,-8.222101E-2,-8.855113E-2,4.509397E-2,-9.661064E-2,4.9116712E-2,-1.0426118E-1,-9.335571E-2,4.8360836E-2,-9.666719E-2,-7.3966235E-2,-8.2115136E-2,-1.0484167E-1,-9.761992E-2,-9.047153E-2,-8.5123144E-2,5.8738083E-2,7.369619E-2,-9.698565E-2,-8.301678E-2,-8.65515E-2,-7.715472E-2],"categories":[],"categories_nodes":[],"categories_segments":[],"categories_sizes":[],"default_left":[0,0,0,0,0,0,0,0,0,0,0,0,0,0,0,0,0,0,0,0,0,0,0,0,0,0,0,0,0,0,0,0,0,0,0,0,0,0,0,0,0,0,0,0,0,0,0,0,0,0,0,0,0,0,0,0,0,0,0,0,0,0,0,0,0,0,0,0,0,0,0,0,0],"id":9,"left_children":[1,-1,3,5,7,9,11,13,15,-1,17,19,21,23,25,27,-1,29,31,33,35,37,39,41,43,45,-1,-1,47,-1,49,-1,-1,51,53,55,57,59,61,63,65,67,69,-1,-1,-1,-1,-1,71,-1,-1,-1,-1,-1,-1,-1,-1,-1,-1,-1,-1,-1,-1,-1,-1,-1,-1,-1,-1,-1,-1,-1,-1],"loss_changes":[8.6639025E5,0E0,1.5128856E5,1.0342917E5,1.7653656E4,1.0795031E4,1.2794598E5,1.1624625E4,9.799805E0,0E0,5.0993125E3,1.4896075E5,6.130464E4,9.805156E3,1.2174805E1,7.7807617E0,0E0,1.0885469E3,1.9241943E0,9.515403E4,2.5913129E4,5.3560734E4,1.367832E2,7.0424688E3,5.529541E0,1.4969482E0,0E0,0E0,3.920166E0,0E0,9.096094E2,0E0,0E0,5.4600895E4,6.661378E4,2.8302738E4,3.0816406E1,3.056689E4,2.7701172E1,2.4923828E1,4.564453E0,5.3812812E3,2.720459E0,0E0,0E0,0E0,0E0,0E0,3.4020996E-1,0E0,0E0,0E0,0E0,0E0,0E0,0E0,0E0,0E0,0E0,0E0,0E0,0E0,0E0,0E0,0E0,0E0,0E0,0E0,0E0,0E0,0E0,0E0,0E0],"parents":[2147483647,0,0,2,2,3,3,4,4,5,5,6,6,7,7,8,8,10,10,11,11,12,12,13,13,14,14,15,15,17,17,18,18,19,19,20,20,21,21,22,22,23,23,24,24,25,25,28,28,30,30,33,33,34,34,35,35,36,36,37,37,38,38,39,39,40,40,41,41,42,42,48,48],"right_children":[2,-1,4,6,8,10,12,14,16,-1,18,20,22,24,26,28,-1,30,32,34,36,38,40,42,44,46,-1,-1,48,-1,50,-1,-1,52,54,56,58,60,62,64,66,68,70,-1,-1,-1,-1,-1,72,-1,-1,-1,-1,-1,-1,-1,-1,-1,-1,-1,-1,-1,-1,-1,-1,-1,-1,-1,-1,-1,-1,-1,-1],"split_conditions":[1E0,-7.312956E-2,3.3333325E-1,1E0,2.2381845E5,1E0,1.1830768E1,2.0499342E2,1E0,-7.395865E-2,1E0,1E0,1.96E2,1E0,1E0,3.333333E-1,-7.6710135E-2,5.080668E4,4E0,5.156034E4,1.1740866E5,1E0,4E0,1E0,1E0,2.19E2,-7.903836E-2,-9.6106924E-2,1.88E2,-8.952331E-2,2.2788055E5,-9.2944086E-2,-8.120367E-2,6E0,1E0,1.1046038E1,4E0,1E0,3E0,2.19E2,2.19E2,6.66667E-1,1E0,-8.3389394E-2,-7.4079044E-2,-9.410488E-2,-8.3995074E-2,-8.830951E-2,1E0,7.8101955E-2,-1.0005253E-1,5.979457E-2,-8.222101E-2,-8.855113E-2,4.509397E-2,-9.661064E-2,4.9116712E-2,-1.0426118E-1,-9.335571E-2,4.8360836E-2,-9.666719E-2,-7.3966235E-2,-8.2115136E-2,-1.0484167E-1,-9.761992E-2,-9.047153E-2,-8.5123144E-2,5.8738083E-2,7.369619E-2,-9.698565E-2,-8.301678E-2,-8.65515E-2,-7.715472E-2],"split_indices":[4,0,49,50,5,60,6,10,61,0,69,23,2,91,45,49,0,5,52,5,5,61,52,68,61,2,0,0,2,0,5,0,0,8,69,6,52,81,35,2,2,49,61,0,0,0,0,0,45,0,0,0,0,0,0,0,0,0,0,0,0,0,0,0,0,0,0,0,0,0,0,0,0],"split_type":[0,0,0,0,0,0,0,0,0,0,0,0,0,0,0,0,0,0,0,0,0,0,0,0,0,0,0,0,0,0,0,0,0,0,0,0,0,0,0,0,0,0,0,0,0,0,0,0,0,0,0,0,0,0,0,0,0,0,0,0,0,0,0,0,0,0,0,0,0,0,0,0,0],"sum_hessian":[1.01734375E6,2.7435134E5,7.429924E5,4.7958325E5,2.6340916E5,6.3564547E4,4.1601872E5,2.6140212E5,2.0070201E3,1.2162268E3,6.234832E4,2.1402405E5,2.0199466E5,2.6003914E5,1.3629907E3,1.708206E3,2.9881403E2,6.1889168E4,4.5915283E2,1.399869E5,7.403715E4,1.9342072E5,8.573929E3,2.5886194E5,1.1771896E3,5.068502E2,8.561405E2,3.4084488E2,1.3673612E3,9.643E1,6.179274E4,3.154028E2,1.4375003E2,3.391114E4,1.0607576E5,7.0699766E4,3.3373816E3,1.8371505E5,9.705681E3,5.7464297E3,2.8274993E3,2.5816781E5,6.94125E2,8.3351215E2,3.4367746E2,2.908519E2,2.159983E2,9.5149634E2,4.1586484E2,6.172184E4,7.089786E1,2.4571137E4,9.340006E3,9.5746586E4,1.0329172E4,3.5047532E3,6.7195016E4,2.2272097E3,1.1101718E3,1.8000794E5,3.7071047E3,8.388673E3,1.3170083E3,3.2488176E3,2.4976123E3,1.5494993E3,1.2779999E3,1.6276542E5,9.540239E4,5.94588E2,9.953697E1,1.3513779E2,2.8072702E2],"tree_param":{"num_deleted":"0","num_feature":"95","num_nodes":"73","size_leaf_vector":"1"}},{"base_weights":[9.881994E-2,-1.3468457E0,6.281131E-1,1.4112736E0,-7.1497895E-2,-1.0613114E0,7.6430446E-1,-7.1506925E-2,1.7530137E0,-1.4481763E0,9.982101E-1,5.16907E-1,1.2557408E0,8.940427E-2,-7.0966676E-2,-1.4377965E0,-1.574596E0,-7.6866426E-2,1.4664822E0,8.655347E-1,1.7335898E-1,1.2815528E0,-1.5980393E0,-1.4931014E0,-1.4292378E0,-7.1786955E-2,-1.5906497E0,1.6285092E0,-7.781697E-2,-3.3529183E-1,1.0649786E0,-1.9808275E-1,1.1975814E0,1.2937601E0,-2.2111366E0,-1.7228129E0,-1.5599461E0,-7.332613E-2,-7.660238E-2,-7.1232766E-2,-7.344875E-2,-8.35E-2,-1.5616605E0,-8.0763504E-2,8.355905E-2,-9.103938E-1,1.2717314E0,1.1090015E0,-2.0745952E0,2.0704968E-2,-1.9201192E0,1.2985586E0,-2.0068512E0,-1.6305345E0,1.302799E0,-2.2473276E0,-8.3391E-2,-8.889239E-2,-7.8816466E-2,-8.015487E-2,-7.5473264E-2,-7.85728E-2,-7.124599E-2,7.290902E-2,-9.0134315E-2,-8.850303E-2,9.0655416E-2,5.7581764E-2,-7.994755E-2,-1.056995E-1,-7.965507E-2,-1.0326471E-2,6.2622555E-2,-1.0164131E-1,-9.038928E-2,-9.076474E-2,6.915947E-2,-1.0679851E-1,-9.297675E-2,-7.678357E-2,-8.399033E-2,6.5472126E-2,-1.22936904E-1,-1.0212865E-1,-1.1758766E-1],"categories":[],"categories_nodes":[],"categories_segments":[],"categories_sizes":[],"default_left":[0,0,0,0,0,0,0,0,0,0,0,0,0,0,0,0,0,0,0,0,0,0,0,0,0,0,0,0,0,0,0,0,0,0,0,0,0,0,0,0,0,0,0,0,0,0,0,0,0,0,0,0,0,0,0,0,0,0,0,0,0,0,0,0,0,0,0,0,0,0,0,0,0,0,0,0,0,0,0,0,0,0,0,0,0],"id":10,"left_children":[1,3,5,7,-1,9,11,-1,13,15,17,19,21,-1,-1,23,25,-1,27,29,31,33,35,37,39,-1,41,43,-1,45,47,49,51,53,55,57,59,-1,-1,-1,-1,-1,61,-1,-1,63,65,67,69,71,73,75,77,79,81,83,-1,-1,-1,-1,-1,-1,-1,-1,-1,-1,-1,-1,-1,-1,-1,-1,-1,-1,-1,-1,-1,-1,-1,-1,-1,-1,-1,-1,-1],"loss_changes":[7.8282456E5,6.2853594E4,1.7230606E5,7.79101E3,0E0,4.4513668E4,8.425547E4,0E0,7.9921875E2,5.915625E1,1.049243E4,5.5208938E4,1.7095531E4,0E0,0E0,1.8140625E1,5.34375E0,0E0,3.6554941E3,5.4794484E4,8.83277E4,9.807875E3,6.8725586E0,3.459961E0,4.484375E0,0E0,4.3813477E0,9.82625E2,0E0,3.0118521E4,2.7119781E4,6.4193715E4,1.999636E4,6.0597188E3,1.1616943E1,7.0288086E-1,7.651367E-1,0E0,0E0,0E0,0E0,0E0,6.015625E-1,0E0,0E0,5.072492E4,1.4146936E4,2.234011E4,4.773047E1,4.2313938E4,2.3911719E2,1.5788695E4,3.1541016E1,4.0161133E-1,5.7124375E3,1.0755127E1,0E0,0E0,0E0,0E0,0E0,0E0,0E0,0E0,0E0,0E0,0E0,0E0,0E0,0E0,0E0,0E0,0E0,0E0,0E0,0E0,0E0,0E0,0E0,0E0,0E0,0E0,0E0,0E0,0E0],"parents":[2147483647,0,0,1,1,2,2,3,3,5,5,6,6,8,8,9,9,10,10,11,11,12,12,15,15,16,16,18,18,19,19,20,20,21,21,22,22,23,23,24,24,26,26,27,27,29,29,30,30,31,31,32,32,33,33,34,34,35,35,36,36,42,42,45,45,46,46,47,47,48,48,49,49,50,50,51,51,52,52,53,53,54,54,55,55],"right_children":[2,4,6,8,-1,10,12,-1,14,16,18,20,22,-1,-1,24,26,-1,28,30,32,34,36,38,40,-1,42,44,-1,46,48,50,52,54,56,58,60,-1,-1,-1,-1,-1,62,-1,-1,64,66,68,70,72,74,76,78,80,82,84,-1,-1,-1,-1,-1,-1,-1,-1,-1,-1,-1,-1,-1,-1,-1,-1,-1,-1,-1,-1,-1,-1,-1,-1,-1,-1,-1,-1,-1],"split_conditions":[1E0,-6.666666E-1,2.9E1,1.77E2,-7.1497895E-2,1E0,3.333333E-1,-7.1506925E-2,1.78E2,3.3333302E-1,1E0,3E0,6.1E1,8.940427E-2,-7.0966676E-2,1E0,1E0,-7.6866426E-2,2.4E1,4.4E1,1E0,1E0,3.333335E-1,1.3741398E5,8.3333336E-2,-7.1786955E-2,1E0,1.5078423E5,-7.781697E-2,1E0,1E0,1E0,1.7743102E2,1E0,1.86728E2,7.4E1,1.5295663E2,-7.332613E-2,-7.660238E-2,-7.1232766E-2,-7.344875E-2,-8.35E-2,2.0904627E5,-8.0763504E-2,8.355905E-2,3.285151E0,1E0,7.4E1,7.4E1,1E0,4E0,7.831059E4,4E0,3.7E1,1E0,1E0,-8.3391E-2,-8.889239E-2,-7.8816466E-2,-8.015487E-2,-7.5473264E-2,-7.85728E-2,-7.124599E-2,7.290902E-2,-9.0134315E-2,-8.850303E-2,9.0655416E-2,5.7581764E-2,-7.994755E-2,-1.056995E-1,-7.965507E-2,-1.0326471E-2,6.2622555E-2,-1.0164131E-1,-9.038928E-2,-9.076474E-2,6.915947E-2,-1.0679851E-1,-9.297675E-2,-7.678357E-2,-8.399033E-2,6.5472126E-2,-1.22936904E-1,-1.0212865E-1,-1.1758766E-1],"split_indices":[4,49,0,2,0,23,49,0,2,49,34,52,0,0,0,61,90,0,0,0,46,83,49,5,36,0,61,5,0,75,75,42,10,90,10,0,10,0,0,0,0,0,5,0,0,10,29,0,0,82,52,5,52,0,74,45,0,0,0,0,0,0,0,0,0,0,0,0,0,0,0,0,0,0,0,0,0,0,0,0,0,0,0,0,0],"split_type":[0,0,0,0,0,0,0,0,0,0,0,0,0,0,0,0,0,0,0,0,0,0,0,0,0,0,0,0,0,0,0,0,0,0,0,0,0,0,0,0,0,0,0,0,0,0,0,0,0,0,0,0,0,0,0,0,0,0,0,0,0,0,0,0,0,0,0,0,0,0,0,0,0,0,0,0,0,0,0,0,0,0,0,0,0],"sum_hessian":[1.0230562E6,2.7418078E5,7.4887544E5,8.0198794E3,2.661609E5,5.5865723E4,6.930097E5,8.606331E2,7.1592466E3,4.7031562E4,8.834162E3,4.6095784E5,2.3205186E5,7.0814263E3,7.7820335E1,4.347517E4,3.5563867E3,1.3767919E3,7.4573696E3,2.287866E5,2.3217123E5,2.2997238E5,2.0794858E3,5.801466E3,3.7673707E4,3.785733E2,3.1778135E3,7.07845E3,3.7891953E2,3.2586459E4,1.9620014E5,1.7038177E5,6.1789477E4,2.2917206E5,8.0031354E2,4.7541766E2,1.6040681E3,3.472728E3,2.328738E3,3.3813586E4,3.8601204E3,8.3424207E2,2.3435715E3,9.1398735E1,6.987052E3,2.3998621E4,8.587839E3,1.9348775E5,2.7123926E3,1.5117558E5,1.9206188E4,5.9902473E4,1.8870043E3,7.055962E2,2.2846647E5,7.4721967E2,5.3093864E1,3.3698904E2,1.3842862E2,8.4716614E2,7.5690204E2,2.1764375E3,1.6713391E2,6.5666963E3,1.7431924E4,1.2971562E3,7.2906826E3,1.9048931E5,2.9984338E3,2.503927E3,2.084655E2,1.27630805E5,2.3544773E4,9.578186E3,9.628002E3,1.5844258E3,5.8318047E4,9.980552E2,8.8894916E2,2.5289548E2,4.527007E2,2.2806434E5,4.0212372E2,2.5964105E2,4.875786E2],"tree_param":{"num_deleted":"0","num_feature":"95","num_nodes":"85","size_leaf_vector":"1"}},{"base_weights":[1.09276235E-1,-1.3182179E0,6.151394E-1,1.3640194E0,-7.001447E-2,3.28139E-1,1.1915238E0,-7.002018E-2,1.6876107E0,4.3217075E-1,-1.4327717E0,1.2121667E0,-1.9204327E0,8.6028956E-2,-6.936873E-2,1.1293207E0,2.4305405E-1,-1.6993452E0,-1.4085344E0,1.2241758E0,-1.5259118E0,-1.9846393E0,-7.911896E-2,1.1923823E0,-1.8900725E0,-1.5614154E0,3.2771844E-1,-7.993345E-2,-1.7474289E0,-7.002704E-2,-7.324188E-2,1.23147E0,-2.1236584E0,-7.8468084E-2,-7.0742704E-2,-2.0106337E0,-7.106226E-2,-1.9905831E0,1.2407656E0,-1.9084287E0,-8.209952E-2,-1.7562938E0,-7.011377E-2,-3.483739E-2,7.103635E-1,-8.444872E-2,-9.047752E-2,1.2373645E0,-2.1332371E0,-2.2400284E0,-8.367694E-2,-2.0548346E0,-8.191699E-2,-1.0121816E-1,-8.0106236E-2,6.379054E-2,-1.0400116E-1,-8.966962E-2,-9.776175E-2,-8.2021564E-2,-9.0919845E-2,6.540425E-3,-9.182551E-2,2.5180016E-2,7.237379E-2,6.214435E-2,-1.15685716E-1,-1.221224E-1,-8.400848E-2,-1.1463696E-1,-9.239899E-2,-1.0435647E-1,-7.8586094E-2],"categories":[],"categories_nodes":[],"categories_segments":[],"categories_sizes":[],"default_left":[0,0,0,0,0,0,0,0,0,0,0,0,0,0,0,0,0,0,0,0,0,0,0,0,0,0,0,0,0,0,0,0,0,0,0,0,0,0,0,0,0,0,0,0,0,0,0,0,0,0,0,0,0,0,0,0,0,0,0,0,0,0,0,0,0,0,0,0,0,0,0,0,0],"id":11,"left_children":[1,3,5,7,-1,9,11,-1,13,15,17,19,21,-1,-1,23,25,27,29,31,33,35,-1,37,39,41,43,-1,45,-1,-1,47,49,-1,-1,51,-1,53,55,57,-1,59,-1,61,63,-1,-1,65,67,69,-1,71,-1,-1,-1,-1,-1,-1,-1,-1,-1,-1,-1,-1,-1,-1,-1,-1,-1,-1,-1,-1,-1],"loss_changes":[7.3393356E5,5.8542906E4,1.2413791E5,7.065626E3,0E0,9.177541E4,1.6026969E4,0E0,7.1905664E2,6.2365805E4,1.7785156E2,8.1503438E3,3.219043E1,0E0,0E0,1.922168E4,5.6847336E4,8.121582E0,9.199219E0,6.0275938E3,2.7050781E0,1.6974121E1,0E0,1.5229266E4,5.916504E0,5.1440234E2,4.930789E4,0E0,2.2636719E0,0E0,0E0,4.8853125E3,2.3974365E1,0E0,0E0,1.7890625E1,0E0,1.5826172E1,1.1337078E4,6.4379883E0,0E0,5.0578125E1,0E0,5.4466465E4,2.63535E4,0E0,0E0,4.8224062E3,5.5846924E1,4.0976562E0,0E0,1.46171875E1,0E0,0E0,0E0,0E0,0E0,0E0,0E0,0E0,0E0,0E0,0E0,0E0,0E0,0E0,0E0,0E0,0E0,0E0,0E0,0E0,0E0],"parents":[2147483647,0,0,1,1,2,2,3,3,5,5,6,6,8,8,9,9,10,10,11,11,12,12,15,15,16,16,17,17,18,18,19,19,20,20,21,21,23,23,24,24,25,25,26,26,28,28,31,31,32,32,35,35,37,37,38,38,39,39,41,41,43,43,44,44,47,47,48,48,49,49,51,51],"right_children":[2,4,6,8,-1,10,12,-1,14,16,18,20,22,-1,-1,24,26,28,30,32,34,36,-1,38,40,42,44,-1,46,-1,-1,48,50,-1,-1,52,-1,54,56,58,-1,60,-1,62,64,-1,-1,66,68,70,-1,72,-1,-1,-1,-1,-1,-1,-1,-1,-1,-1,-1,-1,-1,-1,-1,-1,-1,-1,-1,-1,-1],"split_conditions":[1E0,-6.666666E-1,3.333333E-1,1.77E2,-7.001447E-2,1E0,1E0,-7.002018E-2,1.78E2,-3.3333334E-1,1E0,1E0,1E0,8.6028956E-2,-6.936873E-2,1E0,9E0,6.123234E-17,2E0,1E0,1E0,1E0,-7.911896E-2,-1.3333333E0,1E0,1E0,5E-1,-7.993345E-2,9.154194E4,-7.002704E-2,-7.324188E-2,1E0,1E0,-7.8468084E-2,-7.0742704E-2,2.0904627E5,-7.106226E-2,1E0,1E0,6.123234E-17,-8.209952E-2,6.123234E-17,-7.011377E-2,1.8393561E2,1E0,-8.444872E-2,-9.047752E-2,1E0,1.8843626E2,1.6369908E2,-8.367694E-2,2.0499342E2,-8.191699E-2,-1.0121816E-1,-8.0106236E-2,6.379054E-2,-1.0400116E-1,-8.966962E-2,-9.776175E-2,-8.2021564E-2,-9.0919845E-2,6.540425E-3,-9.182551E-2,2.5180016E-2,7.237379E-2,6.214435E-2,-1.15685716E-1,-1.221224E-1,-8.400848E-2,-1.1463696E-1,-9.239899E-2,-1.0435647E-1,-7.8586094E-2],"split_indices":[4,49,49,2,0,67,75,0,2,49,61,91,61,0,0,33,2,55,35,74,61,91,0,49,61,61,55,0,5,0,0,26,61,0,0,5,0,61,22,55,0,55,0,10,51,0,0,76,10,10,0,10,0,0,0,0,0,0,0,0,0,0,0,0,0,0,0,0,0,0,0,0,0],"split_type":[0,0,0,0,0,0,0,0,0,0,0,0,0,0,0,0,0,0,0,0,0,0,0,0,0,0,0,0,0,0,0,0,0,0,0,0,0,0,0,0,0,0,0,0,0,0,0,0,0,0,0,0,0,0,0,0,0,0,0,0,0,0,0,0,0,0,0,0,0,0,0,0,0],"sum_hessian":[1.0163622E6,2.659308E5,7.504314E5,7.894911E3,2.580359E5,5.0097934E5,2.4945203E5,8.2692236E2,7.067989E3,4.7303406E5,2.7945273E4,2.4780888E5,1.6431693E3,6.9934814E3,7.450756E1,1.0093758E5,3.720965E5,2.3229531E3,2.562232E4,2.4672731E5,1.0815514E3,1.3765533E3,2.6661594E2,9.8873195E4,2.0643804E3,1.6675234E4,3.5542125E5,7.6258954E2,1.5603636E3,2.2461018E4,3.1613027E3,2.4619158E5,5.357389E2,7.673174E2,3.1423398E2,1.3132164E3,6.333689E1,1.4798063E3,9.739339E4,1.915549E3,1.4883142E2,7.491137E3,9.184098E3,1.825017E5,1.7291955E5,8.192602E2,7.411034E2,2.457617E5,4.298755E2,4.223498E2,1.1338911E2,1.1695702E3,1.4364622E2,1.357307E3,1.2249926E2,9.6376945E4,1.0164444E3,5.6598254E2,1.3495664E3,2.6242466E3,4.8668906E3,1.6713608E5,1.5365629E4,1.3504161E5,3.7877938E4,2.4538077E5,3.8093024E2,2.5275978E2,1.771157E2,3.6779633E2,5.455346E1,1.0929806E3,7.658959E1],"tree_param":{"num_deleted":"0","num_feature":"95","num_nodes":"73","size_leaf_vector":"1"}},{"base_weights":[9.439942E-2,-1.2923362E0,5.871723E-1,1.3227925E0,-6.866108E-2,-3.8125882E-1,7.562883E-1,-6.864081E-2,1.6262184E0,-1.1739802E0,9.5819867E-1,1.2850051E0,5.725459E-1,-6.765994E-2,8.283227E-2,-1.464086E0,1.5125728E0,1.25956E0,-1.6661341E0,1.3150839E0,-1.7517208E0,-1.7618362E0,6.130401E-1,-1.4222416E0,-1.81421E0,-9.8851115E-2,7.718586E-2,1.3812219E0,-1.6745688E0,-1.6156995E0,-1.9598807E0,1.3348432E0,-2.0931556E0,-1.8290749E0,-7.755669E-2,-1.9226316E0,-1.6782516E0,6.5248E-1,-1.5744234E0,-1.3878609E0,-1.5237919E0,-1.549438E0,-2.0864747E0,1.4430652E0,-1.8349372E0,-1.58308E0,-1.9627107E0,-1.5889797E0,-1.885706E0,-7.494966E-2,-2.0422058E0,1.3493961E0,-1.8476096E0,-1.945507E0,-1.3677561E-1,-1.8800749E0,-7.874492E-2,-1.9590437E0,-7.533124E-2,-1.7560387E0,-1.5967882E0,6.8436515E-1,-1.9822464E0,-7.6531716E-2,-1.5947196E0,-7.2890125E-2,-6.883654E-2,-7.378312E-2,-7.897432E-2,-8.093062E-2,-7.6261416E-2,-9.298783E-2,-1.118016E-1,7.32306E-2,-8.004006E-2,-8.53908E-2,-1.2234187E-1,-7.30901E-2,-8.167764E-2,-7.777447E-2,-1.070165E-1,-7.548513E-2,-8.17736E-2,-7.662045E-2,-1.0590308E-1,-9.750681E-2,-1.12688206E-1,-1.0502272E-1,6.80239E-2,-8.8183455E-2,-9.871818E-2,-1.0256622E-1,-8.74912E-2,-9.823721E-2,-8.5156634E-2,-9.933316E-2,-7.97394E-2,-8.906194E-2,-7.271136E-2,-8.122831E-2,-7.750387E-2,2.8735166E-2,6.732201E-2,-1.0318611E-1,-9.097714E-2,-8.040521E-2,-7.62439E-2],"categories":[],"categories_nodes":[],"categories_segments":[],"categories_sizes":[],"default_left":[0,0,0,0,0,0,0,0,0,0,0,0,0,0,0,0,0,0,0,0,0,0,0,0,0,0,0,0,0,0,0,0,0,0,0,0,0,0,0,0,0,0,0,0,0,0,0,0,0,0,0,0,0,0,0,0,0,0,0,0,0,0,0,0,0,0,0,0,0,0,0,0,0,0,0,0,0,0,0,0,0,0,0,0,0,0,0,0,0,0,0,0,0,0,0,0,0,0,0,0,0,0,0,0,0,0,0],"id":12,"left_children":[1,3,5,7,-1,9,11,-1,13,15,17,19,21,-1,-1,23,25,27,29,31,33,35,37,39,41,-1,-1,43,45,47,49,51,53,55,-1,57,59,61,63,65,67,69,71,73,75,77,79,81,83,-1,85,87,89,91,-1,93,-1,95,-1,97,99,101,103,-1,105,-1,-1,-1,-1,-1,-1,-1,-1,-1,-1,-1,-1,-1,-1,-1,-1,-1,-1,-1,-1,-1,-1,-1,-1,-1,-1,-1,-1,-1,-1,-1,-1,-1,-1,-1,-1,-1,-1,-1,-1,-1,-1],"loss_changes":[6.7312425E5,5.4630375E4,1.1903056E5,6.340088E3,0E0,1.1472956E5,6.0107656E4,0E0,6.337012E2,5.29054E4,3.177302E4,1.45775E4,4.340539E4,0E0,0E0,8.9465625E2,7.220322E2,1.2865656E4,5.778418E1,1.0643406E4,2.1114746E1,1.0164258E2,3.893925E4,1.8867188E2,4.6758984E2,0E0,0E0,6.8846016E3,3.4369873E1,2.2180664E1,1.9404053E1,7.2781875E3,8.06228E1,1.1261475E1,0E0,3.715625E1,2.9557617E1,3.7245938E4,4.3496094E0,2.9554688E1,3.44375E1,2.7734375E0,1.045957E2,2.2288672E3,4.62146E1,4.003174E0,2.099585E1,9.106445E0,2.2074585E1,0E0,5.0664062E0,5.9813438E3,3.7565918E0,1.1444824E1,0E0,1.0228027E1,0E0,2.1142578E1,0E0,1.7080078E1,4.4921875E-1,3.180289E4,6.613281E1,0E0,2.3183594E0,0E0,0E0,0E0,0E0,0E0,0E0,0E0,0E0,0E0,0E0,0E0,0E0,0E0,0E0,0E0,0E0,0E0,0E0,0E0,0E0,0E0,0E0,0E0,0E0,0E0,0E0,0E0,0E0,0E0,0E0,0E0,0E0,0E0,0E0,0E0,0E0,0E0,0E0,0E0,0E0,0E0,0E0],"parents":[2147483647,0,0,1,1,2,2,3,3,5,5,6,6,8,8,9,9,10,10,11,11,12,12,15,15,16,16,17,17,18,18,19,19,20,20,21,21,22,22,23,23,24,24,27,27,28,28,29,29,30,30,31,31,32,32,33,33,35,35,36,36,37,37,38,38,39,39,40,40,41,41,42,42,43,43,44,44,45,45,46,46,47,47,48,48,50,50,51,51,52,52,53,53,55,55,57,57,59,59,60,60,61,61,62,62,64,64],"right_children":[2,4,6,8,-1,10,12,-1,14,16,18,20,22,-1,-1,24,26,28,30,32,34,36,38,40,42,-1,-1,44,46,48,50,52,54,56,-1,58,60,62,64,66,68,70,72,74,76,78,80,82,84,-1,86,88,90,92,-1,94,-1,96,-1,98,100,102,104,-1,106,-1,-1,-1,-1,-1,-1,-1,-1,-1,-1,-1,-1,-1,-1,-1,-1,-1,-1,-1,-1,-1,-1,-1,-1,-1,-1,-1,-1,-1,-1,-1,-1,-1,-1,-1,-1,-1,-1,-1,-1,-1,-1],"split_conditions":[1E0,-6.666666E-1,3.6E1,1E0,-6.866108E-2,2E0,1.1235217E1,-6.864081E-2,6.2E1,1.666667E0,5.367937E1,6.1E1,1.998E3,-6.765994E-2,8.283227E-2,3.3333302E-1,1E0,1E0,1E0,1E0,7.4E1,3E0,7.5E1,2.9E1,2.9E1,-9.8851115E-2,7.718586E-2,3.3E1,3.333333E-1,1E0,2.9E1,1E0,3.3333337E-1,1E0,-7.755669E-2,7.4E1,4E0,1E0,9.009906E4,1E0,1.3333334E0,1E0,1E0,1.5397158E5,1E0,2.9E1,2.9E1,2.9E1,2.9E1,-7.494966E-2,3.333333E-1,1E0,3.3333302E-1,4E0,-1.3677561E-1,4E0,-7.874492E-2,3.3333337E-1,-7.533124E-2,7.4E1,5.7E1,7.3333335E0,4E0,-7.6531716E-2,1.8393561E2,-7.2890125E-2,-6.883654E-2,-7.378312E-2,-7.897432E-2,-8.093062E-2,-7.6261416E-2,-9.298783E-2,-1.118016E-1,7.32306E-2,-8.004006E-2,-8.53908E-2,-1.2234187E-1,-7.30901E-2,-8.167764E-2,-7.777447E-2,-1.070165E-1,-7.548513E-2,-8.17736E-2,-7.662045E-2,-1.0590308E-1,-9.750681E-2,-1.12688206E-1,-1.0502272E-1,6.80239E-2,-8.8183455E-2,-9.871818E-2,-1.0256622E-1,-8.74912E-2,-9.823721E-2,-8.5156634E-2,-9.933316E-2,-7.97394E-2,-8.906194E-2,-7.271136E-2,-8.122831E-2,-7.750387E-2,2.8735166E-2,6.732201E-2,-1.0318611E-1,-9.097714E-2,-8.040521E-2,-7.62439E-2],"split_indices":[4,49,0,75,0,41,10,0,0,49,10,0,9,0,0,49,82,58,40,23,0,52,0,0,0,0,0,0,49,47,0,75,49,47,0,0,52,83,5,61,48,61,47,5,47,0,0,0,0,0,49,60,49,52,0,52,0,49,0,0,0,48,52,0,10,0,0,0,0,0,0,0,0,0,0,0,0,0,0,0,0,0,0,0,0,0,0,0,0,0,0,0,0,0,0,0,0,0,0,0,0,0,0,0,0,0,0],"split_type":[0,0,0,0,0,0,0,0,0,0,0,0,0,0,0,0,0,0,0,0,0,0,0,0,0,0,0,0,0,0,0,0,0,0,0,0,0,0,0,0,0,0,0,0,0,0,0,0,0,0,0,0,0,0,0,0,0,0,0,0,0,0,0,0,0,0,0,0,0,0,0,0,0,0,0,0,0,0,0,0,0,0,0,0,0,0,0,0,0,0,0,0,0,0,0,0,0,0,0,0,0,0,0,0,0,0,0],"sum_hessian":[9.850399E5,2.5825905E5,7.267809E5,7.7477397E3,2.5051131E5,1.0804819E5,6.187327E5,7.8348395E2,6.964256E3,6.787715E4,4.0171043E4,1.5956873E5,4.5916394E5,6.9929726E1,6.894326E3,6.126227E4,6.6148774E3,3.6033723E4,4.13732E3,1.580043E5,1.564433E3,7.8284834E3,4.5133544E5,5.4727004E4,6.5352646E3,5.793401E1,6.5569434E3,3.4599633E4,1.4340896E3,3.536896E3,6.0042377E2,1.5709419E5,9.101126E2,1.1228151E3,4.416179E2,2.6696194E3,5.158864E3,4.4334275E5,7.9927075E3,4.0896746E4,1.3830258E4,3.3167988E3,3.2184658E3,3.394744E4,6.5219037E2,1.0936749E3,3.404146E2,3.2250042E3,3.1189194E2,9.409073E1,5.0633304E2,1.5637969E5,7.144982E2,7.434188E2,1.6669377E2,9.295186E2,1.9329648E2,2.451128E3,2.1849132E2,2.627838E3,2.5310261E3,4.3804238E5,5.3003613E3,2.5570984E3,5.4356094E3,5.5954995E3,3.5301246E4,7.434696E3,6.395562E3,8.4173285E2,2.475066E3,1.2848434E3,1.9336224E3,3.3709375E4,2.380695E2,5.432795E2,1.0891086E2,3.307872E2,7.6288776E2,1.06520004E2,2.3389459E2,1.205334E3,2.0196702E3,1.2692618E2,1.8496576E2,3.6024564E2,1.460874E2,5.0009195E2,1.558796E5,4.392898E2,2.7520844E2,4.7601553E2,2.674033E2,6.2146844E2,3.080501E2,2.273977E3,1.7715092E2,2.420502E3,2.0733601E2,1.5646473E3,9.663787E2,3.757994E5,6.2242977E4,3.523585E3,1.7767765E3,4.54176E3,8.9384924E2],"tree_param":{"num_deleted":"0","num_feature":"95","num_nodes":"107","size_leaf_vector":"1"}},{"base_weights":[4.8381396E-2,-1.268435E0,5.242075E-1,1.2782322E0,-6.742277E-2,2.3992817E-1,1.0818694E0,-6.752026E-2,1.5354322E0,1.3239657E0,9.90467E-2,1.0079932E0,1.5176015E0,1.5847678E0,-6.720246E-2,1.3781942E0,-6.773169E-2,-1.7532793E-1,7.096241E-1,-1.820772E0,1.0492884E0,1.5518975E0,-2.067955E0,-6.616794E-2,8.045337E-2,1.4057615E0,-1.688038E0,2.2326032E-2,-1.3706013E0,9.6113104E-1,-6.919495E-1,-1.6191583E0,-1.9979979E0,1.0678854E0,-1.7330585E0,-2.0687225E0,1.5721685E0,-1.6907758E0,-2.3198438E0,1.4135869E0,-1.09643474E-1,-8.735142E-2,-7.72641E-2,1.17525324E-1,-1.9625745E0,-1.3551048E0,-1.4526685E0,1.1299344E0,-2.8486747E-1,1.2504436E0,-1.9485844E0,-1.737297E0,-1.54707E0,-2.0429277E0,-8.560821E-2,1.0844362E0,-1.9859177E0,-9.0052195E-2,-7.347036E-2,-8.719622E-2,-1.10391095E-1,1.5843074E0,-2.0193427E0,-7.61938E-2,-9.25496E-2,-1.2178868E-1,-9.813873E-2,7.095287E-2,-9.58218E-2,-1.1755996E-2,2.6805002E-2,-1.0206913E-1,-8.979707E-2,-7.063805E-2,-6.763878E-2,-7.192146E-2,-8.44095E-2,6.2535875E-2,-9.694692E-2,-1.0120783E-1,6.7933515E-2,7.8752495E-2,-1.0164738E-1,-9.906482E-2,-7.642122E-2,-8.0903426E-2,-9.3483426E-2,-7.430331E-2,-8.0799565E-2,-9.698069E-2,-1.07283495E-1,-7.410843E-2,5.489598E-2,-1.02680854E-1,-8.251366E-2,7.465577E-2,9.5754415E-2,-8.5106306E-2,-1.1263672E-1],"categories":[],"categories_nodes":[],"categories_segments":[],"categories_sizes":[],"default_left":[0,0,0,0,0,0,0,0,0,0,0,0,0,0,0,0,0,0,0,0,0,0,0,0,0,0,0,0,0,0,0,0,0,0,0,0,0,0,0,0,0,0,0,0,0,0,0,0,0,0,0,0,0,0,0,0,0,0,0,0,0,0,0,0,0,0,0,0,0,0,0,0,0,0,0,0,0,0,0,0,0,0,0,0,0,0,0,0,0,0,0,0,0,0,0,0,0,0,0],"id":13,"left_children":[1,3,5,7,-1,9,11,-1,13,15,17,19,21,23,-1,25,-1,27,29,31,33,35,37,-1,-1,39,41,43,45,47,49,51,53,55,57,59,61,63,65,67,-1,-1,-1,69,71,73,75,77,79,81,83,85,87,89,-1,91,93,-1,-1,-1,-1,95,97,-1,-1,-1,-1,-1,-1,-1,-1,-1,-1,-1,-1,-1,-1,-1,-1,-1,-1,-1,-1,-1,-1,-1,-1,-1,-1,-1,-1,-1,-1,-1,-1,-1,-1,-1,-1],"loss_changes":[5.895024E5,5.08925E4,1.0956158E5,5.1459297E3,0E0,6.990861E4,7.5097812E3,0E0,9.867344E2,7.649297E3,6.786692E4,2.330914E4,4.1627266E3,4.8370898E2,0E0,4.364258E3,0E0,6.60341E4,4.4276188E4,9.899121E1,1.0177344E4,2.462289E3,2.6162598E1,0E0,0E0,1.4432812E3,8.469238E-1,4.5321863E4,4.81875E1,2.2398969E4,4.664821E4,8.470215E0,1.5692383E1,9.875578E3,2.0436768E1,4.2008057E0,1.4558047E3,3.804016E-1,2.6255493E0,9.3234375E2,0E0,0E0,0E0,3.3783477E4,1.4009766E2,2.296875E0,1.8335938E1,3.476633E4,3.6325945E4,8.004621E3,1.5610156E2,4.555786E0,8.5046387E-1,9.345703E0,0E0,6.7255625E3,2.0175781E1,0E0,0E0,0E0,0E0,9.985078E2,4.1102905E0,0E0,0E0,0E0,0E0,0E0,0E0,0E0,0E0,0E0,0E0,0E0,0E0,0E0,0E0,0E0,0E0,0E0,0E0,0E0,0E0,0E0,0E0,0E0,0E0,0E0,0E0,0E0,0E0,0E0,0E0,0E0,0E0,0E0,0E0,0E0,0E0],"parents":[2147483647,0,0,1,1,2,2,3,3,5,5,6,6,8,8,9,9,10,10,11,11,12,12,13,13,15,15,17,17,18,18,19,19,20,20,21,21,22,22,25,25,26,26,27,27,28,28,29,29,30,30,31,31,32,32,33,33,34,34,35,35,36,36,37,37,38,38,39,39,43,43,44,44,45,45,46,46,47,47,48,48,49,49,50,50,51,51,52,52,53,53,55,55,56,56,61,61,62,62],"right_children":[2,4,6,8,-1,10,12,-1,14,16,18,20,22,24,-1,26,-1,28,30,32,34,36,38,-1,-1,40,42,44,46,48,50,52,54,56,58,60,62,64,66,68,-1,-1,-1,70,72,74,76,78,80,82,84,86,88,90,-1,92,94,-1,-1,-1,-1,96,98,-1,-1,-1,-1,-1,-1,-1,-1,-1,-1,-1,-1,-1,-1,-1,-1,-1,-1,-1,-1,-1,-1,-1,-1,-1,-1,-1,-1,-1,-1,-1,-1,-1,-1,-1,-1],"split_conditions":[1E0,-6.666666E-1,3.3333325E-1,1E0,-6.742277E-2,1E0,1E0,-6.752026E-2,8.640846E4,1E0,1E0,2.001E3,1E0,8.573772E4,-6.720246E-2,1E0,-6.773169E-2,1E0,1E0,1.999E3,2.2381845E5,2.0833333E-1,2.001E3,-6.616794E-2,8.045337E-2,8.3333336E-2,4E0,1E0,8.3333336E-2,1E0,-6.666667E-1,1E0,2.2381845E5,1E0,1E0,2.002E3,1E0,1.999E3,1.6843298E5,1.2E1,-1.09643474E-1,-8.735142E-2,-7.72641E-2,1.3741398E5,4E0,7E0,1E0,1.5727053E5,1E0,2E0,1E0,1.998E3,1.998E3,7E0,-8.560821E-2,1E0,1E0,-9.0052195E-2,-7.347036E-2,-8.719622E-2,-1.10391095E-1,5.5087475E5,2.001E3,-7.61938E-2,-9.25496E-2,-1.2178868E-1,-9.813873E-2,7.095287E-2,-9.58218E-2,-1.1755996E-2,2.6805002E-2,-1.0206913E-1,-8.979707E-2,-7.063805E-2,-6.763878E-2,-7.192146E-2,-8.44095E-2,6.2535875E-2,-9.694692E-2,-1.0120783E-1,6.7933515E-2,7.8752495E-2,-1.0164738E-1,-9.906482E-2,-7.642122E-2,-8.0903426E-2,-9.3483426E-2,-7.430331E-2,-8.0799565E-2,-9.698069E-2,-1.07283495E-1,-7.410843E-2,5.489598E-2,-1.02680854E-1,-8.251366E-2,7.465577E-2,9.5754415E-2,-8.5106306E-2,-1.1263672E-1],"split_indices":[4,49,49,63,0,50,24,0,5,61,23,9,54,5,0,69,0,61,58,9,5,36,9,0,0,36,52,19,36,54,49,45,5,83,61,9,58,9,5,8,0,0,0,5,52,8,43,5,45,8,61,9,9,8,0,90,61,0,0,0,0,5,9,0,0,0,0,0,0,0,0,0,0,0,0,0,0,0,0,0,0,0,0,0,0,0,0,0,0,0,0,0,0,0,0,0,0,0,0],"split_type":[0,0,0,0,0,0,0,0,0,0,0,0,0,0,0,0,0,0,0,0,0,0,0,0,0,0,0,0,0,0,0,0,0,0,0,0,0,0,0,0,0,0,0,0,0,0,0,0,0,0,0,0,0,0,0,0,0,0,0,0,0,0,0,0,0,0,0,0,0,0,0,0,0,0,0,0,0,0,0,0,0,0,0,0,0,0,0,0,0,0,0,0,0,0,0,0,0,0,0],"sum_hessian":[9.4083E5,2.4972662E5,6.911034E5,7.607268E3,2.4211936E5,4.577551E5,2.3334825E5,6.775834E2,6.929685E3,5.2646688E4,4.051084E5,1.9952362E5,3.382462E4,6.813431E3,1.1625363E2,5.160251E4,1.0441772E3,2.795071E5,1.25601305E5,2.870139E3,1.966535E5,3.350474E4,3.1988007E2,5.5982708E1,6.7574487E3,5.1143277E4,4.5923367E2,2.3984631E5,3.96608E4,1.064921E5,1.9109205E4,1.3476924E3,1.5224467E3,1.9534845E5,1.3050404E3,1.8594911E2,3.331879E4,1.313322E2,1.8854787E2,5.1032938E4,1.1033847E2,3.1650684E2,1.4272684E2,2.2887028E5,1.0976026E4,3.337705E4,6.2837485E3,9.378643E4,1.2705673E4,7.506406E3,1.16028E4,5.0144067E2,8.462517E2,1.310028E3,2.124186E2,1.942961E5,1.0523547E3,1.0325703E3,2.724701E2,6.0031414E1,1.2591771E2,3.320714E4,1.1165091E2,6.977842E1,6.1553776E1,1.377296E2,5.0818283E1,5.0949844E4,8.309591E1,1.2421799E5,1.0465229E5,7.443718E3,3.532309E3,1.2709647E3,3.2106086E4,5.932603E3,3.5114557E2,9.023561E4,3.55082E3,6.172936E3,6.5327373E3,6.8315664E3,6.7483923E2,1.0761039E4,8.4176154E2,2.711718E2,2.3026884E2,4.6164792E2,3.846038E2,6.6359326E2,6.4643475E2,1.01477747E3,1.9328133E5,8.712148E2,1.8113995E2,2.6035346E4,7.1717925E3,5.102339E1,6.0627514E1],"tree_param":{"num_deleted":"0","num_feature":"95","num_nodes":"99","size_leaf_vector":"1"}},{"base_weights":[1.7585269E-1,-1.2466869E0,6.269008E-1,1.244068E0,-6.628677E-2,-6.497004E-1,7.9820395E-1,-6.625917E-2,1.5273554E0,-1.2083175E0,1.1273355E0,6.0283566E-1,1.1792699E0,-6.5318145E-2,7.784271E-2,-1.4409208E0,1.2894751E0,-1.478513E0,1.4211986E0,1.3930296E0,4.878506E-1,1.2117321E0,-1.6003636E0,-1.3917462E0,-1.79821E0,6.8131424E-2,-2.0072618E0,-1.3709265E0,-1.666708E0,1.4529749E0,-1.6298021E0,1.4086899E0,-1.7839026E0,6.581965E-1,-2.718588E-1,1.2191423E0,-1.5204662E0,-1.6433947E0,-7.2824545E-2,-1.3475674E0,-1.4973373E0,-1.53354E0,-2.0302587E0,-8.264639E-2,-1.1431366E-1,-6.750651E-2,-7.6496236E-2,-1.5821965E0,-1.0951572E-1,1.4689472E0,-8.019722E-2,-7.564332E-2,-9.556674E-2,1.4163932E0,-1.07815325E-1,-7.8004844E-2,-1.8570246E0,-1.5830986E-1,7.9557484E-1,1.861408E-1,-1.7589308E0,1.1601363E0,1.5509238E0,-8.036358E-2,-7.32487E-2,-1.7407857E0,-1.5739399E0,-7.179923E-2,-6.659092E-2,-7.4057445E-2,-8.940378E-2,-6.614265E-2,-7.7668026E-2,-9.044211E-2,-1.0828173E-1,-8.0889195E-2,-7.338875E-2,7.389594E-2,-8.435288E-2,-8.229465E-2,7.122328E-2,-9.729767E-2,-8.0301434E-2,1.7799266E-2,-9.622294E-2,4.2355955E-2,-7.610744E-2,2.7859155E-2,-9.038023E-2,-8.9328304E-2,-7.75601E-2,5.9149444E-2,-9.1544084E-2,7.8771874E-2,-1.1272947E-1,-9.107182E-2,-7.779155E-2,-7.9633124E-2,-6.978321E-2],"categories":[],"categories_nodes":[],"categories_segments":[],"categories_sizes":[],"default_left":[0,0,0,0,0,0,0,0,0,0,0,0,0,0,0,0,0,0,0,0,0,0,0,0,0,0,0,0,0,0,0,0,0,0,0,0,0,0,0,0,0,0,0,0,0,0,0,0,0,0,0,0,0,0,0,0,0,0,0,0,0,0,0,0,0,0,0,0,0,0,0,0,0,0,0,0,0,0,0,0,0,0,0,0,0,0,0,0,0,0,0,0,0,0,0,0,0,0,0],"id":14,"left_children":[1,3,5,7,-1,9,11,-1,13,15,17,19,21,-1,-1,23,25,27,29,31,33,35,37,39,41,-1,43,45,47,49,51,53,55,57,59,61,63,65,-1,67,69,71,73,-1,-1,-1,-1,75,-1,77,-1,-1,-1,79,-1,-1,81,83,85,87,89,91,93,-1,-1,95,97,-1,-1,-1,-1,-1,-1,-1,-1,-1,-1,-1,-1,-1,-1,-1,-1,-1,-1,-1,-1,-1,-1,-1,-1,-1,-1,-1,-1,-1,-1,-1,-1],"loss_changes":[6.44175E5,4.7588812E4,1.666974E5,5.413584E3,0E0,8.9526555E4,5.003447E4,0E0,5.6188965E2,3.986746E4,1.6519592E4,4.036833E4,2.0555656E4,0E0,0E0,1.1000312E3,1.4125146E3,4.1680176E1,1.8816758E3,2.810414E3,5.0194625E4,4.5603125E3,1.3577637E1,2.5511719E2,4.6271094E2,0E0,8.410095E0,2.2661133E0,3.1128662E1,9.3909375E2,3.3584595E0,1.5453125E3,1.2984619E0,3.553822E4,4.8384277E4,4.393875E3,2.7368164E-1,1.0566406E1,0E0,5.1992188E1,7.359375E1,1.2483398E1,1.1681836E2,0E0,0E0,0E0,0E0,1.03149414E-1,0E0,5.428789E2,0E0,0E0,0E0,1.3876875E3,0E0,0E0,1.0593262E0,4.144703E4,3.23995E4,4.0179883E4,9.2921875E1,1.3033219E4,3.1660703E3,0E0,0E0,9.19751E0,1.4431152E0,0E0,0E0,0E0,0E0,0E0,0E0,0E0,0E0,0E0,0E0,0E0,0E0,0E0,0E0,0E0,0E0,0E0,0E0,0E0,0E0,0E0,0E0,0E0,0E0,0E0,0E0,0E0,0E0,0E0,0E0,0E0,0E0],"parents":[2147483647,0,0,1,1,2,2,3,3,5,5,6,6,8,8,9,9,10,10,11,11,12,12,15,15,16,16,17,17,18,18,19,19,20,20,21,21,22,22,23,23,24,24,26,26,27,27,28,28,29,29,30,30,31,31,32,32,33,33,34,34,35,35,36,36,37,37,39,39,40,40,41,41,42,42,47,47,49,49,53,53,56,56,57,57,58,58,59,59,60,60,61,61,62,62,65,65,66,66],"right_children":[2,4,6,8,-1,10,12,-1,14,16,18,20,22,-1,-1,24,26,28,30,32,34,36,38,40,42,-1,44,46,48,50,52,54,56,58,60,62,64,66,-1,68,70,72,74,-1,-1,-1,-1,76,-1,78,-1,-1,-1,80,-1,-1,82,84,86,88,90,92,94,-1,-1,96,98,-1,-1,-1,-1,-1,-1,-1,-1,-1,-1,-1,-1,-1,-1,-1,-1,-1,-1,-1,-1,-1,-1,-1,-1,-1,-1,-1,-1,-1,-1,-1,-1],"split_conditions":[1E0,-6.666666E-1,3.6E1,1E0,-6.628677E-2,1E0,3.3333325E-1,-6.625917E-2,6.2E1,1.6666667E0,1E0,1E0,6.1E1,-6.5318145E-2,7.784271E-2,3.3333302E-1,1.1079361E1,2.9E1,1E0,1E0,4E0,2.1934953E2,1.8393561E2,2.9E1,2.9E1,6.8131424E-2,3E1,3.3333302E-1,3.3333337E-1,1.1437401E1,3.333333E-1,1.5E0,4E1,4.4E1,1E0,1E0,1E0,1E0,-7.2824545E-2,1E0,1E0,1E0,1E0,-8.264639E-2,-1.1431366E-1,-6.750651E-2,-7.6496236E-2,1E0,-1.0951572E-1,1E1,-8.019722E-2,-7.564332E-2,-9.556674E-2,4E1,-1.07815325E-1,-7.8004844E-2,4E0,2E0,7.4E1,1.18403425E1,2.1934953E2,1.8843626E2,5.1E1,-8.036358E-2,-7.32487E-2,7.4E1,1.2318595E1,-7.179923E-2,-6.659092E-2,-7.4057445E-2,-8.940378E-2,-6.614265E-2,-7.7668026E-2,-9.044211E-2,-1.0828173E-1,-8.0889195E-2,-7.338875E-2,7.389594E-2,-8.435288E-2,-8.229465E-2,7.122328E-2,-9.729767E-2,-8.0301434E-2,1.7799266E-2,-9.622294E-2,4.2355955E-2,-7.610744E-2,2.7859155E-2,-9.038023E-2,-8.9328304E-2,-7.75601E-2,5.9149444E-2,-9.1544084E-2,7.8771874E-2,-1.1272947E-1,-9.107182E-2,-7.779155E-2,-7.9633124E-2,-6.978321E-2],"split_indices":[4,49,0,75,0,82,49,0,0,49,15,50,0,0,0,49,6,0,58,69,52,10,10,0,0,0,0,49,49,6,49,48,0,0,63,24,45,45,0,61,40,90,45,0,0,0,0,67,0,8,0,0,0,0,0,0,52,41,0,6,10,10,0,0,0,0,6,0,0,0,0,0,0,0,0,0,0,0,0,0,0,0,0,0,0,0,0,0,0,0,0,0,0,0,0,0,0,0,0],"split_type":[0,0,0,0,0,0,0,0,0,0,0,0,0,0,0,0,0,0,0,0,0,0,0,0,0,0,0,0,0,0,0,0,0,0,0,0,0,0,0,0,0,0,0,0,0,0,0,0,0,0,0,0,0,0,0,0,0,0,0,0,0,0,0,0,0,0,0,0,0,0,0,0,0,0,0,0,0,0,0,0,0,0,0,0,0,0,0,0,0,0,0,0,0,0,0,0,0,0,0],"sum_hessian":[1.00395844E6,2.4169278E5,7.622656E5,7.434103E3,2.3425869E5,9.0184086E4,6.7208156E5,7.378849E2,6.6962183E3,6.861508E4,2.1569002E4,4.4429784E5,2.2778369E5,6.850829E1,6.62771E3,6.2770164E4,5.8449165E3,2.1854062E3,1.9383596E4,5.6437727E4,3.8786012E5,2.251548E5,2.6289001E3,5.5180684E4,7.5894814E3,5.718639E3,1.2627749E2,1.3961034E3,7.8930286E2,1.9184348E4,1.9924902E2,5.6161473E4,2.7625327E2,3.1682116E5,7.103898E4,2.2454638E5,6.0841003E2,2.015087E3,6.138132E2,3.8913973E4,1.6266709E4,3.5492808E3,4.0402007E3,5.8838066E1,6.743942E1,1.2435691E3,1.5253433E2,6.8323895E2,1.0606393E2,1.908518E4,9.916751E1,1.45531E2,5.371801E1,5.604101E4,1.2046316E2,7.38678E1,2.0238545E2,4.562841E4,2.7119275E5,5.4312277E4,1.6726697E4,1.9064567E5,3.3900703E4,2.2565585E2,3.8275418E2,8.2822644E2,1.1868606E3,5.8688755E3,3.3045098E4,1.5414842E4,8.518673E2,3.1144907E2,3.2378315E3,1.5386835E3,2.5015173E3,5.1046213E2,1.7277681E2,1.9031643E4,5.353739E1,1.4677441E2,5.589424E4,1.4415826E2,5.8227184E1,3.5338676E4,1.0289733E4,2.652935E5,5.899232E3,4.5791168E4,8.52111E3,1.4755604E4,1.9710934E3,1.8920075E5,1.4449242E3,3.3684332E4,2.1636815E2,5.70199E2,2.5802744E2,1.0663755E3,1.20485176E2],"tree_param":{"num_deleted":"0","num_feature":"95","num_nodes":"99","size_leaf_vector":"1"}},{"base_weights":[6.2093373E-2,-6.524315E-2,5.149777E-1,-1.8490987E-1,7.0043635E-1,-1.3952838E0,4.5346257E-1,7.394005E-1,-1.4967178E0,-1.3652843E0,-1.9493788E0,8.085971E-1,-1.6122221E0,5.463556E-1,1.1306239E0,-7.187589E-2,-1.5117464E0,-1.3352956E0,-1.584697E0,-1.7087889E0,-2.868546E0,4.433763E-1,1.316862E0,-1.507186E0,-1.9138908E0,6.9192845E-1,-1.3503616E-1,1.1681868E0,-1.7081311E0,-7.964832E-2,-1.5022283E0,-1.4226531E0,-1.3103019E0,-1.721442E0,-1.5741662E0,-1.4927081E0,-1.921702E0,-7.672009E-2,-3.0790055E0,1.0317947E0,-1.7223653E0,1.4146663E0,-1.9887346E0,-1.4273027E0,-1.6401969E0,-1.6955345E0,-2.558897E0,1.1982199E0,5.2886236E-1,4.7286114E-1,-1.7970175E0,1.1853449E0,-2.0787373E0,-2.126733E0,-1.5949526E0,-1.464654E0,-7.6015405E-2,-7.7017836E-2,-7.0726044E-2,-6.5225616E-2,-6.810346E-2,-7.939631E-2,-8.941202E-2,-7.999455E-2,-7.620255E-2,-6.490084E-2,-7.709744E-2,-6.559726E-2,-9.9954836E-2,-1.2997696E-1,-1.6442157E-1,6.146542E-2,-7.313799E-2,-7.95293E-2,-1.1522716E-1,7.248591E-2,-9.982501E-2,-9.207113E-2,-1.1857907E-1,-6.749483E-2,-7.387928E-2,-8.0460064E-2,-9.2410125E-2,-7.3689856E-2,-9.481607E-2,-1.1244048E-1,-1.3701062E-1,-1.0382146E-1,6.5029725E-2,6.7176275E-2,1.8764298E-2,4.191072E-2,-8.651247E-2,-9.2222415E-2,-8.086399E-2,5.961586E-2,-1.1062807E-1,-1.093107E-1,-7.965668E-2,-1.1313778E-1,-7.906359E-2,-8.5867494E-2,-7.569728E-2,-7.450408E-2,-7.107708E-2],"categories":[],"categories_nodes":[],"categories_segments":[],"categories_sizes":[],"default_left":[0,0,0,0,0,0,0,0,0,0,0,0,0,0,0,0,0,0,0,0,0,0,0,0,0,0,0,0,0,0,0,0,0,0,0,0,0,0,0,0,0,0,0,0,0,0,0,0,0,0,0,0,0,0,0,0,0,0,0,0,0,0,0,0,0,0,0,0,0,0,0,0,0,0,0,0,0,0,0,0,0,0,0,0,0,0,0,0,0,0,0,0,0,0,0,0,0,0,0,0,0,0,0,0,0],"id":15,"left_children":[1,-1,3,5,7,9,11,13,15,17,19,21,23,25,27,-1,29,31,33,35,37,39,41,43,45,47,49,51,53,-1,55,57,59,61,63,65,67,-1,69,71,73,75,77,79,81,83,85,87,89,91,93,95,97,99,101,103,-1,-1,-1,-1,-1,-1,-1,-1,-1,-1,-1,-1,-1,-1,-1,-1,-1,-1,-1,-1,-1,-1,-1,-1,-1,-1,-1,-1,-1,-1,-1,-1,-1,-1,-1,-1,-1,-1,-1,-1,-1,-1,-1,-1,-1,-1,-1,-1,-1],"loss_changes":[5.648818E5,0E0,8.896378E4,1.109352E5,4.6386062E4,8.2110156E2,6.8957734E4,4.020622E4,5.9316406E0,3.070703E2,5.571748E2,1.4888375E4,4.3371875E2,3.5360047E4,1.8758281E4,0E0,3.1015625E0,8.821094E1,5.0966797E0,8.965918E1,1.4254541E2,5.948104E4,1.0845102E4,1.06083984E2,4.962666E2,2.4249031E4,6.3400863E4,9.6739375E3,1.0508301E2,0E0,2.053711E0,6.3242188E0,7.609375E0,3.2434082E-1,4.0273438E0,7.364502E0,4.485376E1,0E0,3.638867E1,1.8085531E4,7.609922E2,3.897543E3,4.9586426E1,2.2639648E1,2.1390625E1,1.1533154E2,4.3807617E1,2.3990977E4,2.7796004E4,3.6985188E4,1.3994531E2,4.0937969E3,4.3784424E1,3.2080566E1,1.5050293E1,2.2949219E-2,0E0,0E0,0E0,0E0,0E0,0E0,0E0,0E0,0E0,0E0,0E0,0E0,0E0,0E0,0E0,0E0,0E0,0E0,0E0,0E0,0E0,0E0,0E0,0E0,0E0,0E0,0E0,0E0,0E0,0E0,0E0,0E0,0E0,0E0,0E0,0E0,0E0,0E0,0E0,0E0,0E0,0E0,0E0,0E0,0E0,0E0,0E0,0E0,0E0],"parents":[2147483647,0,0,2,2,3,3,4,4,5,5,6,6,7,7,8,8,9,9,10,10,11,11,12,12,13,13,14,14,16,16,17,17,18,18,19,19,20,20,21,21,22,22,23,23,24,24,25,25,26,26,27,27,28,28,30,30,31,31,32,32,33,33,34,34,35,35,36,36,38,38,39,39,40,40,41,41,42,42,43,43,44,44,45,45,46,46,47,47,48,48,49,49,50,50,51,51,52,52,53,53,54,54,55,55],"right_children":[2,-1,4,6,8,10,12,14,16,18,20,22,24,26,28,-1,30,32,34,36,38,40,42,44,46,48,50,52,54,-1,56,58,60,62,64,66,68,-1,70,72,74,76,78,80,82,84,86,88,90,92,94,96,98,100,102,104,-1,-1,-1,-1,-1,-1,-1,-1,-1,-1,-1,-1,-1,-1,-1,-1,-1,-1,-1,-1,-1,-1,-1,-1,-1,-1,-1,-1,-1,-1,-1,-1,-1,-1,-1,-1,-1,-1,-1,-1,-1,-1,-1,-1,-1,-1,-1,-1,-1],"split_conditions":[1E0,-6.524315E-2,4E1,8.3333336E-2,7.4E1,3.3333302E-1,1E0,3.3333325E-1,2.001E3,3.6E1,3.6E1,1E0,3.3333325E-1,4E0,5.9E1,-7.187589E-2,7.5E1,1E0,0E0,2.9E1,1E0,3.1E1,1E0,3.6E1,3.6E1,-3.3333334E-1,2E0,1E0,6.1E1,-7.964832E-2,9.009906E4,0E0,2.9E1,7.831059E4,1E0,1E0,1E0,-7.672009E-2,2.016E3,9E0,3.333333E-1,1E0,3.333333E-1,2.9E1,1E0,2.9E1,1E0,9.154194E4,1E0,5.3E1,1.9221419E2,1E0,1.8843626E2,1.8531537E2,3.333335E-1,8E0,-7.6015405E-2,-7.7017836E-2,-7.0726044E-2,-6.5225616E-2,-6.810346E-2,-7.939631E-2,-8.941202E-2,-7.999455E-2,-7.620255E-2,-6.490084E-2,-7.709744E-2,-6.559726E-2,-9.9954836E-2,-1.2997696E-1,-1.6442157E-1,6.146542E-2,-7.313799E-2,-7.95293E-2,-1.1522716E-1,7.248591E-2,-9.982501E-2,-9.207113E-2,-1.1857907E-1,-6.749483E-2,-7.387928E-2,-8.0460064E-2,-9.2410125E-2,-7.3689856E-2,-9.481607E-2,-1.1244048E-1,-1.3701062E-1,-1.0382146E-1,6.5029725E-2,6.7176275E-2,1.8764298E-2,4.191072E-2,-8.651247E-2,-9.2222415E-2,-8.086399E-2,5.961586E-2,-1.1062807E-1,-1.093107E-1,-7.965668E-2,-1.1313778E-1,-7.906359E-2,-8.5867494E-2,-7.569728E-2,-7.450408E-2,-7.107708E-2],"split_indices":[4,0,0,36,0,49,58,49,9,0,0,29,49,52,0,0,0,61,47,0,90,0,78,0,0,49,41,75,0,0,5,47,0,5,81,90,90,0,9,8,49,54,49,0,29,0,45,5,50,0,10,26,10,10,49,8,0,0,0,0,0,0,0,0,0,0,0,0,0,0,0,0,0,0,0,0,0,0,0,0,0,0,0,0,0,0,0,0,0,0,0,0,0,0,0,0,0,0,0,0,0,0,0,0,0],"split_type":[0,0,0,0,0,0,0,0,0,0,0,0,0,0,0,0,0,0,0,0,0,0,0,0,0,0,0,0,0,0,0,0,0,0,0,0,0,0,0,0,0,0,0,0,0,0,0,0,0,0,0,0,0,0,0,0,0,0,0,0,0,0,0,0,0,0,0,0,0,0,0,0,0,0,0,0,0,0,0,0,0,0,0,0,0,0,0,0,0,0,0,0,0,0,0,0,0,0,0,0,0,0,0,0,0],"sum_hessian":[9.1246175E5,2.2707411E5,6.853877E5,1.4357203E5,5.418156E5,4.957509E4,9.3996945E4,5.3237525E5,9.440389E3,4.703233E4,2.54276E3,8.020814E4,1.3788805E4,3.5647788E5,1.7589738E5,1.9322421E3,7.5081465E3,4.138366E4,5.6486675E3,2.0176201E3,5.251398E2,4.667281E4,3.353533E4,1.0232386E4,3.5564194E3,2.9372622E5,6.2751656E4,1.7360089E5,2.2964895E3,7.6902374E2,6.7391226E3,9.192885E3,3.2190777E4,3.916092E2,5.257058E3,1.00557007E3,1.0120501E3,7.27471E1,4.5239267E2,3.6701746E4,9.971063E3,3.25722E4,9.6312683E2,6.400735E3,3.831651E3,2.6597786E3,8.96641E2,7.155466E4,2.2217155E5,4.5946582E4,1.6805072E4,1.72689E5,9.1189703E2,4.8478592E2,1.8117036E3,2.2177068E3,4.521416E3,5.8112683E2,8.611758E3,2.8978031E4,3.2127446E3,1.3934888E2,2.5226031E2,3.4521182E3,1.8049401E3,2.0891965E2,7.966504E2,1.161559E2,8.958942E2,1.4175179E2,3.106409E2,3.4009492E4,2.6922542E3,8.13383E3,1.8372338E3,3.2241502E4,3.306979E2,6.998925E2,2.632343E2,2.532306E3,3.868429E3,3.3427522E3,4.8889877E2,1.268148E3,1.3916305E3,3.3598688E2,5.606541E2,2.1685664E3,6.938609E4,3.5238195E4,1.8693336E5,3.9411445E4,6.5351387E3,1.3288548E4,3.5165242E3,1.7233605E5,3.5294598E2,7.436091E2,1.6828793E2,3.853571E2,9.942881E1,7.1298615E2,1.0987174E3,1.3723926E3,8.4531415E2],"tree_param":{"num_deleted":"0","num_feature":"95","num_nodes":"105","size_leaf_vector":"1"}},{"base_weights":[7.268429E-2,-6.428033E-2,5.1082927E-1,2.4132738E-1,1.0427802E0,-7.659222E-1,4.8302653E-1,1.0713261E0,-1.5140116E0,-1.379001E0,7.051222E-1,3.42513E-1,1.3796624E0,6.9373E-1,1.1656842E0,-6.96951E-2,-1.5498586E0,-1.3233609E0,-1.5397456E0,1.2300575E0,-1.5861939E0,-4.631488E-3,6.876772E-1,1.3931512E0,-1.8201324E0,9.530783E-1,-1.7767152E0,1.174502E0,-7.4937E-2,-1.6202058E0,-7.457047E-2,-1.4091272E0,-1.3016393E0,-1.5227551E0,-8.9712285E-2,-1.4310282E0,1.4124423E0,-1.5431933E0,-1.8113312E0,1.2307608E0,-2.6697934E-1,7.4504304E-1,-2.03967E0,1.3979101E0,-1.009491E-1,-7.877361E-2,-9.5359206E-2,1.085696E0,-1.7593062E0,-1.632349E0,-2.3609312E0,1.1798486E0,-2.5252178E0,-8.4565535E-2,-7.31383E-2,-6.904585E-2,-7.313829E-2,-6.449185E-2,-6.853802E-2,-7.1797624E-2,-7.778146E-2,-7.4211776E-2,-6.805447E-2,7.33146E-2,-7.3932305E-2,-7.458381E-2,-7.910075E-2,-9.372471E-2,-8.577139E-2,-9.122717E-2,6.679978E-2,1.0813794E-2,-6.247751E-2,2.0160625E-2,5.5376846E-2,-1.0368236E-1,-7.231643E-2,6.309907E-2,7.198759E-2,5.7526182E-2,-9.7605966E-2,-8.150675E-2,-1.16216674E-1,-7.1853854E-2,-9.0521954E-2,-1.0658634E-1,-1.2509899E-1,5.9250798E-2,-1.2784216E-1,-1.3177803E-1,-1.013047E-1],"categories":[],"categories_nodes":[],"categories_segments":[],"categories_sizes":[],"default_left":[0,0,0,0,0,0,0,0,0,0,0,0,0,0,0,0,0,0,0,0,0,0,0,0,0,0,0,0,0,0,0,0,0,0,0,0,0,0,0,0,0,0,0,0,0,0,0,0,0,0,0,0,0,0,0,0,0,0,0,0,0,0,0,0,0,0,0,0,0,0,0,0,0,0,0,0,0,0,0,0,0,0,0,0,0,0,0,0,0,0,0],"id":16,"left_children":[1,-1,3,5,7,9,11,13,15,17,19,21,23,25,27,-1,29,31,33,35,37,39,41,43,45,47,49,51,-1,53,-1,55,57,59,-1,61,63,65,67,69,71,73,75,77,-1,-1,-1,79,81,83,85,87,89,-1,-1,-1,-1,-1,-1,-1,-1,-1,-1,-1,-1,-1,-1,-1,-1,-1,-1,-1,-1,-1,-1,-1,-1,-1,-1,-1,-1,-1,-1,-1,-1,-1,-1,-1,-1,-1,-1],"loss_changes":[5.348193E5,0E0,9.7411266E4,1.097959E5,1.6677969E4,7.87141E4,4.5824117E4,8.049953E3,8.40918E0,5.4864844E2,3.0883445E4,3.7677277E4,2.1293281E3,2.8948613E4,4.249125E3,0E0,5.2231445E0,8.316406E1,6.540234E1,1.0140705E4,4.320508E1,5.081072E4,2.467014E4,7.9958594E2,1.0611572E0,1.4709734E4,3.5779785E2,3.5671562E3,0E0,6.895996E0,0E0,1.1671875E1,2.7769531E1,3.9839844E1,0E0,2.6831055E0,3.0458516E3,5.3828125E0,1.0375977E0,8.831715E3,6.1402414E4,1.9134344E4,6.2134766E1,2.7660938E2,0E0,0E0,0E0,7.6792383E3,1.3494873E2,1.16893555E2,2.1624512E1,3.4771406E3,8.53064E0,0E0,0E0,0E0,0E0,0E0,0E0,0E0,0E0,0E0,0E0,0E0,0E0,0E0,0E0,0E0,0E0,0E0,0E0,0E0,0E0,0E0,0E0,0E0,0E0,0E0,0E0,0E0,0E0,0E0,0E0,0E0,0E0,0E0,0E0,0E0,0E0,0E0,0E0],"parents":[2147483647,0,0,2,2,3,3,4,4,5,5,6,6,7,7,8,8,9,9,10,10,11,11,12,12,13,13,14,14,16,16,17,17,18,18,19,19,20,20,21,21,22,22,23,23,24,24,25,25,26,26,27,27,29,29,31,31,32,32,33,33,35,35,36,36,37,37,38,38,39,39,40,40,41,41,42,42,43,43,47,47,48,48,49,49,50,50,51,51,52,52],"right_children":[2,-1,4,6,8,10,12,14,16,18,20,22,24,26,28,-1,30,32,34,36,38,40,42,44,46,48,50,52,-1,54,-1,56,58,60,-1,62,64,66,68,70,72,74,76,78,-1,-1,-1,80,82,84,86,88,90,-1,-1,-1,-1,-1,-1,-1,-1,-1,-1,-1,-1,-1,-1,-1,-1,-1,-1,-1,-1,-1,-1,-1,-1,-1,-1,-1,-1,-1,-1,-1,-1,-1,-1,-1,-1,-1,-1],"split_conditions":[1E0,-6.428033E-2,3.3333325E-1,4E1,6.1E1,1E0,1E0,3.9E1,2.001E3,3.4E1,3.1E1,5E-1,1E0,1E0,2.1934953E2,-6.96951E-2,3.333335E-1,1E0,1E0,1E0,1E0,-6.666667E-1,1E0,1E0,6.123234E-17,1E1,3.6E1,1E0,-7.4937E-2,7.4E1,-7.457047E-2,1.3333334E0,2.9E1,3.6E1,-8.9712285E-2,1E0,6.123234E-17,3.6E1,1E0,1E0,2E0,3.3333333E0,7.4E1,1E0,-1.009491E-1,-7.877361E-2,-9.5359206E-2,5.367937E1,3.6E1,2.9E1,1E0,1E0,1.5795007E2,-8.4565535E-2,-7.31383E-2,-6.904585E-2,-7.313829E-2,-6.449185E-2,-6.853802E-2,-7.1797624E-2,-7.778146E-2,-7.4211776E-2,-6.805447E-2,7.33146E-2,-7.3932305E-2,-7.458381E-2,-7.910075E-2,-9.372471E-2,-8.577139E-2,-9.122717E-2,6.679978E-2,1.0813794E-2,-6.247751E-2,2.0160625E-2,5.5376846E-2,-1.0368236E-1,-7.231643E-2,6.309907E-2,7.198759E-2,5.7526182E-2,-9.7605966E-2,-8.150675E-2,-1.16216674E-1,-7.1853854E-2,-9.0521954E-2,-1.0658634E-1,-1.2509899E-1,5.9250798E-2,-1.2784216E-1,-1.3177803E-1,-1.013047E-1],"split_indices":[4,0,49,0,0,23,51,0,9,0,0,55,69,58,10,0,49,61,29,34,29,49,75,75,55,8,0,74,0,0,0,48,0,0,0,58,55,0,58,54,41,48,0,90,0,0,0,10,0,0,47,25,10,0,0,0,0,0,0,0,0,0,0,0,0,0,0,0,0,0,0,0,0,0,0,0,0,0,0,0,0,0,0,0,0,0,0,0,0,0,0],"split_type":[0,0,0,0,0,0,0,0,0,0,0,0,0,0,0,0,0,0,0,0,0,0,0,0,0,0,0,0,0,0,0,0,0,0,0,0,0,0,0,0,0,0,0,0,0,0,0,0,0,0,0,0,0,0,0,0,0,0,0,0,0,0,0,0,0,0,0,0,0,0,0,0,0,0,0,0,0,0,0,0,0,0,0,0,0,0,0,0,0,0,0],"sum_hessian":[8.9866025E5,2.1917983E5,6.7948044E5,4.5099488E5,2.2848555E5,8.727697E4,3.637179E5,2.2596333E5,2.5222104E3,6.1603117E4,2.5673854E4,3.144425E5,4.9275402E4,4.517887E4,1.8078445E5,5.895434E2,1.9326671E3,4.5770117E4,1.5832999E4,2.0888787E4,4.7850674E3,1.5677189E5,1.5767061E5,4.906915E4,2.0625537E2,4.0887176E4,4.2916973E3,1.8018873E5,5.9572723E2,8.6416455E2,1.0685026E3,9.235615E3,3.6534504E4,1.4849049E4,9.839502E2,1.3393665E3,1.954942E4,4.024665E3,7.6040204E2,2.7459836E4,1.29312055E5,1.544233E5,3.2473096E3,4.900142E4,6.7724396E1,5.944132E1,1.4681406E2,3.8981855E4,1.9053185E3,3.4444907E3,8.472063E2,1.7992942E5,2.5931363E2,5.881562E2,2.7600836E2,6.0711826E3,3.164433E3,3.1224166E4,5.3103384E3,4.0920032E3,1.0757046E4,7.483755E2,5.9099097E2,1.9192469E4,3.5695285E2,1.7475853E3,2.2770798E3,4.4664713E2,3.137549E2,9.137399E2,2.6546096E4,8.6680766E4,4.263129E4,7.947809E4,7.494521E4,3.0689075E3,1.7840222E2,1.1541294E4,3.746013E4,3.8167996E4,8.138599E2,1.5540973E3,3.5122122E2,1.6475823E3,1.7969086E3,3.2915308E2,5.180532E2,1.7968166E5,2.4776773E2,2.0869595E2,5.0617664E1],"tree_param":{"num_deleted":"0","num_feature":"95","num_nodes":"91","size_leaf_vector":"1"}},{"base_weights":[9.54665E-2,-6.339137E-2,5.184664E-1,-4.343642E-1,6.6361594E-1,-1.0787536E0,7.915887E-1,4.6176165E-1,1.1124274E0,-1.3487436E0,6.899558E-2,1.1067536E0,-1.4925169E0,1.3157308E0,3.3579063E-1,1.1387309E0,-1.4527136E0,-1.3088994E0,-1.6494492E0,1.2357664E0,-1.4844482E0,-1.4584767E0,-1.7143391E0,1.3312396E0,-1.6759976E0,6.6767466E-1,1.3112775E-2,1.1491278E0,-2.815099E0,-1.4960941E0,-6.913449E-2,-1.3876698E0,-1.2807584E0,-1.4571774E0,-1.8373555E0,1.3040564E0,-1.6356636E0,-7.034633E-2,-1.7014359E0,-1.432286E0,-1.6304477E0,-7.091418E-2,-1.8424598E0,-7.557859E-2,1.3396397E0,-7.200399E-2,-1.74686E0,-2.1568382E0,7.32392E-1,1.2634866E-1,-1.6889206E0,1.1573771E0,-2.9905167E0,-2.9755104E0,-8.405691E-2,-7.8346774E-2,-7.261618E-2,-6.913915E-2,-7.9980865E-2,-6.35459E-2,-6.703838E-2,-7.4829005E-2,-6.975665E-2,-8.298739E-2,-9.708862E-2,6.740565E-2,-7.9239E-2,-7.599401E-2,-1.03089705E-1,-7.1406804E-2,-9.0447865E-2,-7.359482E-2,-6.911357E-2,-6.764855E-2,-8.355963E-2,-9.499396E-2,-7.455548E-2,6.720216E-2,-9.5512785E-2,-9.147843E-2,-7.60801E-2,-7.916461E-2,-1.1134517E-1,1.8059885E-2,5.7824846E-2,1.573715E-2,-4.2141475E-2,-9.103849E-2,-7.7420086E-2,5.815872E-2,-1.11408226E-1,-1.5923111E-1,-1.0224139E-1,-1.2455193E-1,-1.5773474E-1],"categories":[],"categories_nodes":[],"categories_segments":[],"categories_sizes":[],"default_left":[0,0,0,0,0,0,0,0,0,0,0,0,0,0,0,0,0,0,0,0,0,0,0,0,0,0,0,0,0,0,0,0,0,0,0,0,0,0,0,0,0,0,0,0,0,0,0,0,0,0,0,0,0,0,0,0,0,0,0,0,0,0,0,0,0,0,0,0,0,0,0,0,0,0,0,0,0,0,0,0,0,0,0,0,0,0,0,0,0,0,0,0,0,0,0],"id":17,"left_children":[1,-1,3,5,7,9,11,13,15,17,-1,19,21,23,25,27,29,31,33,35,37,39,41,43,45,47,49,51,53,55,-1,57,59,61,63,65,67,-1,69,71,73,-1,75,-1,77,-1,79,81,83,85,87,89,91,93,-1,-1,-1,-1,-1,-1,-1,-1,-1,-1,-1,-1,-1,-1,-1,-1,-1,-1,-1,-1,-1,-1,-1,-1,-1,-1,-1,-1,-1,-1,-1,-1,-1,-1,-1,-1,-1,-1,-1,-1,-1],"loss_changes":[5.1499088E5,0E0,9.426253E4,7.117992E4,5.3582656E4,3.920611E4,2.2348578E4,4.388768E4,1.2381906E4,6.351406E2,0E0,9.121359E3,2.5607422E1,2.4355469E3,3.8074566E4,7.469297E3,3.302246E0,1.02125E2,2.2179297E2,5.0977734E3,1.9065918E1,1.2089355E1,1.5826294E1,1.2479375E3,1.6941528E0,3.2039234E4,3.4743348E4,6.1894062E3,8.122754E1,9.4873047E-1,0E0,1.02890625E1,1.8492188E1,5.1533203E0,5.469922E1,3.232707E3,2.6312744E1,0E0,6.953308E0,3.321289E0,2.2364502E0,0E0,3.7219238E0,0E0,7.470078E2,0E0,6.6833496E-1,1.5386719E2,2.6972875E4,3.0861902E4,2.051875E2,3.5508438E3,5.9144043E1,2.7704834E1,0E0,0E0,0E0,0E0,0E0,0E0,0E0,0E0,0E0,0E0,0E0,0E0,0E0,0E0,0E0,0E0,0E0,0E0,0E0,0E0,0E0,0E0,0E0,0E0,0E0,0E0,0E0,0E0,0E0,0E0,0E0,0E0,0E0,0E0,0E0,0E0,0E0,0E0,0E0,0E0,0E0],"parents":[2147483647,0,0,2,2,3,3,4,4,5,5,6,6,7,7,8,8,9,9,11,11,12,12,13,13,14,14,15,15,16,16,17,17,18,18,19,19,20,20,21,21,22,22,23,23,24,24,25,25,26,26,27,27,28,28,29,29,31,31,32,32,33,33,34,34,35,35,36,36,38,38,39,39,40,40,42,42,44,44,46,46,47,47,48,48,49,49,50,50,51,51,52,52,53,53],"right_children":[2,-1,4,6,8,10,12,14,16,18,-1,20,22,24,26,28,30,32,34,36,38,40,42,44,46,48,50,52,54,56,-1,58,60,62,64,66,68,-1,70,72,74,-1,76,-1,78,-1,80,82,84,86,88,90,92,94,-1,-1,-1,-1,-1,-1,-1,-1,-1,-1,-1,-1,-1,-1,-1,-1,-1,-1,-1,-1,-1,-1,-1,-1,-1,-1,-1,-1,-1,-1,-1,-1,-1,-1,-1,-1,-1,-1,-1,-1,-1],"split_conditions":[1E0,-6.339137E-2,3.6E1,2E0,3.333333E-1,4E0,5.367937E1,1E0,6.1E1,3.3333302E-1,6.899558E-2,1E0,1E0,1E0,3E0,1E0,1.5647174E2,1E0,2.9E1,3.3E1,3.333333E-1,1E0,2.9E1,4E1,4E1,2E0,1.9546649E2,1E0,1.8531537E2,1E0,-6.913449E-2,1E0,2.9E1,1E1,1E0,1E1,3.333335E-1,-7.034633E-2,2.9E1,1E0,2.9E1,-7.091418E-2,2.1618173E5,-7.557859E-2,1E0,-7.200399E-2,4E0,4E1,1E0,1E0,4E0,1E0,2.0904627E5,4E1,-8.405691E-2,-7.8346774E-2,-7.261618E-2,-6.913915E-2,-7.9980865E-2,-6.35459E-2,-6.703838E-2,-7.4829005E-2,-6.975665E-2,-8.298739E-2,-9.708862E-2,6.740565E-2,-7.9239E-2,-7.599401E-2,-1.03089705E-1,-7.1406804E-2,-9.0447865E-2,-7.359482E-2,-6.911357E-2,-6.764855E-2,-8.355963E-2,-9.499396E-2,-7.455548E-2,6.720216E-2,-9.5512785E-2,-9.147843E-2,-7.60801E-2,-7.916461E-2,-1.1134517E-1,1.8059885E-2,5.7824846E-2,1.573715E-2,-4.2141475E-2,-9.103849E-2,-7.7420086E-2,5.815872E-2,-1.11408226E-1,-1.5923111E-1,-1.0224139E-1,-1.2455193E-1,-1.5773474E-1],"split_indices":[4,0,0,41,49,45,10,50,0,49,0,58,45,69,52,46,10,61,0,0,49,29,0,0,0,8,10,64,10,45,0,29,0,8,45,8,49,0,0,58,0,0,5,0,75,0,52,0,23,81,52,68,5,0,0,0,0,0,0,0,0,0,0,0,0,0,0,0,0,0,0,0,0,0,0,0,0,0,0,0,0,0,0,0,0,0,0,0,0,0,0,0,0,0,0],"split_type":[0,0,0,0,0,0,0,0,0,0,0,0,0,0,0,0,0,0,0,0,0,0,0,0,0,0,0,0,0,0,0,0,0,0,0,0,0,0,0,0,0,0,0,0,0,0,0,0,0,0,0,0,0,0,0,0,0,0,0,0,0,0,0,0,0,0,0,0,0,0,0,0,0,0,0,0,0,0,0,0,0,0,0,0,0,0,0,0,0,0,0,0,0,0,0],"sum_hessian":[8.930357E5,2.1147308E5,6.8156256E5,9.010008E4,5.914625E5,5.905801E4,3.1042064E4,4.0797622E5,1.8348628E5,5.3214895E4,5.8431196E3,2.7278666E4,3.7633984E3,5.2443906E4,3.555323E5,1.8162447E5,1.8618237E3,4.69938E4,6.221093E3,2.5985443E4,1.2932231E3,3.2696687E3,4.9372968E2,5.217403E4,2.6987646E2,1.7526527E5,1.8026706E5,1.8114886E5,4.756125E2,1.1361648E3,7.25659E2,1.2355974E4,3.463783E4,3.0794167E3,3.1416758E3,2.5382367E4,6.030767E2,9.5867065E2,3.3455246E2,2.8461238E3,4.2354495E2,1.5301051E2,3.4071918E2,1.5314948E2,5.202088E4,6.7589165E1,2.022873E2,3.9250974E3,1.7134016E5,1.6902298E5,1.1244075E4,1.8078933E5,3.5952435E2,4.1516995E2,6.044255E1,4.1974164E2,7.164231E2,1.2085326E4,2.706466E2,2.9778492E4,4.8593354E3,1.868222E3,1.2111948E3,1.1697847E3,1.9718911E3,2.5001645E4,3.807225E2,4.780009E2,1.2507583E2,9.8752914E1,2.3579955E2,1.5712806E3,1.274843E3,5.8924427E1,3.646205E2,2.8882593E2,5.1893238E1,5.1951105E4,6.977576E1,1.4242622E2,5.986108E1,4.3002097E2,3.4950764E3,9.137075E4,7.9969414E4,1.4151523E5,2.7507752E4,5.794457E3,5.449618E3,1.8048097E5,3.0836575E2,2.9624576E2,6.3278618E1,1.16268234E2,2.989017E2],"tree_param":{"num_deleted":"0","num_feature":"95","num_nodes":"95","size_leaf_vector":"1"}},{"base_weights":[2.3723513E-2,-1.1580814E0,4.2512327E-1,1.2809844E0,-6.256799E-2,-8.9480054E-1,5.281416E-1,-6.259093E-2,1.5989366E0,-1.279239E0,8.856895E-1,1.0644957E0,3.5420033E-1,8.1490904E-2,-6.2115666E-2,-1.2710788E0,-1.4288915E0,-1.3823856E0,1.2802286E0,-1.7044744E0,1.1102167E0,-3.847132E-2,6.1987567E-1,-1.2596133E0,-1.337171E0,-1.4492218E0,-6.270492E-2,-7.171062E-2,-6.566084E-2,-1.483266E0,1.4268396E0,-1.4256414E0,-1.9251637E0,3.994528E-1,1.2086897E0,-1.1253119E0,5.009168E-1,6.551484E-1,-2.0081158E0,-1.2524354E0,-1.3101099E0,-1.3184521E0,-6.819423E-2,-1.4941574E0,-6.9619E-2,-7.817939E-2,-6.7861155E-2,7.417019E-2,-6.9624506E-2,-6.7072295E-2,-8.593969E-2,-2.060657E0,-1.6287951E0,1.183668E0,-1.6745743E0,1.2343746E0,-1.6596493E0,-1.8346508E0,3.6835718E-1,-1.838852E0,6.8120205E-1,6.873973E-1,-1.9634547E0,-1.639212E0,-2.1063278E0,-6.6457115E-2,-6.254726E-2,-7.094165E-2,-6.484467E-2,-6.519484E-2,-6.859505E-2,-7.528206E-2,-6.42905E-2,-9.6777074E-2,-1.3564698E-1,-8.7002985E-2,-7.080817E-2,6.324327E-2,-1.0078956E-1,-7.765177E-2,-1.1095887E-1,6.2369514E-2,-1.16522096E-1,-8.649143E-2,-7.190152E-2,-7.336502E-2,-9.928378E-2,5.5937737E-2,-8.259473E-2,-7.322134E-2,-1.0309899E-1,4.5816615E-2,-3.3003166E-2,3.6107317E-2,-7.7569865E-2,-1.0477424E-1,-8.409825E-2,-7.81577E-2,-1.0301256E-1,-1.09305955E-1,-7.2279505E-2],"categories":[],"categories_nodes":[],"categories_segments":[],"categories_sizes":[],"default_left":[0,0,0,0,0,0,0,0,0,0,0,0,0,0,0,0,0,0,0,0,0,0,0,0,0,0,0,0,0,0,0,0,0,0,0,0,0,0,0,0,0,0,0,0,0,0,0,0,0,0,0,0,0,0,0,0,0,0,0,0,0,0,0,0,0,0,0,0,0,0,0,0,0,0,0,0,0,0,0,0,0,0,0,0,0,0,0,0,0,0,0,0,0,0,0,0,0,0,0,0,0],"id":18,"left_children":[1,3,5,7,-1,9,11,-1,13,15,17,19,21,-1,-1,23,25,27,29,31,33,35,37,39,41,43,-1,-1,-1,45,47,49,51,53,55,57,59,61,63,65,67,69,-1,71,-1,-1,-1,-1,-1,-1,-1,73,75,77,79,81,83,85,87,89,91,93,95,97,99,-1,-1,-1,-1,-1,-1,-1,-1,-1,-1,-1,-1,-1,-1,-1,-1,-1,-1,-1,-1,-1,-1,-1,-1,-1,-1,-1,-1,-1,-1,-1,-1,-1,-1,-1,-1],"loss_changes":[3.9378397E5,4.7884344E4,8.4257695E4,6.2454434E3,0E0,3.0708395E4,5.3623625E4,0E0,6.064824E2,4.296875E1,7.130859E3,1.7821625E4,4.527953E4,0E0,0E0,2.4574219E1,4.661133E0,2.0751953E0,2.7518857E3,1.376372E2,9.691047E3,1.02680625E5,2.3998227E4,8.921875E0,5.1171875E-1,1.9584961E0,0E0,0E0,0E0,1.052002E0,1.0299609E3,2.242456E1,4.7410645E1,2.7410713E4,8.962109E3,6.1553836E4,4.9379695E4,2.1573266E4,1.2040332E2,1.0742188E0,3.1914062E0,3.2714844E-1,0E0,1.3916016E-2,0E0,0E0,0E0,0E0,0E0,0E0,0E0,6.527637E1,6.7906494E0,3.1793184E3,3.022373E2,5.5957344E3,1.3989746E1,2.1820312E3,2.836101E4,6.962871E2,3.427699E4,1.963232E4,1.1160254E2,1.9654785E1,1.3904492E2,0E0,0E0,0E0,0E0,0E0,0E0,0E0,0E0,0E0,0E0,0E0,0E0,0E0,0E0,0E0,0E0,0E0,0E0,0E0,0E0,0E0,0E0,0E0,0E0,0E0,0E0,0E0,0E0,0E0,0E0,0E0,0E0,0E0,0E0,0E0,0E0],"parents":[2147483647,0,0,1,1,2,2,3,3,5,5,6,6,8,8,9,9,10,10,11,11,12,12,15,15,16,16,17,17,18,18,19,19,20,20,21,21,22,22,23,23,24,24,25,25,29,29,30,30,31,31,32,32,33,33,34,34,35,35,36,36,37,37,38,38,39,39,40,40,41,41,43,43,51,51,52,52,53,53,54,54,55,55,56,56,57,57,58,58,59,59,60,60,61,61,62,62,63,63,64,64],"right_children":[2,4,6,8,-1,10,12,-1,14,16,18,20,22,-1,-1,24,26,28,30,32,34,36,38,40,42,44,-1,-1,-1,46,48,50,52,54,56,58,60,62,64,66,68,70,-1,72,-1,-1,-1,-1,-1,-1,-1,74,76,78,80,82,84,86,88,90,92,94,96,98,100,-1,-1,-1,-1,-1,-1,-1,-1,-1,-1,-1,-1,-1,-1,-1,-1,-1,-1,-1,-1,-1,-1,-1,-1,-1,-1,-1,-1,-1,-1,-1,-1,-1,-1,-1,-1],"split_conditions":[1E0,0E0,2.9E1,1.77E2,-6.256799E-2,1E0,1.1235217E1,-6.259093E-2,1.78E2,1E0,1E0,1E0,2.3333333E0,8.1490904E-2,-6.2115666E-2,1E0,1E0,1E0,1.5236448E5,3.6E1,4E1,1.1083143E5,1E0,2E0,1.3741398E5,1E0,-6.270492E-2,-7.171062E-2,-6.566084E-2,1E0,1.5397158E5,1E0,6.1E1,2E0,6.1E1,6.3E1,5.0525623E1,1E0,4E1,1E0,2E0,2E0,-6.819423E-2,2.0904627E5,-6.9619E-2,-7.817939E-2,-6.7861155E-2,7.417019E-2,-6.9624506E-2,-6.7072295E-2,-8.593969E-2,1E0,7.4E1,1E0,1E0,3E0,7.4E1,4E1,6.7E1,4E1,2E0,7E1,4E0,1E0,7.4E1,-6.6457115E-2,-6.254726E-2,-7.094165E-2,-6.484467E-2,-6.519484E-2,-6.859505E-2,-7.528206E-2,-6.42905E-2,-9.6777074E-2,-1.3564698E-1,-8.7002985E-2,-7.080817E-2,6.324327E-2,-1.0078956E-1,-7.765177E-2,-1.1095887E-1,6.2369514E-2,-1.16522096E-1,-8.649143E-2,-7.190152E-2,-7.336502E-2,-9.928378E-2,5.5937737E-2,-8.259473E-2,-7.322134E-2,-1.0309899E-1,4.5816615E-2,-3.3003166E-2,3.6107317E-2,-7.7569865E-2,-1.0477424E-1,-8.409825E-2,-7.81577E-2,-1.0301256E-1,-1.09305955E-1,-7.2279505E-2],"split_indices":[4,47,0,2,0,23,10,0,2,47,34,60,48,0,0,60,91,58,5,0,0,5,64,35,5,58,0,0,0,58,5,45,0,2,0,0,10,26,0,48,48,35,0,5,0,0,0,0,0,0,0,47,0,58,47,48,0,0,0,0,41,0,52,45,0,0,0,0,0,0,0,0,0,0,0,0,0,0,0,0,0,0,0,0,0,0,0,0,0,0,0,0,0,0,0,0,0,0,0,0,0],"split_type":[0,0,0,0,0,0,0,0,0,0,0,0,0,0,0,0,0,0,0,0,0,0,0,0,0,0,0,0,0,0,0,0,0,0,0,0,0,0,0,0,0,0,0,0,0,0,0,0,0,0,0,0,0,0,0,0,0,0,0,0,0,0,0,0,0,0,0,0,0,0,0,0,0,0,0,0,0,0,0,0,0,0,0,0,0,0,0,0,0,0,0,0,0,0,0,0,0,0,0,0,0],"sum_hessian":[8.3010706E5,2.1046167E5,6.196454E5,7.751797E3,2.0270988E5,4.4860535E4,5.747849E5,8.642155E2,6.887581E3,3.6894676E4,7.9658594E3,1.4075528E5,4.3402956E5,6.8139814E3,7.3599655E1,3.4996566E4,1.8981116E3,1.1799515E3,6.7859077E3,2.2857659E3,1.3846952E5,1.7515245E5,2.5887712E5,2.9841328E4,5.1552383E3,1.6933004E3,2.048111E2,6.6242725E2,5.175243E2,3.4138E2,6.444528E3,1.0133487E3,1.2724172E3,1.6850557E4,1.2161896E5,5.8094332E4,1.1705812E5,2.554493E5,3.4278313E3,2.6151738E4,3.6895898E3,3.063018E3,2.09222E3,9.30589E2,7.627115E2,2.0105664E2,1.4032336E2,6.318274E3,1.2625382E2,7.918424E2,2.2150633E2,8.6888934E2,4.0352786E2,1.222762E4,4.6229365E3,1.2054017E5,1.078789E3,3.938863E4,1.8705703E4,8.373668E3,1.0868445E5,2.5234239E5,3.1068994E3,7.246417E2,2.7031895E3,4.801661E2,2.5671572E4,3.8755103E2,3.3020388E3,2.4288496E3,6.3416846E2,8.756193E2,5.4969666E1,7.3250653E2,1.363828E2,2.5988376E2,1.436441E2,1.1925603E4,3.020174E2,3.7827715E3,8.4016516E2,1.20102336E5,4.378332E2,8.138221E2,2.649669E2,1.1478904E4,2.7909725E4,1.3639847E4,5.065857E3,3.1297385E3,5.243929E3,9.247375E4,1.6210701E4,2.4848628E5,3.8561118E3,2.1102888E3,9.966106E2,6.1796106E2,1.0668068E2,2.4097288E3,2.934607E2],"tree_param":{"num_deleted":"0","num_feature":"95","num_nodes":"101","size_leaf_vector":"1"}},{"base_weights":[1.4922634E-1,-1.1433548E0,5.2969456E-1,1.3182473E0,-6.1805606E-2,2.8527868E-1,1.0032645E0,-6.1828464E-2,1.5572238E0,9.730087E-1,9.378187E-2,8.7562275E-1,1.2134792E0,7.9019636E-2,-6.1276414E-2,1.0304322E0,-1.7866699E0,1.15188E0,-1.9223507E-2,8.992083E-1,-1.508106E0,1.2219077E0,-8.757057E-2,-1.9228134E0,1.0747828E0,-1.861952E0,-8.0308005E-2,1.2080134E0,-1.5710655E0,-3.7485325E-1,4.049035E-1,9.1714203E-1,-1.9331472E0,-1.4931533E0,-9.1625385E-2,1.2285634E0,